<?xml version="1.0"?>
<opencv_storage>
<my_svm type_id="opencv-ml-svm">
  <svm_type>C_SVC</svm_type>
  <kernel><type>LINEAR</type></kernel>
  <C>1.0000000000000001e-001</C>
  <term_criteria><epsilon>2.2204460492503131e-016</epsilon>
    <iterations>100000</iterations></term_criteria>
  <var_all>3776</var_all>
  <var_count>3776</var_count>
  <class_count>8</class_count>
  <class_labels type_id="opencv-matrix">
    <rows>1</rows>
    <cols>8</cols>
    <dt>i</dt>
    <data>
      0 1 2 3 4 5 6 7</data></class_labels>
  <sv_total>28</sv_total>
  <support_vectors>
    <_>
      7.82448158e-004 -1.91005383e-005 -6.99100638e-005 8.73095123e-005
      2.53498962e-004 8.81263477e-005 -1.97061163e-004 6.81769088e-005
      -7.22245022e-005 -1.10604655e-004 -1.47279216e-005
      -1.93074957e-005 3.62835039e-004 1.64345081e-004 4.49416082e-004
      7.32852859e-005 3.15534198e-005 1.33198846e-004 3.25565139e-004
      9.83449863e-004 2.48051147e-005 3.81343823e-004 6.56390475e-005
      8.05208256e-005 3.62911451e-005 3.38975748e-004 7.98210735e-004
      2.34015286e-004 2.43359289e-004 -3.07159935e-005 -9.47377885e-006
      -4.90735751e-004 -3.54949501e-004 -8.83817265e-005
      -8.98293802e-005 1.55132395e-004 -3.24631197e-004 -9.83831356e-004
      -1.24771870e-003 -8.44535185e-004 -1.88518621e-004
      -3.03455890e-004 -5.04184223e-004 -8.03013856e-004
      -4.43570432e-004 -2.38234861e-004 -9.33224728e-005
      -3.68523964e-004 -5.53721096e-004 4.17630617e-005 -9.63673447e-005
      3.10718722e-004 -2.26709799e-005 -3.67650100e-005 -6.89655280e-005
      -2.44861294e-004 -4.18776544e-005 1.55663455e-003 9.05173714e-004
      8.59989887e-005 -1.67524966e-004 -2.75338989e-005 4.26155275e-005
      7.41172407e-005 6.66198248e-005 1.02002632e-004 0. 8.41057990e-005
      3.89254456e-005 -4.79566734e-005 1.28489012e-006 8.84051260e-005
      1.52967710e-004 4.95765053e-005 -5.68581381e-005 -8.85005866e-005
      -1.19709279e-004 -1.13768374e-005 -6.85329651e-005
      -1.57603237e-004 3.94053932e-005 -2.94963073e-004 -2.78796011e-004
      -5.77330124e-004 -4.37362149e-004 -2.49635836e-004 1.09377800e-006
      5.65104383e-005 -5.45435432e-005 7.97534885e-005 1.87729063e-004
      3.51609255e-004 3.63357904e-005 -7.95460874e-005 1.06903477e-004
      6.35569813e-005 7.57872069e-004 2.54261703e-003 1.91285813e-004
      5.38345084e-005 2.00039765e-004 -1.08346438e-004 -3.20734427e-004
      5.90795302e-004 -2.35310421e-004 1.92261839e-004 -7.45723839e-004
      -3.15767742e-004 7.11233952e-005 -2.27026740e-005 -3.17743688e-004
      -1.34228118e-004 -1.29124150e-004 -1.46597813e-004
      -1.66333455e-004 -7.92308674e-006 6.71640955e-005 -1.00820197e-003
      -1.27882886e-004 -1.24528859e-004 8.34572893e-006 -1.05021092e-004
      -1.94434964e-004 5.54831331e-006 -3.71501577e-004 1.80608768e-005
      -5.49154574e-005 -6.09916206e-005 -2.78182590e-004 1.18109536e-004
      -1.48840609e-005 -2.13999490e-004 -2.63784168e-004
      -3.28149385e-004 -4.32642773e-005 -5.67827701e-005 1.00817648e-004
      -4.91779821e-004 -8.80596708e-005 -4.73815344e-005
      -1.89695274e-004 2.42004156e-004 1.19393284e-003 2.51733320e-004
      9.26938155e-005 1.34340866e-004 -8.37100379e-005 3.52605566e-005
      -1.77588488e-004 4.10036766e-004 -4.34232614e-004 -9.30763708e-005
      -2.25990851e-004 -1.78881761e-004 1.76147914e-005 3.58642865e-004
      2.04340322e-003 3.58786318e-004 -3.57100653e-004 -2.33572151e-004
      -2.06494457e-004 -1.53353508e-003 1.46112681e-004 -3.07273032e-004
      -1.86411999e-004 6.31121395e-004 8.64331436e-004 -4.31182765e-004
      -1.13682028e-004 9.56378412e-004 -5.08856829e-005 -3.96937656e-004
      6.92049041e-004 2.37621265e-004 6.08389346e-005 -3.91796748e-005
      -8.72809964e-004 -2.92963996e-005 2.31323880e-004 7.25788486e-005
      -4.62399948e-005 -4.99152302e-005 2.68254917e-005 -2.23638024e-004
      3.14266526e-006 1.14090108e-006 1.23841464e-005 -2.08567682e-004
      5.17810477e-005 -3.29984755e-006 1.48639510e-005 -2.83396337e-004
      -1.57263814e-004 1.02839032e-004 2.55269959e-004 2.65830808e-004
      3.81952443e-004 -2.95463378e-005 -6.22429579e-005 -3.14269186e-004
      -9.11871684e-005 1.03855063e-003 1.96200403e-004 2.65988987e-004
      2.13575913e-004 4.99268390e-006 5.29176359e-005 -4.79739501e-005
      -4.97038360e-004 -1.11976324e-003 -3.09244875e-004
      -1.68872633e-004 5.24996067e-005 2.50535319e-004 -2.20988557e-004
      -1.93447340e-003 -7.47500802e-004 -2.78930354e-004
      -6.71648813e-005 3.49139853e-004 -1.85614475e-003 5.21271199e-004
      -3.22390086e-004 1.60643744e-004 1.48810470e-003 6.74243725e-004
      -3.53920914e-005 -7.00983655e-005 7.22818018e-004 3.47387686e-004
      -2.90874959e-006 4.51365748e-004 1.60607247e-004 9.97208826e-006
      7.61994219e-004 3.50054725e-005 3.25800938e-004 -9.60443431e-005
      3.02729459e-005 -9.13738331e-005 -1.90153238e-004 1.66756454e-005
      -2.83263857e-004 4.09260683e-005 6.43941385e-005 1.01269961e-005
      -1.81633062e-004 4.84605931e-004 1.58495488e-004 -4.48633909e-005
      -2.26387165e-005 -9.16087665e-005 8.20763744e-005 2.36118794e-004
      4.02164966e-004 6.15500321e-004 5.53622995e-005 -1.65185411e-004
      -1.75176974e-004 1.03534388e-004 -8.77504717e-005 -5.14032319e-004
      5.15555788e-004 2.10733706e-004 1.92030362e-004 8.38353953e-005
      -2.12584622e-004 -2.92213401e-004 -7.63375312e-004
      -2.35983724e-004 -1.64269950e-004 -1.35818351e-004 1.91219980e-004
      -3.73398507e-005 -1.01720099e-003 -4.51227766e-004
      -1.66162776e-004 -3.19194223e-005 3.43771171e-005 3.18608101e-004
      6.12182077e-004 -3.20977269e-005 2.28151112e-004 3.73544579e-004
      4.12668654e-004 -5.35798790e-005 -3.09395778e-004 -3.23661719e-004
      9.70258625e-005 -2.92806199e-005 2.45823816e-004 1.44365898e-004
      3.41044593e-004 -4.32270535e-005 -3.84159008e-004 7.18102267e-004
      1.01991507e-004 7.47457625e-006 2.54741917e-005 -7.11744997e-006
      6.82328050e-007 -2.71590892e-004 1.23834943e-005 2.51789927e-004
      3.90717105e-006 -1.96327557e-004 -1.34692498e-004 2.28655317e-005
      -1.85961471e-004 -8.91350501e-005 -8.52743397e-005 1.57266928e-004
      -1.82315576e-004 1.95860324e-004 -4.32913366e-004 -1.20832468e-004
      -2.12353043e-005 5.12209917e-005 5.58223925e-004 1.23253869e-006
      -6.43207808e-004 -1.26694597e-003 -3.54347838e-004
      -2.37185421e-004 5.35639228e-005 8.34283564e-005 2.55375721e-006
      -4.97346453e-004 -1.67608217e-004 -2.29627367e-005 1.46174534e-005
      5.83775509e-005 -4.21486911e-004 -6.82641519e-004 -2.54455808e-004
      -1.33545662e-004 -9.13608164e-005 8.15118256e-005 -2.01202885e-004
      8.39873464e-005 9.06366113e-005 7.96168024e-006 3.72219598e-004
      1.79640556e-004 -1.86261477e-005 3.95629613e-004 6.42482948e-004
      1.22875252e-004 3.11150798e-004 1.93806947e-004 4.72399493e-004
      -4.09685526e-005 4.19801625e-004 1.06616772e-003 4.60614538e-004
      -1.14451341e-005 3.17122090e-006 -6.75557239e-005 2.70036020e-004
      -2.27135424e-005 5.81280692e-005 1.01290927e-004 -1.75026085e-004
      -8.95941921e-005 -1.11131398e-004 -1.46718172e-004
      -1.10575449e-004 -5.57125350e-005 -3.50033544e-004
      -5.48577336e-005 -1.80949937e-005 -1.95446672e-004
      -4.10834939e-004 -9.83275240e-004 -4.13375528e-004
      -1.11740403e-004 4.04151040e-004 6.37473364e-004 3.78755038e-004
      -1.30986783e-003 -1.53287081e-003 -3.32464551e-004
      -9.46526925e-005 3.40818260e-005 2.32175553e-005 -6.06527537e-005
      -3.62172244e-007 -1.14746239e-004 -7.75635926e-005 9.40952013e-005
      3.81499762e-004 1.05784624e-004 1.21847123e-004 4.83795957e-005
      -1.25598744e-004 1.94329710e-004 4.95752844e-004 1.86071902e-005
      -1.93248678e-004 2.07521778e-004 -8.01811839e-005 -4.39103896e-004
      -5.40527515e-004 1.55082613e-004 4.49008076e-006 6.10647257e-004
      3.54638934e-004 7.41624623e-004 -7.86825331e-005 -1.05001760e-004
      -9.64387364e-005 1.72026292e-003 8.84611392e-004 5.25136827e-004
      5.94003177e-005 1.72945693e-005 9.98216346e-005 1.74295332e-004
      -5.59995460e-005 -2.35424523e-005 4.76027853e-005 -2.60890927e-004
      -2.45608739e-004 -3.04810703e-004 2.06297555e-004 -3.12299380e-004
      -2.91550008e-004 -3.45410343e-004 -4.10022010e-004 6.97485302e-005
      1.46549690e-004 5.74388068e-005 -9.46569722e-004 -4.00972902e-004
      -1.29972614e-004 2.53700709e-005 2.03878357e-004 2.29674974e-004
      -1.84355408e-003 -1.04863534e-003 1.08636596e-004 1.73690845e-004
      -7.60335433e-006 3.93836744e-005 -8.21333088e-005 -7.29819149e-005
      1.81005016e-004 -9.09424925e-005 1.53870606e-005 4.13566559e-005
      -8.08109980e-005 -1.95269531e-004 -5.09168312e-005 3.56408091e-005
      -1.97678546e-007 3.82474362e-004 -3.52565548e-004 -1.58444032e-004
      3.00804008e-004 -6.66759734e-005 5.40248526e-004 -4.02201724e-004
      2.00880546e-004 2.36086707e-004 7.00021046e-004 2.07960460e-004
      -7.43884129e-006 2.95190403e-004 1.18764896e-004 2.65527779e-004
      9.30987240e-004 1.55146490e-003 2.18834088e-004 -7.88113393e-005
      -6.74498078e-005 -6.53504003e-006 2.73762242e-004 -8.02025716e-006
      -4.40814329e-004 1.23773876e-004 7.15952119e-005 -3.05499198e-005
      -7.80413393e-005 -6.50204602e-005 -4.17507072e-005 5.90653508e-005
      -2.19245499e-006 -7.13793779e-005 1.01401405e-004 -4.72156462e-005
      -1.46657374e-004 -3.28632683e-004 3.65892665e-005 2.08491128e-005
      -1.06493375e-004 1.07726184e-004 -1.10353765e-004 4.91645187e-004
      -8.00034672e-004 1.36099799e-004 -3.25518922e-005 -4.09685017e-005
      -1.54312773e-004 -7.23859586e-004 -1.61895982e-003
      -2.86108174e-004 1.21825236e-004 6.03081251e-004 -1.15697701e-004
      3.78980825e-004 1.12153252e-003 -8.76391015e-004 -1.54598092e-005
      -2.97086171e-005 -1.73653134e-005 5.80004125e-004 7.86115183e-004
      -2.18157162e-004 1.04519768e-005 -3.46090033e-004 1.79230075e-004
      4.94393935e-005 -5.76776692e-005 2.33150946e-004 3.27060116e-004
      -2.85715418e-004 2.08696874e-004 1.51229688e-004 3.79577832e-005
      3.04331392e-004 5.14546933e-004 -3.43548309e-004 -2.88675074e-004
      5.19339592e-005 1.25121718e-004 2.26197499e-005 -1.01158148e-004
      -5.17999115e-006 0. -9.39917445e-005 -5.75685262e-005
      -1.12784335e-004 -2.00098366e-005 -4.08687338e-005
      -1.49919988e-005 -3.28348920e-004 -2.55808409e-004 3.17122090e-006
      -3.86794854e-005 -7.63577409e-005 -5.13378298e-004
      -8.30811987e-005 -1.24347047e-004 1.91396262e-004 2.99829808e-005
      -1.55850474e-004 -3.47354362e-004 -4.34497808e-004
      -5.04112722e-005 8.63235473e-005 1.47346618e-005 1.08984561e-004
      5.41208778e-004 -9.97853465e-004 -1.88204765e-004 -5.49294418e-005
      -3.03844663e-005 -6.69263172e-005 5.77028200e-004 3.21019208e-003
      2.62717745e-004 -5.08149014e-006 -7.94115040e-005 2.88968295e-004
      -4.15205723e-005 -2.98516388e-004 -2.37104294e-004 1.29062420e-004
      5.80460706e-004 -1.74123779e-005 -2.64787868e-005 -6.61307558e-006
      -2.49616191e-004 -2.24165706e-004 -3.56203018e-005
      -1.11042391e-004 -4.62327407e-005 -1.83631637e-004 2.54392158e-004
      -9.06613059e-005 -1.57135641e-004 -5.38870576e-004
      -4.29535830e-005 1.20629054e-004 -1.67835053e-004 8.13259176e-005
      6.38158759e-004 -2.18442692e-005 0. -2.27035871e-005
      7.74957414e-004 1.26042156e-004 1.50057196e-004 -1.67076985e-004
      7.16746872e-005 -7.78521207e-005 4.22236699e-005 -6.41049555e-005
      -7.21816541e-005 -1.32289366e-004 2.51725251e-005 1.36256249e-005
      9.28040536e-005 -1.19581437e-005 -1.22807280e-004 -6.68137291e-005
      -1.85912984e-004 2.76321007e-005 7.41603071e-005 -3.03628931e-005
      -3.56900506e-004 6.10020070e-004 5.61918205e-005 -2.57846532e-005
      1.46095801e-004 -1.07950866e-004 -3.99176817e-004 -2.97949970e-004
      7.26361119e-004 7.47900223e-004 -1.19643882e-004 -3.30398798e-005
      3.44004147e-005 1.89997481e-005 -8.78483232e-004 -2.95168109e-004
      -3.66351342e-005 2.55020871e-003 -4.58947994e-004 -3.80118203e-004
      -1.88926788e-004 -1.33193927e-004 -1.92680687e-004
      -2.00254304e-004 -9.79599718e-005 5.14581516e-005 1.83760523e-004
      -3.15587909e-004 -9.62754420e-004 -8.26998512e-005
      -1.44923557e-004 -3.23214008e-005 2.67015985e-005 -8.95257326e-005
      1.46993305e-004 -1.06029700e-004 -1.10859764e-005 6.22100633e-005
      9.11869356e-005 4.34142945e-004 1.54842332e-004 1.81586744e-004
      -2.28965422e-004 9.24565902e-005 9.82422280e-005 -3.03515867e-006
      1.11326786e-004 -3.31313859e-005 -1.59468662e-004 1.40951097e-005
      5.10697137e-005 2.12775176e-005 1.49889702e-005 1.98018286e-004
      -4.09658038e-004 -1.62835233e-004 -2.51119909e-005 1.04075816e-005
      -8.03045987e-005 -2.52204918e-004 8.56997140e-005 1.09828870e-005
      2.05552453e-004 6.77435401e-006 -5.37701053e-005 3.23296408e-004
      -6.11518626e-004 -1.69589045e-003 -1.15362217e-003 6.78830256e-005
      -8.11326026e-005 4.50623134e-004 3.18365823e-003 -8.75213242e-004
      -5.15589607e-004 -2.20979680e-004 1.45101175e-003 1.34824472e-003
      -1.53111105e-004 -3.93558905e-004 1.42888384e-004 1.63445802e-004
      -3.59989586e-004 4.78905633e-007 1.27510881e-004 -6.37642779e-006
      -4.96071938e-004 -8.39471351e-004 -2.20639486e-004
      -1.65335310e-004 -2.46084437e-005 -8.65398251e-005
      -2.75390659e-004 -2.78989264e-005 -6.33229327e-004
      -5.96891914e-006 -1.54783789e-004 3.63216241e-005 3.63249637e-006
      -1.55846705e-004 -3.64550360e-005 -2.90198979e-004
      -1.43250611e-004 5.35919971e-005 2.08050114e-004 -1.54922367e-004
      -1.20951490e-005 -3.55896045e-004 -1.78522532e-004
      -1.87450758e-004 -1.37261246e-004 -4.41677839e-005 6.78345445e-004
      5.64985152e-004 -6.03381253e-004 -1.61855758e-004 6.30976501e-005
      -6.93003130e-006 -9.88845641e-005 -3.54958203e-004
      -6.49880385e-004 3.05744215e-005 1.41597076e-004 -3.32095253e-004
      -1.07899999e-004 1.09385532e-004 -1.82761543e-003 -9.38111159e-004
      -1.67479724e-004 -1.41363140e-004 8.65084759e-004 2.46294029e-003
      -2.05050121e-004 -2.12879720e-004 -5.60898625e-005 2.68269051e-003
      1.84541289e-003 -1.89367536e-004 -1.01941783e-004 -1.25119725e-004
      -1.95922839e-005 1.17526426e-004 1.28670843e-004 6.04484121e-005
      3.42463936e-005 7.06379535e-004 -1.20202382e-003 -4.67992330e-004
      -5.36875450e-005 -2.94174661e-005 -1.96770197e-004
      -2.41375950e-004 2.28293284e-005 -6.89036737e-004 -1.50508949e-005
      -7.76184315e-005 1.62544457e-004 -4.10358800e-004 -1.83716373e-004
      -2.50788056e-004 -5.64130838e-004 1.10466126e-003 -9.65613290e-005
      4.88782680e-005 3.34836775e-004 3.31638839e-005 6.93641559e-005
      -5.80822052e-005 -1.71174557e-004 -5.75614868e-005 3.73429764e-004
      1.21461542e-003 -3.77677177e-004 -6.41914899e-004 -3.61267856e-004
      -1.17284239e-004 2.62843751e-005 -8.49610115e-006 -1.45101934e-004
      -5.28461765e-004 -2.04164346e-004 -5.09693709e-005
      -2.16717846e-004 2.40339432e-004 -1.87601792e-004 -8.02219321e-004
      -8.71805532e-004 -1.94199965e-004 -8.26257674e-005 9.64482839e-004
      2.32764683e-003 1.11958143e-004 -7.65766599e-004 -1.53408560e-004
      3.16677126e-003 1.85447070e-003 -1.90985884e-004 -1.81208961e-004
      9.59589670e-005 1.14778741e-004 1.36896313e-004 2.38469307e-004
      3.73414650e-006 -3.89810768e-004 -5.45232091e-004 -2.06587045e-003
      -2.75250262e-004 -3.55571046e-006 -1.33154954e-005
      -1.91744140e-004 -1.31999521e-004 -1.04083585e-004
      -5.72985446e-004 -3.96397445e-005 -5.14234343e-005 2.47086340e-004
      6.94902323e-004 -1.07944630e-004 -5.74683463e-006 -4.84117423e-004
      -5.58281434e-004 7.63801276e-004 2.68153817e-005 1.33882873e-004
      -9.79466480e-004 -1.87768240e-003 -6.65316184e-005
      -1.26815779e-004 -3.04449408e-004 6.14534772e-004 2.11025728e-003
      9.19920451e-004 -2.83133192e-003 -4.33020556e-004 -2.58820452e-004
      3.28140304e-005 -4.11772999e-005 -1.21119056e-005 -3.29272094e-004
      -1.90265819e-005 -2.03924385e-004 -6.51649316e-005 2.62479807e-005
      1.47591418e-004 -3.89773602e-004 -6.50584232e-004 -1.63487246e-004
      -1.63695790e-004 9.60991660e-004 1.46278541e-003 6.68359571e-005
      -9.69087778e-005 9.02003303e-005 2.78015761e-003 1.12325908e-003
      -1.25834616e-004 3.50143528e-005 5.50782017e-004 2.01087358e-004
      4.49493273e-005 -2.95441801e-004 1.66209997e-004 -3.73730181e-005
      -3.62618506e-004 -8.25526018e-004 -1.03993720e-004 2.53569597e-005
      0. -2.36720462e-005 -6.64977561e-005 -3.60687300e-005
      -1.93152722e-004 -1.17418982e-004 -1.50129796e-004
      -1.06130137e-005 -1.55074871e-004 -9.83394275e-005
      -2.44651339e-004 -7.05914747e-004 -2.98173618e-005 6.33156669e-005
      2.50784215e-004 -2.42907059e-004 -9.37644276e-004 -3.23771941e-003
      -4.66723577e-004 -1.74574416e-005 3.73317336e-004 4.27652558e-004
      8.41658155e-004 4.63370653e-003 -2.44819885e-003 -5.44205599e-004
      -2.20610949e-004 -1.42912513e-005 4.09933746e-005 6.02302425e-005
      -2.46506475e-004 -9.77741292e-005 -7.22598852e-005
      -2.46359177e-005 -5.55197003e-005 -4.03096419e-005
      -3.50881237e-005 5.99442646e-005 -4.76490568e-005 -2.89102973e-005
      2.67186057e-004 3.38589918e-004 4.87231046e-005 -9.31793256e-005
      6.25243138e-006 9.75079252e-004 1.54752503e-004 1.08143526e-004
      -6.32069987e-006 1.19559828e-003 3.05537018e-004 2.96558137e-004
      1.22827783e-004 -1.32951536e-004 -3.00255604e-004 5.69823373e-004
      8.04324955e-005 4.97239176e-004 -1.14317103e-004 1.31885026e-004
      -5.15641750e-006 3.56370409e-004 -1.27752734e-004 -2.62769958e-004
      4.16171388e-005 -1.65409438e-004 -2.81404591e-005 -2.94844284e-007
      1.09193257e-004 8.52254016e-005 -2.12886342e-004 -1.57072252e-004
      -6.06043206e-004 5.55931547e-005 1.44442311e-004 -2.45522417e-004
      -9.24796157e-004 -2.92976125e-004 3.64348343e-005 -2.44877941e-004
      6.13877564e-005 4.60725976e-004 1.03757915e-003 -2.02420779e-004
      2.70639703e-006 -4.62527569e-005 -4.65455305e-005 -1.05544728e-004
      4.69361607e-004 -8.05360614e-004 7.25638165e-005 -1.33299123e-004
      5.68320720e-005 -6.75660995e-005 3.27922535e-005 1.74961507e-003
      -5.23111492e-004 -1.58448427e-004 -5.07207224e-005 1.22343510e-004
      4.80468334e-005 -5.06738550e-004 2.61728201e-005 6.85731356e-006
      4.47010476e-004 -1.31724926e-004 1.58355338e-004 -2.35634710e-004
      4.45738318e-004 3.85630192e-005 2.81456974e-004 1.54452020e-004
      9.72647977e-005 3.22746084e-004 -1.33317627e-003 1.83987911e-004
      -2.00072216e-004 -3.80487298e-004 -1.80234347e-005 2.75996194e-004
      1.37736904e-004 1.63648801e-004 -2.63871101e-004 -2.58431410e-005
      -5.82818902e-005 -1.60174794e-004 -4.38135205e-004
      -6.57721466e-005 -1.63749995e-004 -3.66446271e-004 1.39225769e-004
      -1.31155166e-003 -1.63789427e-005 1.32968868e-004 1.62184748e-004
      -8.58367188e-004 -4.33543260e-004 -2.33788669e-004 3.91091125e-005
      1.85429511e-004 8.19467357e-004 8.50854849e-004 -3.61458602e-004
      -7.60828989e-005 -7.85468656e-005 9.21794199e-005 2.45307183e-005
      2.30189471e-004 -6.69802190e-004 -3.47637804e-004 -3.82644830e-005
      -1.96555542e-004 2.40953435e-004 6.48986432e-004 9.39940277e-004
      -1.41613637e-004 -8.39724671e-005 -5.37351661e-006 1.94145512e-004
      -3.20297149e-005 -7.04506529e-005 -5.23627059e-005
      -1.89550614e-004 8.73850659e-004 3.23342305e-004 7.60983967e-005
      7.13644622e-005 4.33085719e-004 8.88542927e-005 4.32946035e-005
      6.55659314e-005 3.12462507e-005 4.04125865e-004 1.28724598e-004
      -4.78911563e-004 1.71642707e-004 1.43016092e-004 -1.20520192e-004
      -2.38849578e-004 -3.39583930e-005 7.59249597e-005 1.87667523e-004
      3.93436312e-005 -1.30831875e-004 -5.79843945e-005 5.22687187e-005
      3.30746610e-004 -2.75027123e-005 -2.50189005e-005 -2.45907431e-004
      -6.54194446e-004 -4.17694500e-005 -4.50022271e-005
      -1.94563749e-004 1.87978061e-004 2.07765006e-005 -8.32896258e-005
      -8.91091404e-005 8.27781332e-006 1.48995619e-004 -3.86808504e-004
      8.92599783e-005 6.75957199e-005 -2.94608926e-005 2.79956039e-005
      -8.82414224e-006 -3.82200597e-006 -1.69429113e-004
      -1.26990650e-004 -2.50258108e-005 -1.26770674e-005 2.48572610e-006
      -8.35377796e-006 -1.49204527e-004 -1.98488618e-004
      -3.01071152e-004 -1.88716615e-004 1.68794679e-004 3.58087455e-005
      -1.21501413e-004 -5.07753357e-005 4.56934271e-004 1.69483828e-003
      2.27828903e-004 -3.81378522e-005 1.66518512e-005 -5.59825639e-005
      -1.28411673e-004 1.22081634e-004 9.23349435e-005 -5.14005587e-005
      -2.64423521e-004 -2.43516159e-004 1.82275486e-004 -3.96140502e-004
      -2.04902855e-004 3.47637688e-005 -1.97106347e-004 1.32234549e-004
      -2.13163061e-004 -8.80586333e-004 -8.76882114e-005 9.29224261e-005
      -1.90185354e-004 1.23732330e-004 -2.76897568e-004 1.35380833e-004
      -1.22233425e-004 1.09978319e-005 -6.89069217e-004 -3.61943858e-005
      1.75678098e-004 -6.14609817e-005 -7.63137868e-005 -1.39224547e-004
      -2.07643767e-004 1.87106289e-005 -1.92364187e-005 3.13710014e-004
      -3.77491466e-004 -1.34971589e-004 -2.81105313e-004
      -2.51592515e-004 1.36821080e-004 -4.77064759e-006 5.35114377e-004
      2.68719275e-003 -4.80497256e-004 -1.43678248e-004 -2.43181537e-004
      5.89902666e-005 1.35121911e-004 1.99640432e-004 3.60528589e-004
      5.02950752e-005 -5.10997816e-005 2.94324018e-005 2.05317891e-004
      2.51292004e-005 3.42582527e-004 1.92482330e-005 6.83119433e-005
      2.02703377e-004 3.46210640e-004 1.04446197e-004 -1.27453633e-004
      -2.17187990e-005 1.49962914e-004 -1.83195225e-004 -4.69402476e-005
      -1.65155222e-006 -2.90521333e-004 -2.57264386e-004
      -2.52269063e-004 -2.52003869e-004 5.26494405e-005 -8.23305018e-005
      1.18125696e-004 -2.02135212e-004 -9.19027254e-004 4.34715803e-005
      -2.96051934e-004 1.29219829e-004 -4.47595638e-004 -1.72276472e-004
      -1.22149169e-004 -9.73554386e-004 -2.12809100e-004
      -2.73686310e-004 0. 2.27221128e-004 7.77369423e-004
      1.86415773e-003 2.83725240e-005 -9.31358954e-005 1.45032929e-004
      7.52257765e-005 1.98593261e-004 1.24548399e-003 1.49291358e-003
      -3.01525986e-004 -2.38587483e-004 5.49606884e-005 4.40162621e-005
      3.16297315e-004 -1.54257563e-004 -8.83078435e-004 -2.03707132e-005
      -3.03392124e-004 1.28404325e-004 3.98564371e-005 -3.02800559e-004
      5.37776388e-004 -2.08985773e-004 -1.53718487e-004 -1.70210405e-004
      -4.17590309e-005 5.21471811e-005 5.81130444e-005 -1.64549638e-004
      -1.38428906e-004 1.20128534e-004 1.12915068e-005 8.40936918e-005
      2.01920004e-004 2.12645750e-006 -2.49021068e-005 8.19075140e-005
      7.59161185e-006 -1.06944230e-004 6.68898923e-004 -1.29483046e-003
      -5.41290268e-004 3.93513328e-005 -4.94240812e-005 6.76314085e-005
      1.08086708e-004 -3.42372805e-005 -2.99551844e-004 3.44188811e-005
      -1.40355827e-004 -4.03621845e-004 -1.24280970e-003
      -1.48904801e-004 4.17402152e-005 2.37794011e-004 1.38165589e-004
      -3.99564102e-004 1.66611298e-005 4.09450906e-004 3.18449573e-004
      9.05503868e-004 9.31427407e-004 -9.80119075e-005 8.47225328e-006
      8.93221004e-005 4.91150073e-004 5.63962036e-004 5.20624104e-004
      -2.73817896e-005 -1.53599904e-004 -2.94174661e-005
      -9.52891132e-005 -6.06490321e-005 -6.99795710e-005 7.35663752e-006
      -4.80465387e-005 -1.16151132e-004 -7.68534519e-005
      -2.19825961e-004 1.39645053e-004 4.40654840e-005 -1.03133541e-004
      -7.40400646e-005 -7.86384044e-005 1.85328288e-004 1.53502158e-004
      -5.44636932e-005 -8.94096229e-005 7.94983498e-005 1.27861073e-004
      -7.72033127e-006 3.61217535e-005 1.45301383e-004 7.98498950e-005
      2.71890167e-005 3.97274358e-004 7.71473933e-005 -1.17968950e-004
      -5.73064608e-004 -1.06894760e-003 -2.97462626e-004 4.81459429e-004
      5.15638276e-005 -7.14722046e-005 -1.77744427e-004 -6.75213450e-005
      -4.89041151e-004 4.95864660e-005 -3.59951955e-005 2.02105493e-005
      1.17052870e-003 -2.98979663e-004 3.34144606e-005 6.94097471e-005
      1.11599418e-003 3.37993435e-004 1.35653352e-006 -1.35814596e-004
      1.03581326e-004 -3.29927483e-004 -8.37772313e-005 1.10400542e-005
      -1.86217439e-004 1.00771045e-004 4.10981243e-004 1.81878509e-004
      -4.66622616e-004 -7.40724208e-005 -1.27827836e-004
      -1.11612908e-005 -2.68107455e-004 -1.42269404e-004
      -1.82517644e-004 -4.86322300e-004 -1.28915170e-004
      -9.90406406e-005 -3.49154907e-005 9.37412733e-006 -1.68452447e-004
      -3.26552894e-004 -2.25840951e-004 -1.76480298e-005 1.12721929e-004
      1.05453818e-003 1.37868221e-004 6.46502303e-005 6.26175024e-004
      1.02176226e-003 -5.47551917e-006 -9.93823051e-005 -1.54106441e-004
      2.96556740e-004 6.83433245e-005 -2.25429088e-004 -5.44804752e-005
      -7.58255701e-005 -1.55668546e-004 -3.80276470e-004
      -1.44689518e-003 -4.59069939e-004 -8.70825243e-005 0.
      -5.11299877e-005 -1.75092879e-004 -5.05454664e-005
      -2.55396008e-004 2.98775740e-005 1.00517260e-004 -8.58610729e-005
      -3.65246320e-004 -2.47343734e-004 3.10117350e-004 -6.08105271e-004
      -3.00757616e-004 -2.29005993e-004 -1.04947185e-006
      -1.21147968e-004 3.22792970e-004 -2.11146870e-003 -6.44493324e-004
      -4.88155987e-004 -1.54221401e-004 8.75926198e-005 9.75074770e-004
      4.40947851e-003 -1.30373053e-003 -1.90180654e-005 -3.43519059e-004
      0. 7.89215337e-005 6.82667742e-005 -2.46433890e-004
      -1.48480220e-004 -1.08645509e-005 -1.33220325e-004 1.74465429e-004
      8.80521024e-004 2.91122305e-005 1.21985293e-004 -2.93274206e-005
      2.00430350e-005 2.38735185e-004 8.24054703e-004 4.54607391e-004
      2.27909070e-004 -1.61801763e-005 9.83361155e-004 3.15302197e-004
      2.18580772e-005 4.52773565e-006 5.09273144e-004 -9.45340871e-005
      -1.18875003e-004 -9.27773581e-005 -8.48145792e-005
      -1.03552768e-004 -7.15536124e-004 -1.29235745e-003
      -4.50584666e-005 1.40954900e-004 1.01994483e-004 -1.59813251e-004
      1.23322476e-004 -2.82393630e-005 -4.86105855e-004 1.45600334e-005
      6.78644283e-005 -1.60093368e-005 1.85651385e-004 9.48890520e-005
      3.06152542e-005 4.14461974e-005 3.69238369e-005 1.46558916e-004
      -1.25177758e-005 -3.52490788e-005 4.88818796e-006 -1.06371292e-004
      -2.69815850e-004 5.51234261e-005 -5.92655095e-004 -3.72480681e-005
      1.38947507e-004 3.11065349e-004 -3.25298897e-004 5.83189067e-005
      1.78493337e-005 1.63118402e-005 3.56111832e-006 2.19554931e-005
      3.52999632e-004 5.75938793e-005 -1.32877642e-004 -2.93512014e-004
      2.00667666e-004 -2.71271478e-004 2.57739302e-004 1.36082538e-003
      2.13681473e-004 -1.04740655e-004 5.24937714e-005 1.22171434e-004
      -1.84054777e-004 1.29185326e-004 1.61434888e-004 1.61298405e-004
      -6.67639310e-004 -2.87460134e-004 -1.40407763e-004 1.27379142e-004
      -5.41255831e-005 -2.58493965e-004 -2.33691899e-004
      -3.86471111e-005 1.12146394e-004 -4.15076094e-004 2.73961894e-004
      -2.82343244e-004 -3.61906241e-005 -3.45323024e-005
      -2.10811035e-004 -3.21647094e-004 -4.56188645e-005
      -4.61304771e-005 -4.48080282e-005 1.02150938e-004 -1.05401487e-004
      2.72547331e-004 5.63481444e-005 -3.23057357e-005 -8.91512682e-005
      -9.51014634e-004 -2.28832942e-004 0. 2.56243307e-004
      -4.34316644e-005 3.97932163e-004 -3.27483838e-004 -1.33043271e-004
      1.23324207e-004 4.46252496e-004 1.10082712e-003 3.50205897e-004
      -1.92587235e-004 -2.10555827e-005 -1.44573560e-005
      -1.67257804e-005 -2.69102340e-004 2.61515554e-004 1.23014837e-003
      -2.05647229e-004 -1.48702500e-004 -1.33857291e-004 2.78910855e-004
      -2.96025508e-004 9.70920490e-004 4.91053681e-004 -2.55488296e-004
      1.59112351e-005 -8.99947281e-006 -4.81752271e-004 -8.76468621e-005
      -7.89072656e-005 -5.45657094e-005 -1.02916383e-003
      -5.96425321e-004 1.38841802e-004 -2.66658799e-006 7.88823876e-004
      1.79398645e-004 1.95552584e-005 1.39164949e-005 -8.13209626e-005
      -5.03712254e-005 -3.62235762e-004 -1.74376852e-004
      -3.19415703e-005 -1.48062099e-004 -3.97989170e-005
      -2.26258453e-005 -8.89467628e-005 -5.84091958e-006 2.57253232e-005
      1.12605812e-005 -3.25993715e-005 -6.60960432e-005 -2.93258403e-004
      9.75807488e-005 2.69897873e-006 2.40064386e-004 6.86184096e-004
      -9.22355866e-006 -4.96686007e-005 7.23662652e-006 5.78217032e-006
      3.81053425e-004 2.15077162e-004 -2.84028538e-005 9.14983866e-006
      -1.76694288e-004 1.87334372e-004 4.72477317e-004 -1.43164143e-004
      2.13447522e-004 -3.10887408e-005 2.16671069e-005 3.77984252e-005
      -1.46858423e-004 -1.56600785e-004 1.02338388e-004 5.34503342e-005
      -1.45845057e-004 -1.46815219e-004 -4.03546379e-004
      -3.66004650e-004 -2.73934595e-004 -1.22712054e-005
      -6.05957139e-005 -2.02146184e-004 3.23859946e-004 -1.25530612e-004
      1.86905236e-004 -1.51314176e-004 9.91393463e-004 -2.39587345e-004
      -1.21896723e-004 9.78018652e-005 -5.48811804e-005 1.94068984e-004
      1.32949936e-004 7.16784962e-006 3.23368149e-005 -4.00873978e-005
      -2.85246060e-004 -6.36237091e-004 -3.44852277e-004
      -6.26862675e-006 2.81398734e-005 1.67408813e-004 -2.43009432e-004
      1.22091878e-004 -1.00767778e-004 -6.00896674e-005 -9.06992718e-005
      1.05957930e-004 -1.02278369e-004 1.03318183e-004 8.31106227e-005
      5.19392161e-005 4.49106010e-005 1.19989905e-004 2.17567103e-005
      7.29729727e-005 -2.25788259e-004 -3.23328364e-004 -5.99199593e-005
      1.02720835e-004 -1.48686318e-004 1.99796559e-005 1.57158895e-004
      -1.65993595e-004 -1.79785638e-004 -5.26206459e-005
      -2.59526205e-005 0. -1.25502789e-004 4.70718078e-006
      1.14315003e-003 1.46478138e-004 1.02702461e-005 -2.91339704e-004
      -1.10733585e-004 -3.93827882e-004 4.34832473e-004 2.64665228e-004
      -4.38486713e-005 -2.88642350e-005 1.69692285e-004 1.61558890e-003
      3.75903997e-004 -1.74733781e-004 -5.61377201e-005 -2.61304638e-004
      -4.22634243e-004 -7.62190302e-006 -1.41766563e-004
      -1.02764723e-004 -1.78523682e-004 -1.95534842e-004
      -9.60173857e-005 -9.29326488e-005 2.43618750e-004 -3.89986904e-004
      -3.66246590e-004 -4.47600818e-004 -1.86983409e-004
      -5.00795068e-005 -7.89562546e-005 -1.61257383e-004 1.10190282e-004
      6.66928172e-005 -1.65946074e-006 2.26551565e-004 1.82154035e-004
      -3.02629225e-004 1.02390295e-004 3.87681976e-005 5.26990567e-004
      4.62302705e-004 4.30858199e-004 -7.66306982e-007 7.51692323e-006
      -1.68818351e-005 1.54415087e-003 -6.46220797e-005 4.36232513e-005
      -2.74700524e-005 -1.86889389e-004 -1.47084909e-004 2.70266435e-004
      4.72845655e-004 -3.53503019e-005 -2.15856871e-005 -7.18173033e-005
      9.95961818e-005 -3.00459942e-005 -8.65335169e-005 -2.78247549e-004
      -4.05419520e-008 -3.37153964e-004 -1.24288374e-004
      -2.31475307e-004 -8.70365126e-004 4.28821368e-005 -1.91798943e-004
      -4.02383630e-005 -3.55708529e-004 -5.01367496e-004
      -1.88568956e-004 -1.96618785e-004 -2.10650658e-004 9.20951832e-004
      3.45792614e-005 5.88651455e-005 4.34760695e-005 5.91671735e-004
      -1.43925718e-006 -3.29970993e-004 3.26527479e-005 1.37962634e-004
      -2.09898601e-004 4.94632404e-004 -9.56527016e-004 -1.12385402e-004
      -3.20504711e-004 -2.58431410e-005 -1.44030419e-004
      -6.11336291e-005 -3.96285541e-005 -1.11190666e-005
      -2.22138915e-005 -4.62239732e-005 -9.62598642e-005
      -7.60140771e-004 -2.53667939e-004 -7.38213203e-005
      -1.14753224e-004 -7.88233767e-004 -3.09766794e-004
      -4.45476799e-005 -3.51242634e-005 1.23013297e-005 -3.00303946e-004
      2.34759027e-005 6.84399783e-005 -5.21904549e-005 -7.53941276e-005
      9.65367508e-005 5.25506446e-004 -1.11182213e-004 -2.00566108e-004
      -3.04461482e-005 1.24551923e-004 6.43052335e-005 7.14043551e-007
      -2.58059357e-004 -1.73788460e-004 -2.20982965e-005
      -7.82285933e-005 -1.24394457e-004 9.03655600e-005 -4.01231518e-004
      -3.63162399e-004 -1.72069253e-004 -2.38257286e-004 2.69685028e-004
      7.06191116e-004 -2.08049278e-005 -1.04417224e-004 -4.07345942e-004
      2.52474216e-003 1.17569801e-003 6.02788314e-005 1.55145986e-004
      7.36668590e-004 9.04791450e-005 -5.22011105e-005 1.67716949e-004
      1.66903683e-005 4.62906355e-005 1.00498692e-004 -6.10742602e-004
      -4.38285439e-004 -1.82188320e-004 4.21103359e-005 3.56157325e-005
      -2.71401423e-005 -2.83058725e-005 7.82710267e-005 -4.19213711e-006
      4.86231111e-005 1.32810121e-004 -8.98776634e-004 -2.72357982e-004
      6.91413297e-005 7.29537860e-005 5.08492754e-004 1.29978114e-004
      -4.73747823e-005 -1.09528337e-004 -9.25388886e-005
      -7.62846976e-005 -4.81043173e-007 4.02505175e-005 -9.99334661e-005
      -2.34764826e-004 -6.36983023e-005 -3.55529570e-004
      -5.02342118e-005 6.24542508e-007 -7.54463254e-005 3.47637688e-005
      1.22902653e-004 7.86911842e-005 -3.56802077e-004 -1.87097656e-004
      1.10771063e-004 -3.06573231e-004 -1.27388324e-004 4.00394289e-004
      4.10050743e-005 1.26448012e-005 2.41640610e-005 -3.92883157e-005
      9.90230837e-005 3.37259984e-003 3.27169430e-004 -1.40745338e-004
      1.99240530e-004 -1.72650780e-005 -5.15504915e-004 -2.59913330e-004
      1.63451929e-004 -4.12981055e-004 -1.67127684e-004 1.84397053e-004
      -1.24412923e-004 -1.54990237e-004 3.25459230e-004 -3.28150316e-004
      -4.60247917e-004 -1.03082319e-004 -1.01981350e-004
      -3.16518126e-005 4.61676836e-006 -2.04985263e-004 -5.79416228e-005
      -1.72974382e-004 -9.13074473e-005 -1.71340274e-004 2.60495362e-005
      -5.55979670e-004 -1.83311960e-004 -9.01371186e-006 2.46941287e-004
      2.28458099e-004 -1.75145455e-004 7.53680215e-005 2.37876848e-005
      2.07839708e-004 -1.89588696e-004 -3.83482198e-004 -1.61992648e-004
      -1.29628694e-004 2.56689236e-004 -1.60418695e-005 2.73325451e-004
      5.25584444e-004 7.73760767e-005 4.95892018e-005 -6.07271977e-006
      1.63515229e-004 -2.42007263e-005 -5.83948095e-005 -4.42818739e-004
      -1.52127604e-005 -1.16233270e-004 1.99515693e-004 7.91568717e-004
      -2.77654763e-004 -1.98290407e-004 1.94619370e-005 -3.23186614e-005
      9.09614391e-005 1.08882925e-003 1.12384820e-004 -1.74270535e-005
      1.31666020e-004 5.81513923e-005 -6.36281213e-004 2.92903598e-004
      -2.21563423e-005 -2.98628293e-004 -1.79541268e-004
      -1.57273476e-004 1.88114805e-004 6.52137460e-005 -1.06102052e-004
      5.28418459e-004 -3.98274686e-004 -1.43603975e-004 1.95804823e-004
      4.54593373e-006 -4.62790194e-005 -5.35364787e-004 -7.37429145e-005
      -4.21172066e-004 2.98640734e-005 1.05100953e-004 1.24878512e-004
      2.05802135e-004 4.81069146e-005 1.24397275e-006 3.29275317e-005
      5.06189012e-004 4.76339454e-004 -8.14584200e-006 1.79775016e-004
      -1.87361526e-004 -5.68514457e-004 -1.50294509e-004 5.84784766e-006
      -1.03083803e-004 1.44422243e-004 3.64299740e-005 -1.76219706e-004
      -1.06384447e-004 -1.38919379e-004 -1.94267428e-004 1.99609221e-005
      1.00497702e-004 3.96096584e-004 5.63681067e-004 -7.72741565e-004
      -2.15044201e-004 -6.67455170e-005 -9.44047206e-005 1.94712600e-004
      -1.05636063e-004 7.73369102e-004 -1.51206594e-004 -1.55561545e-004
      -3.24504581e-005 5.50583180e-004 1.56205599e-004 1.55522692e-004
      1.84266246e-004 1.50656939e-004 -2.02413386e-004 -7.30993925e-005
      -5.51455969e-007 1.23223770e-004 -1.66221740e-004 7.94907392e-005
      -9.43886698e-005 -1.08738270e-004 -1.52025692e-004
      -1.77808441e-004 -1.23153965e-004 -4.66723199e-004
      -3.80203477e-004 -6.20375286e-005 -3.78870063e-005
      -2.27083583e-004 -6.72695705e-006 -6.75607705e-004 1.46479615e-005
      -1.15308467e-004 -9.67320811e-005 -8.43879534e-004
      -1.79284078e-004 -1.46118882e-005 1.24419399e-004 2.16802480e-004
      -1.83168930e-004 3.16896076e-005 1.52101456e-005 -1.10396220e-004
      -4.77577618e-004 -1.64767611e-004 -2.13813531e-004
      -3.43569642e-004 -1.27734485e-004 3.23055196e-004 -1.82841381e-004
      -4.07742977e-004 -7.33901761e-005 2.59383851e-005 3.73046896e-005
      1.10000139e-004 7.35375972e-004 1.02029706e-003 -2.48334823e-006
      -1.30650005e-004 -2.85378337e-004 1.12328584e-004 3.88140907e-004
      1.65228476e-003 8.42387788e-004 -3.73567396e-004 -3.89837332e-005
      2.09101272e-004 5.31568250e-004 1.25080289e-004 -9.77642703e-005
      -2.14729822e-004 1.33064925e-003 9.96650924e-005 8.69037103e-005
      9.14315824e-005 5.02256502e-004 -1.65978534e-004 -3.30847048e-004
      -9.35128628e-005 -6.70652153e-005 -2.35376909e-004 1.32510046e-004
      -1.33162353e-003 -4.67250677e-004 -6.37720048e-004 4.49681011e-006
      -8.04121726e-007 -1.12970411e-004 -1.52378474e-004
      -2.22818431e-004 -9.36053584e-006 4.34226313e-005 -3.54503747e-004
      -1.03974307e-003 -4.32120985e-004 -5.74081350e-005
      -2.61063746e-004 -1.19933719e-003 -4.05971514e-004 1.03678958e-005
      -2.21886221e-004 -3.10709613e-004 3.24874069e-004 2.59245717e-004
      -5.33846214e-005 -7.35514477e-005 5.02873299e-005 -5.62711284e-005
      -2.23914667e-005 1.99147253e-004 -4.85119454e-005 -5.83625433e-006
      2.03124164e-005 -2.08659680e-004 6.30988856e-004 -6.15988218e-004
      -6.95452982e-005 -6.85248888e-005 -7.22852128e-005 5.08956546e-005
      1.11422921e-003 1.38686039e-003 2.53218430e-004 -5.00652186e-006
      7.13795744e-005 -1.04880228e-005 3.37523781e-003 -3.40248152e-005
      4.41067605e-005 -5.71361452e-004 5.80753840e-004 1.21345838e-004
      -1.05614607e-004 2.73306418e-004 2.84465114e-005 -1.49060201e-004
      -3.00956417e-005 -3.33781267e-004 1.40467906e-004 -5.63013367e-004
      1.76883640e-003 -1.76878460e-003 -1.01249025e-003 -8.40965586e-005
      1.74475299e-005 2.88868439e-004 -8.42230365e-005 -2.63344882e-005
      2.02459691e-004 2.01969160e-005 -1.00765530e-004 -5.76600214e-005
      3.26532725e-004 -2.18266243e-004 -5.97821745e-005 1.19752956e-004
      1.51506698e-004 3.38606042e-004 -1.46901322e-004 9.57632874e-005
      -5.04876562e-006 7.89585698e-004 -2.55916908e-004 -4.78139118e-005
      -2.08318088e-004 -2.09950565e-004 2.49893754e-004 4.23644320e-004
      5.10473212e-004 -1.48304942e-004 1.08668566e-004 -1.83634875e-005
      -9.48414163e-005 1.28104191e-004 5.23835130e-004 5.98840415e-004
      3.47013738e-005 2.59414082e-004 4.22459598e-005 -2.68810749e-004
      1.93302549e-004 5.73261525e-004 -1.36754243e-004 -2.07114972e-005
      2.84540467e-004 2.77542975e-004 -2.53664301e-004 5.87312861e-005
      -1.91763465e-004 -4.26289072e-004 -3.68809386e-004
      -2.06869081e-005 5.37173546e-005 -3.06155816e-005 5.45199655e-005
      -2.11743591e-005 1.17015625e-005 4.90007442e-005 -1.77288573e-004
      -6.39595208e-004 -1.45161839e-003 -3.07843380e-004
      -9.34740528e-005 -2.50721973e-006 4.03412414e-005 -9.34954878e-005
      8.09304620e-005 -5.08749683e-004 -4.49122235e-005 5.60092212e-006
      1.43990255e-004 -8.62450397e-004 -1.39720636e-004 2.62675370e-004
      7.19501462e-004 1.43986940e-003 4.36993083e-004 -2.94174661e-005
      -9.93223293e-005 -3.05870082e-004 1.35630905e-003 8.34667706e-004
      1.40467746e-004 -1.52639986e-004 -3.47904097e-005 6.71693648e-004
      -5.79596672e-004 -1.24243763e-003 -2.03286581e-005
      -7.72685962e-005 -3.20981926e-005 -1.76692702e-005
      -2.70514633e-004 -1.59833711e-004 4.79170376e-005 7.63340213e-005
      -2.82009423e-004 1.72124186e-004 -2.14036147e-004 -7.78905058e-004
      -1.20125267e-004 -1.22564728e-004 -1.71970282e-006 2.52652371e-005
      6.47881825e-005 2.46271247e-005 -1.25166425e-005 2.43052145e-005
      -6.19793718e-005 1.69118590e-004 -1.22065314e-004 -4.40373587e-005
      -5.63659632e-005 -3.15539182e-005 -1.67033621e-004
      -5.05502067e-006 -1.14080642e-004 1.00995785e-004 1.09946402e-003
      -7.28990883e-004 -7.88690057e-004 -2.13950480e-004 1.91079143e-005
      -6.23363667e-005 -5.15641295e-005 -5.30834113e-005 1.11390553e-004
      1.56562674e-005 -1.78315222e-005 -1.39888260e-004 -6.07228198e-004
      1.12793663e-004 7.30977990e-005 1.36986549e-004 -1.25997549e-005
      1.38430216e-004 -5.71872770e-005 -9.00339728e-005 1.48931213e-004
      2.67513300e-004 9.60817415e-005 -6.53396419e-005 -1.55868896e-004
      -9.03378168e-006 -7.63477656e-005 -4.72564745e-004 2.16941524e-004
      -5.41238587e-005 -4.51571432e-005 -4.07865300e-005 1.23422156e-004
      -2.39970424e-004 1.50029978e-003 4.66595928e-004 -2.74465401e-005
      1.96887690e-004 8.11958525e-005 7.25445105e-004 4.01263009e-004
      3.83177365e-004 4.91257306e-005 2.76422186e-004 5.22966089e-004
      -6.68098684e-004 -1.72171640e-004 -2.30790520e-005
      -4.01637983e-004 1.73921220e-003 -1.84737332e-003 -1.02656166e-004
      -3.96508312e-006 -4.71885316e-004 -2.05039818e-004 1.87018770e-004
      -1.73125183e-004 1.27649779e-004 -3.13251716e-004 9.00759187e-004
      -1.35505479e-003 1.62652918e-006 -2.77448096e-004 0.
      -1.89575396e-004 -4.51646847e-005 -6.21247091e-006
      -1.21857065e-005 -4.52212589e-005 -7.97032772e-005
      -2.02231662e-004 -8.83506029e-004 -3.35969380e-004
      -1.39183991e-004 3.86607251e-004 -8.34624807e-004 1.46846316e-004
      7.87335593e-005 3.87643449e-005 -1.64120633e-004 -1.58684761e-005
      1.64157333e-004 -8.95072844e-006 -2.50510435e-004 -2.25303578e-004
      7.45684316e-004 4.04231541e-004 -4.55358502e-004 1.78449074e-004
      1.19693846e-006 2.91080996e-005 -1.20208024e-004 -1.73609675e-004
      2.80862878e-004 -1.10753586e-004 -8.82366949e-005 -1.26358806e-004
      -3.30099050e-004 -7.90774706e-004 -2.66813731e-004
      -2.97952531e-004 -2.74421967e-004 5.50307705e-005 1.00274989e-003
      -2.13442225e-004 -3.66191991e-004 -2.24385571e-004
      -4.06187057e-004 2.83160037e-003 1.26605958e-003 -2.94870872e-004
      -6.64579929e-005 -8.60075597e-005 -1.81990559e-004
      -1.26235187e-004 -1.46902225e-004 -5.96452483e-005
      -2.96475366e-004 2.68561975e-003 -1.07816886e-003 -2.95962323e-004
      3.01286691e-005 0. -5.16028267e-005 -4.44371763e-005
      1.82884633e-005 -2.59525143e-004 3.46972047e-005 -1.77965776e-004
      -2.07519806e-005 -2.28961973e-004 1.01599726e-004 2.66885792e-004
      -4.42301651e-004 -2.34482010e-004 7.47001250e-005 9.93659560e-005
      -1.62600409e-005 1.27058348e-003 -1.09078181e-004 -2.00775452e-004
      -1.10154360e-004 -1.87299898e-004 -3.12454649e-005
      -4.57532697e-005 1.37806602e-003 2.73768790e-004 3.60330596e-005
      5.45359544e-005 -8.61364060e-006 3.70715179e-006 -5.16562141e-005
      -4.80088784e-005 2.71834579e-005 1.75181885e-005 -2.56605301e-004
      -1.15890762e-004 -6.44887332e-005 -1.93400308e-004
      -2.03402342e-005 4.96341499e-006 4.96341499e-006 2.54767976e-004
      3.92076181e-004 9.23442428e-007 8.94675577e-006 -4.17021693e-005
      5.63514186e-004 6.03762237e-005 -1.04188934e-004 -2.46598051e-006
      8.36710096e-005 -1.82490854e-004 -4.34540212e-004 -2.10851635e-004
      -9.02215543e-005 -1.40831195e-004 5.09127451e-004 -1.14753796e-003
      3.47984023e-005 -5.92562765e-006 -8.29648925e-005 2.70061955e-005
      -2.92651152e-004 -8.04223673e-005 1.60903859e-004 0.
      1.26086990e-004 1.10096873e-004 2.05545221e-004 1.49968455e-005
      -9.24121923e-005 -2.25957672e-004 -8.18413027e-005 1.99558290e-005
      9.93372523e-005 1.61360644e-004 -2.23725772e-004 -2.36806984e-004
      -5.75664671e-005 -2.26242017e-004 -2.73087098e-005 3.15134734e-004
      -2.19696027e-004 -1.76168051e-005 -5.85684786e-004
      -3.12427379e-004 -2.45990639e-004 5.09197707e-005 5.71070595e-005
      -2.60773202e-004 3.46225192e-004 -4.51778324e-005 -3.46527340e-005
      2.35383472e-004 9.93307622e-005 3.23524873e-004 -3.99701647e-004
      -8.39257336e-005 2.43051327e-004 -3.51200538e-006 3.00717598e-004
      6.70549052e-004 9.45890206e-005 -9.02794563e-005 1.82559108e-006
      7.49830098e-004 -4.35158639e-004 9.54078932e-005 -7.37535374e-005
      4.82185249e-004 3.19316285e-004 1.19474877e-004 -1.47590590e-005
      -2.47689604e-004 -9.22915860e-005 -6.61995262e-004
      -5.74989554e-006 -1.96771929e-004 1.27819412e-005 2.05606048e-005
      -2.25629810e-005 -1.42892313e-004 -7.25790960e-005
      -1.77411086e-004 3.14266526e-006 5.62805108e-005 -1.66687241e-004
      -1.49416272e-004 6.30011564e-005 -1.13565893e-005 -5.39574612e-005
      2.82256078e-004 -5.22101298e-004 -1.75800269e-005 -6.98023214e-005
      -4.77419853e-005 -4.76398818e-005 3.08797717e-005 -4.76370886e-004
      -6.96772122e-006 -5.60411572e-005 3.38936254e-004 -3.67076223e-004
      5.18675952e-005 4.04227430e-005 -1.89657396e-004 -1.58939110e-005
      -3.36388403e-005 4.79648967e-004 2.74463929e-003 -5.23285125e-004
      -4.63821227e-004 -7.27196457e-005 -6.02104119e-005
      -1.37254683e-004 4.96298191e-004 6.34520722e-004 -4.27937892e-004
      -9.57752345e-005 6.65225525e-005 1.42982215e-004 8.61454755e-005
      -1.63194913e-004 -1.40321492e-006 3.08446732e-004 5.21792572e-005
      -2.22970084e-005 -1.34403599e-004 2.04315002e-004 3.00363463e-005
      -3.11679702e-004 -5.06496690e-005 -8.27927670e-006 7.80873161e-005
      -4.74216184e-004 -4.32676869e-004 -3.60130507e-004
      -2.72983685e-004 -2.40914032e-005 -1.39033073e-004
      -4.49880579e-004 2.01877647e-005 1.58870258e-004 3.22047199e-005
      -1.99580871e-004 3.42580781e-004 1.08834682e-003 -1.21560015e-005
      -1.71993321e-004 4.06280305e-004 9.20582155e-004 5.21934358e-004
      -4.17694500e-005 -4.84167904e-005 1.04309831e-004 2.09826464e-003
      1.61808988e-004 -3.90824396e-004 2.45072642e-005 -2.07803023e-005
      6.76699055e-005 2.63371821e-005 4.22495708e-004 -3.61181388e-004
      5.35246545e-005 -2.73972983e-005 -2.50506186e-004 8.68015547e-007
      -5.60071145e-004 -2.75529892e-004 -2.64289789e-004
      -1.79133003e-005 -4.89169288e-005 -5.75678016e-004 3.63504019e-004
      -1.31293273e-004 -1.33785594e-004 5.79146035e-005 -2.99173698e-005
      -5.96407859e-004 -1.26466839e-004 -1.39320953e-004
      -1.60468044e-004 -3.04628164e-004 -1.79694398e-004
      -7.34260320e-005 -6.65234711e-006 -9.30591923e-005
      -8.12247963e-005 -8.79011495e-005 1.50708929e-005 4.74695007e-005
      -3.52056159e-005 1.38149154e-003 -1.62364787e-003 1.58698880e-004
      -2.54862302e-004 9.92466667e-005 2.41782818e-005 -1.21786776e-004
      2.28143363e-005 -5.82420034e-006 -2.78906591e-005 -5.11548096e-005
      -1.61504926e-004 3.58722435e-004 1.46657156e-004 1.16641713e-004
      5.15992462e-004 -1.13945059e-003 -1.56283699e-004 -6.07941583e-005
      -1.38829375e-004 8.86958791e-004 1.26367703e-003 7.91743951e-005
      -1.56452850e-004 -1.70329353e-004 -2.51198973e-004 2.14992571e-004
      2.12823530e-003 1.35297701e-003 -7.59375762e-005 5.72625722e-005
      0. -2.22906339e-004 -1.66197206e-004 -1.91637067e-004
      -5.00115711e-005 4.30008295e-005 -9.35221105e-005 -1.39869037e-004
      -3.73497547e-004 -6.36176846e-004 -2.02758874e-005
      -2.37302869e-004 -6.53759635e-005 -1.32388639e-004
      -6.36592915e-004 -5.24071220e-004 -3.49817492e-005 1.05510619e-004
      -4.47126251e-004 -1.84656456e-004 -4.11409128e-005
      -8.85632035e-005 9.23102925e-005 9.16051285e-005 2.30950638e-004
      -6.19800994e-005 -7.62735654e-005 -1.31276865e-005
      -2.79320171e-004 -5.00311435e-004 -2.33762286e-004 5.63858848e-005
      -2.34554500e-005 -2.14515268e-004 1.22314683e-004 5.36836706e-005
      -1.73375200e-004 1.34684116e-004 5.24036914e-005 -7.05334169e-005
      -2.18073314e-004 5.73324214e-005 -1.73580789e-004 -2.53349543e-004
      7.16619252e-004 2.12250568e-004 -6.18931472e-006 2.05934077e-004
      -4.25916136e-004 -5.19435707e-005 -1.52967914e-004
      -1.95677621e-005 1.62697124e-005 4.44022480e-005 -1.06293475e-004
      -8.42231268e-004 -6.51317474e-004 -1.73252247e-005
      -3.26974478e-005 5.84809277e-005 3.39294405e-004 1.87370082e-004
      1.08338594e-004 -2.07289850e-004 1.29351902e-004 1.28246349e-004
      1.80928284e-004 3.48635949e-004 6.18617400e-004 -9.20010425e-005
      2.12088125e-005 -1.55246721e-006 -1.07001681e-004 1.73853972e-004
      2.81301018e-005 1.46609109e-005 3.63296655e-004 -1.19368650e-003
      -4.90342791e-004 3.67827452e-004 6.40826402e-005 -2.87471194e-004
      1.04979576e-004 -2.08105994e-005 -4.52434904e-007 7.35109134e-005
      6.89476001e-005 8.48895172e-004 1.66765341e-004 -3.17032594e-004
      -1.07084001e-004 1.59757092e-005 3.05985683e-004 -7.04044432e-005
      7.12120964e-005 -1.44558508e-004 -2.56613002e-005 5.47488016e-005
      3.74949712e-004 -6.15010867e-005 1.08574939e-004 1.80429604e-004
      2.44943018e-004 1.77003548e-003 5.16902772e-004 7.95332107e-006
      -2.40448600e-004 -6.09842755e-005 2.35711530e-004 2.29818659e-004
      -1.82785603e-004 -1.07033338e-004 -4.69150291e-005
      -1.32001296e-004 6.63226310e-005 -2.15823951e-004 -2.04688404e-004
      -1.51395288e-004 -4.84264892e-005 -3.27444257e-004 1.52286157e-004
      -2.41794420e-004 -4.25547769e-004 -3.66925669e-005
      -7.00611490e-005 -1.12799920e-004 -7.92120190e-005 1.33177836e-003
      1.70985761e-004 -3.51135932e-005 -1.01143843e-004 -2.79968808e-004
      -6.63983446e-005 2.29025070e-004 -2.20303104e-004 -1.25589489e-004
      -1.12840009e-003 -4.46169543e-005 -1.77191905e-004
      -1.22631172e-004 -3.81165242e-004 -2.54684710e-004
      -4.40807838e-004 -2.07311212e-004 8.48925265e-005 2.57051342e-005
      1.67953793e-003 -8.62152374e-004 -4.27580497e-004 -9.13311524e-005
      2.00780578e-005 2.41894249e-005 -7.15812930e-005 1.92854295e-005
      1.76828296e-004 1.24518629e-005 9.62686408e-006 -8.08393179e-006
      7.15509086e-005 -1.90532402e-004 1.38248390e-004 -1.46777951e-004
      1.85894532e-004 7.64211349e-004 -1.77144248e-005 -1.46881968e-004
      -7.52213309e-005 6.19678642e-004 -7.81744020e-004 -2.62534508e-004
      -1.23898470e-004 -6.42263840e-005 -2.40733687e-004 1.32573638e-004
      1.33363646e-004 -2.56220403e-004 4.66152269e-005 -2.58431410e-005
      -3.40658735e-005 -1.48309293e-004 1.44384161e-004 -6.13242810e-005
      2.26435077e-004 4.43611825e-005 -5.32169179e-005 6.08049959e-005
      -1.69633218e-004 2.11858082e-006 1.16586350e-004 2.68857821e-005
      -2.72656005e-004 -3.15792888e-004 -1.18586631e-005
      -1.14550945e-004 -4.03450504e-005 -2.45665113e-004
      -8.10404832e-004 -3.23982422e-005 1.12359696e-004 -6.17601399e-005
      1.59238061e-005 -9.29436283e-005 -2.98607192e-005 9.79426477e-005
      -5.64307738e-005 3.21689853e-003 -9.37174889e-004 -2.45698320e-004
      4.16697112e-005 0. -7.48274260e-006 -2.65541748e-005
      -9.42013321e-006 -5.45851835e-005 9.64217907e-005 -3.18977691e-005
      1.77414244e-004 8.41580186e-006 -6.52885283e-005 -4.64854413e-004
      -4.02005011e-004 4.10664739e-004 2.41661750e-004 0.
      -1.15254319e-004 -6.09611336e-004 3.99146276e-003 -1.29207299e-004
      -9.20652237e-005 -2.27166660e-004 -2.59560293e-005
      -4.46659164e-004 -7.90560560e-004 -1.08967791e-003
      -5.48456854e-004 8.73817553e-005 0. 2.42929691e-005
      -1.70227231e-005 4.83027616e-005 -2.91776596e-005 3.37103702e-005
      -5.44535505e-005 -6.39685823e-006 7.28494124e-005 -8.34060629e-005
      -4.59182120e-005 1.74108809e-005 1.35534428e-004 5.12443421e-006
      2.98053310e-005 -4.92139261e-005 -1.72631571e-005 -1.77751917e-005
      -2.16713142e-005 1.37425013e-004 -8.66395421e-005 8.50433280e-005
      -2.04185810e-004 -6.96921124e-005 2.03767613e-005 -8.88142240e-005
      1.00610494e-004 -4.44236612e-005 7.03232014e-004 -2.50355341e-004
      2.51469872e-004 -1.67906997e-004 -4.23927049e-005 1.68532089e-004
      -2.81363056e-004 1.12039350e-004 1.65495767e-005 1.41701776e-005
      7.71260602e-005 8.63597234e-005 1.92105901e-004 -4.23231686e-004
      -1.43723752e-004 -4.45195910e-004 -2.53906648e-004 5.16828906e-004
      -1.30797946e-006 -8.26362666e-005 3.67983361e-004 -5.14514162e-004
      -4.31997032e-005 2.06823461e-004 -1.08817367e-004 1.44691612e-005
      7.59548348e-005 6.04090106e-004 8.50370780e-005 6.62354141e-005
      -4.50909065e-005 5.70807924e-006 1.62321332e-004 1.25104154e-004
      -4.36383794e-004 2.06320998e-004 3.91407724e-004 4.00031313e-005
      -3.25175424e-005 3.35330151e-005 -4.78776521e-004 2.82206252e-004
      6.70875233e-005 3.77547221e-005 -9.15389901e-005 -2.37908258e-004
      -1.02327715e-004 1.21779958e-004 4.82919349e-005 -1.75107460e-004
      -3.57018464e-004 7.96462191e-005 7.84421500e-005 1.69686333e-004
      -7.47572049e-005 3.46972694e-004 9.34186858e-007 -1.95223970e-006
      1.41611323e-004 -1.46033752e-004 -5.06977667e-004 3.03308305e-004
      -1.18895936e-004 1.80608768e-005 -1.44281803e-004 -7.06886349e-005
      1.13117319e-004 3.09015304e-004 -4.26896913e-005 -1.20855675e-005
      3.39342259e-005 4.60601528e-004 -9.78789030e-005 -1.34186397e-004
      -4.97227127e-004 -4.80137736e-004 2.35972868e-004 8.53892197e-006
      -6.43600506e-005 -2.00038485e-004 3.54607822e-004 4.01936959e-005
      -9.25202694e-005 -3.85132880e-005 5.07661243e-005 2.94000347e-004
      -5.39211615e-004 6.16935198e-004 -1.84354270e-004 -3.11861695e-005
      1.26665269e-004 -4.54736210e-006 -4.33159003e-004 2.64379982e-004
      2.11524835e-004 -3.81973456e-004 2.73643564e-005 4.74991211e-005
      1.61986172e-004 -3.16062069e-004 -1.07431057e-004 2.57467218e-005
      9.35711141e-005 -1.00155878e-004 -2.44130788e-005 2.07397810e-004
      4.69053572e-004 1.47052328e-004 1.97216432e-004 -1.84837758e-004
      1.59415882e-004 1.69137391e-004 4.81951021e-004 1.24796017e-004
      8.65284819e-005 -9.26715365e-005 7.37389055e-005 -7.60873227e-005
      -1.08368206e-003 -3.60801379e-004 -4.69325954e-004 1.21460798e-004
      3.42740677e-005 1.31174029e-005 -2.14245374e-004 -1.05471132e-004
      3.20460123e-004 -5.98770894e-005 -5.94237899e-005 3.62151361e-004
      2.05704989e-003 6.75599076e-005 3.99825512e-005 5.90065494e-004
      5.94353653e-004 2.03024319e-004 -1.83922668e-006 6.28325652e-005
      -1.23724880e-004 1.75805809e-003 2.59158813e-004 -3.37455655e-004
      -2.02184136e-004 -1.07009866e-004 6.40616345e-005 -4.78856673e-004
      3.23927437e-004 -2.92852405e-004 -1.61043325e-004 2.41894249e-005
      -5.34305582e-006 -4.16850846e-004 -3.02083883e-003 7.58720504e-004
      -2.47050077e-004 -9.19651357e-005 -4.24519094e-005 9.13910335e-005
      -3.27343645e-004 -6.02965476e-004 -4.77234098e-005 5.53956124e-005
      2.61453242e-004 4.85220749e-004 1.97835499e-004 4.02272599e-005
      4.35906350e-006 1.88279919e-005 1.23198697e-004 -1.02365426e-004
      -4.77383692e-005 -3.04920948e-004 -2.07520367e-004
      -8.17768596e-005 1.51704653e-005 3.90162495e-005 6.70242298e-005
      -6.86527201e-005 -8.24751565e-004 -2.12487546e-004
      -2.74732971e-004 3.42305248e-005 -4.70017585e-006 -2.37262866e-004
      5.62429595e-005 -4.14509996e-004 9.97358075e-005 1.63340330e-004
      -2.93976220e-004 -3.79106641e-004 4.23156482e-004 6.09203016e-005
      1.22668658e-004 6.24789245e-005 -5.62265806e-004 -1.33154954e-005
      -8.67362978e-005 1.67022117e-005 7.59631104e-004 6.06479822e-004
      2.43013765e-005 -2.65741583e-005 -3.04801797e-005 2.24693737e-004
      1.17438845e-004 5.56541432e-004 -3.71545291e-004 -7.17563598e-005
      -1.20351098e-004 -7.14011912e-005 -1.53944799e-004
      -4.40319243e-004 -2.31231956e-004 -1.93864500e-004
      -1.77788665e-004 -6.33310119e-005 2.96903134e-004 -3.02418019e-004
      -4.83623153e-005 -1.92148844e-004 -6.26847250e-005 1.88898412e-004
      -1.24176018e-004 2.49990280e-005 -6.50392030e-005 2.83018046e-004
      8.04998563e-004 -2.57400243e-004 1.03518425e-004 3.36710837e-005
      -2.27706303e-004 2.17520355e-004 9.55577707e-005 1.79182272e-004
      -7.51723690e-007 7.99837231e-004 -1.32633490e-004 -5.11663558e-004
      2.51702819e-004 -9.90942935e-005 3.17122090e-006 3.53590076e-005
      -2.18343994e-004 -7.86895471e-005 -1.39165015e-004
      -4.17694500e-005 -1.13462535e-004 -1.97193094e-005
      -3.44936096e-004 1.21505356e-004 -1.31989946e-005 -1.54177120e-004
      1.08554715e-003 -6.27865549e-004 -2.27004748e-005 1.28098793e-004
      -2.54015904e-004 -8.85199639e-004 -4.10675566e-005
      -1.50352163e-004 -2.81963992e-007 -1.16204246e-004 7.90710910e-005
      -3.20317282e-004 -6.16698118e-004 -1.94808366e-004
      -1.43481113e-004 1.36149702e-005 5.36669468e-005 -6.18958875e-005
      -5.77809289e-004 -5.02838055e-004 -2.06234807e-004
      -2.99639534e-004 8.17299806e-005 3.68529611e-004 3.45757799e-005
      -1.31243170e-004 -7.48422608e-005 1.05978470e-004 2.67413387e-004
      6.02824613e-004 1.86218211e-004 5.42964917e-005 2.19916474e-004
      1.25018263e-003 -6.90067318e-005 -3.30632320e-005 -2.27286328e-005
      1.76984438e-004 -5.57096719e-005 -6.94278424e-005 3.41912855e-005
      2.98957402e-005 5.69795375e-004 4.93278203e-004 4.52439795e-004
      -6.96174393e-004 1.21590301e-005 -1.49758935e-005 -2.64981267e-004
      -6.56649179e-004 -1.75534413e-004 -2.35288084e-004
      -1.50247542e-005 -1.65899459e-004 9.64264909e-004 6.18373975e-004
      5.03380325e-005 -3.30759183e-004 -7.07761326e-004 2.09325925e-003
      1.39185681e-003 -1.84115070e-005 -6.29508504e-005 -3.05304507e-004
      -5.80780732e-004 -6.65211584e-004 -2.06784011e-004
      -1.37677984e-004 5.66327399e-005 -9.58203018e-005 -6.45740365e-004
      -7.27033184e-004 -2.66117626e-004 -1.73221561e-005
      -2.80609329e-005 -1.60503751e-005 -7.16390059e-005
      -6.35054952e-004 -3.59824102e-004 -5.15566266e-004
      -9.22889230e-005 5.90825111e-005 2.85953371e-004 -1.57093120e-004
      -5.84518013e-004 -3.72279814e-004 -8.28566845e-005 5.24412550e-004
      1.50878006e-003 -1.57296963e-004 -2.16304907e-005 9.43765554e-005
      8.36312945e-004 9.13392170e-004 2.54387473e-004 9.79683828e-005
      4.25325234e-005 4.66604906e-005 -1.65518955e-004 -1.78975188e-005
      1.11088084e-004 2.71413039e-004 9.24833701e-004 -8.88299604e-004
      5.27687880e-005 8.64005269e-005 -7.60741659e-006 -5.31541300e-005
      -1.32336994e-004 -3.99843157e-005 1.37713332e-005 -1.03765697e-005
      -5.79593870e-005 4.94292995e-004 6.37556601e-004 -2.05553326e-004
      -2.87933246e-004 1.68307582e-004 2.11388431e-003 3.60999489e-004
      1.17816462e-005 -6.20992068e-005 -6.26473746e-004 -2.25189584e-003
      -3.54326883e-004 -2.16978442e-004 2.13151638e-004 -7.55634610e-005
      -5.35932086e-005 -5.36962587e-004 -2.47187237e-003
      -5.74318634e-004 -1.42551900e-004 2.55180676e-005 -1.53163965e-005
      5.73040779e-005 4.01283527e-004 3.13059165e-004 -1.82439559e-004
      -1.47248196e-004 -2.29131147e-005 7.65077712e-005 2.96842685e-004
      -1.10716246e-004 -1.46756720e-004 1.91389045e-004 1.30961824e-004
      8.88831913e-004 1.20051940e-004 4.57286980e-004 3.26261616e-005
      3.16432299e-004 3.24860914e-004 2.48257536e-004 -3.79139783e-005
      -1.12712922e-004 6.36138720e-005 4.87544130e-005 -8.34115272e-005
      5.87916729e-005 -9.85599472e-005 1.04025402e-003 -1.26012514e-004
      -2.36051186e-004 -6.22022926e-005 -1.21119056e-005 8.99362021e-006
      -2.18714413e-004 -8.01489150e-005 -4.77464273e-005
      -3.27412381e-005 6.24628228e-005 -9.17826546e-005 2.96120415e-005
      9.24586493e-005 -4.77183894e-005 4.72187065e-004 4.20133205e-004
      3.27569025e-004 -3.36927151e-005 -1.11194655e-004 7.44346617e-005
      -7.91416503e-004 -8.01709612e-005 -1.27385851e-004
      -1.95872723e-004 9.41567632e-005 6.76910058e-005 -5.56672225e-004
      1.09468761e-004 -2.60749046e-004 -1.88719641e-004 -1.72631571e-005
      2.27408545e-005 1.94930632e-004 2.11890962e-004 -1.48579798e-004
      5.87631148e-005 -1.57181013e-004 3.02299566e-004 1.00049067e-004
      5.48663142e-004 -2.93705652e-005 -5.96108694e-005 2.31356571e-005
      2.75381550e-004 -7.48613893e-005 4.12048656e-004 6.13355078e-005
      -2.69922439e-005 9.79134813e-004 1.96262132e-004 -1.49598854e-004
      9.07821741e-005 3.92969887e-005 1.02622296e-004 -4.17925294e-005
      -1.19517070e-004 -4.52384702e-005 2.78890329e-005 -9.49004840e-004
      -4.12291265e-004 -7.30002474e-004 -1.23325852e-004
      -5.49297547e-005 -2.72222660e-005 3.99530727e-005 -6.20780920e-005
      6.91913083e-005 4.55364352e-005 -3.86883548e-005 -1.63631979e-004
      -5.14681218e-004 -3.39627586e-004 2.29933630e-005 2.93300891e-005
      -8.07114702e-004 3.10061616e-004 7.46691076e-005 8.11089649e-006
      1.66857615e-004 -7.44530465e-004 -2.52628990e-004 -2.35640400e-004
      3.79557692e-004 7.71199939e-006 9.04513930e-004 1.29220111e-003
      4.76321729e-005 -1.39947742e-005 1.04593826e-004 -6.95529307e-005
      8.06538737e-005 -1.72362896e-004 1.50642649e-003 -9.03932741e-005
      -2.08960948e-004 -7.39473544e-005 -1.52092383e-004 6.25152374e-004
      -3.34717915e-005 -7.65759323e-004 2.65943072e-005 1.39693089e-004
      2.14413827e-004 7.95885790e-005 3.53420153e-004 7.62525742e-005
      -1.12605150e-004 8.93921788e-006 6.44739368e-004 5.45334224e-005
      -1.44278703e-004 8.62569432e-005 1.50876134e-004 1.37852418e-004
      -2.13610794e-004 5.86701557e-004 -1.36841889e-004 -9.18967067e-004
      -1.07406708e-003 -3.80025711e-004 1.97423258e-004 4.11368419e-005
      -5.38024142e-005 -4.79899745e-006 -3.63308325e-004
      -1.57503731e-004 0. 4.46964805e-005 -1.21053294e-004
      -6.48776535e-004 -1.08752254e-004 -2.37136075e-004
      -5.22353745e-004 -8.06403521e-004 -3.44794738e-004 1.92491188e-005
      -1.56480091e-005 -6.57193013e-005 1.88045262e-004 -4.01670666e-004
      1.57018585e-005 3.92451853e-004 2.29521356e-006 1.13913545e-003
      -4.05795327e-005 -3.03997484e-004 -6.56884367e-005
      -6.30301802e-005 -3.61304010e-005 -4.18403288e-005 9.53896815e-005
      -1.30807096e-003 -5.43688191e-004 -1.90950857e-004 1.97968067e-004
      1.96931331e-004 3.38273967e-004 3.53598210e-004 -7.06895662e-005
      2.38822060e-004 -2.25683136e-004 -1.04964965e-004 7.25125283e-005
      9.71941972e-006 -1.26217856e-004 -1.02837403e-004 1.20527868e-003
      2.52699712e-004 5.64373222e-005 1.84664677e-004 6.89760724e-004
      1.64295750e-004 1.76420563e-005 1.40984732e-004 1.38315940e-004
      -1.18677410e-004 4.01940430e-004 7.79423281e-004 -2.54324317e-004
      -5.94269159e-006 -3.00370957e-005 -7.08149382e-005
      -4.95136264e-005 5.24774659e-005 -4.07589832e-004 -3.02479361e-006
      -1.60418989e-004 -2.07315898e-004 -1.30317276e-004
      -2.90823627e-005 -1.19843593e-004 5.49611395e-005 -6.93909387e-005
      -2.54787446e-004 8.18235421e-005 -1.83798475e-004 2.84110516e-004
      3.62426974e-004 -6.44927932e-005 1.82887787e-004 1.21673525e-004
      -3.23953718e-005 4.66685771e-004 5.06467877e-005 6.56532648e-004
      5.28060955e-005 -1.31440742e-004 7.69068065e-005 4.45747428e-005
      -1.19113160e-004 -1.57996535e-003 9.42004772e-006 -3.01138643e-004
      1.32161294e-004 -1.60789477e-005 -2.58783519e-004 -2.91253004e-004
      -6.43850421e-004 -2.52916536e-004 -6.18701815e-005 4.06801410e-004
      6.05829933e-004 2.00999013e-004 -9.04537387e-008 1.18307427e-004
      1.38736377e-003 7.01003300e-004 4.09771872e-007 -2.38940338e-005
      -8.37000262e-005 -4.90982020e-005 1.26975516e-004 7.99248010e-005
      -1.20111017e-005 -1.88967926e-004 6.42566229e-005 -2.34703897e-004
      9.77363234e-005 -2.39144749e-004 2.17516208e-006 1.01166515e-004
      4.44668985e-005 9.96831077e-005 -4.07123880e-004 2.03669115e-005
      2.13535441e-005 3.13417666e-004 1.23817532e-003 -3.43284155e-005
      -1.72945467e-004 3.45848384e-004 -2.06367578e-004 3.26619367e-004
      -5.42011094e-006 3.98424309e-005 -3.24244429e-005 6.42436265e-004
      7.74626969e-005 1.80322881e-004 1.63920646e-004 7.12007677e-005
      -1.06443325e-003 2.06054450e-004 3.11469397e-004 -2.95432437e-005
      1.07422733e-004 -2.98707091e-005 -1.72309810e-005 2.22993447e-004
      3.37371574e-004 -8.86516791e-005 3.03680485e-004 8.74717298e-005
      1.07554864e-004 3.71529866e-004 4.78266244e-004 5.34770777e-004
      1.88611939e-005 2.05226155e-004 -1.39573662e-004 -7.64720025e-004
      1.49242216e-004 9.46127693e-006 -2.30889345e-004 -3.39229335e-003
      -4.85135766e-004 1.98208421e-004 1.24613871e-004 -6.44341810e-004
      -3.47602763e-004 1.78671180e-004 -7.85570955e-005 7.16890963e-006
      -3.83934384e-004 7.44501362e-004 3.03797511e-004 1.29728825e-004
      -2.75169034e-004 -4.50199586e-005 -2.39423043e-005
      -6.16066827e-005 -8.76674603e-005 1.52815192e-004 -2.50097764e-005
      -1.55337781e-004 -1.53071582e-004 -6.28456939e-004
      -5.29509780e-005 4.06224921e-004 6.21226151e-004 6.49154070e-004
      -4.89856873e-004 2.14727952e-005 -4.97340297e-005 2.12628409e-004
      4.09022963e-004 3.82500148e-004 1.08958586e-004 9.20521343e-005
      1.30255605e-004 5.35344705e-004 5.01522329e-004 5.91929362e-004
      3.88729495e-005 1.71640029e-004 3.43991305e-005 8.57681880e-005
      3.37239355e-004 4.14557668e-004 -2.32684397e-004 -8.67330309e-005
      3.75199670e-005 2.34908748e-005 1.69884021e-004 3.88711313e-004
      1.09545101e-004 3.19075625e-005 -8.19717461e-005 -4.56317328e-004
      -3.08421184e-003 -2.32750725e-004 -1.65837300e-005
      -1.27925916e-004 -1.43182918e-003 -1.05230429e-003 1.00627483e-004
      2.55764025e-005 5.09099336e-004 2.56336381e-004 -5.19630839e-006
      3.88278364e-004 -7.93456493e-005 -2.50811700e-005 8.06967379e-004
      8.55009202e-005 -8.17339533e-005 -3.01789387e-005 -8.61364060e-006
      7.30018364e-005 4.89685699e-005 -1.72517626e-004 -1.41990182e-004
      -4.05464671e-005 -2.12459592e-004 9.07403955e-005 -2.64141505e-004
      5.09531063e-004 -5.52856727e-005 -8.53025063e-004 6.26729452e-004
      2.36728985e-004 -4.65990115e-006 1.27200081e-004 7.50948529e-005
      -3.83623446e-005 -1.99137707e-004 -3.57783108e-004
      -6.53768147e-005 9.50464600e-005 9.73870847e-005 1.92806940e-004
      2.69779703e-004 1.38354008e-004 -5.31255282e-005 -6.93479160e-005
      9.03823457e-005 -2.81911307e-005 -6.60134305e-004 -3.70896800e-004
      1.32021174e-004 -1.04824911e-004 1.53663976e-004 -1.08696193e-004
      2.39644985e-004 -6.05478359e-004 -2.72291014e-004 1.37243886e-004
      5.67128211e-007 1.69150488e-004 1.59485353e-006 -5.79056155e-004
      -7.98488181e-005 4.68058424e-004 4.42381628e-004 4.86955068e-005
      -9.67541710e-005 7.61725387e-005 1.79913899e-004 3.14667741e-005
      2.53610080e-004 1.65204867e-004 -3.39213184e-005 1.00633036e-003
      -5.89093193e-004 -2.01282382e-005 -1.46141218e-004
      -1.97291374e-005 2.00310660e-005 -1.11196969e-004 -4.06913132e-005
      -3.33191419e-004 3.17122090e-006 -9.74808136e-005 -3.02243043e-005
      -4.71166451e-004 -3.68305300e-005 -2.12396262e-004
      -2.30805526e-004 2.44990061e-003 -2.00703707e-005 -2.64837054e-005
      -8.10926649e-005 -2.09402744e-004 -1.91268546e-003
      -9.24980704e-005 1.22546291e-004 3.61368933e-004 -1.59488176e-004
      9.56793519e-005 3.09744471e-004 -7.19166652e-004 -1.22892307e-004
      -2.01114090e-005 1.80608768e-005 7.67581732e-005 -5.80709238e-005
      1.68727231e-004 -2.66150048e-004 -1.02297177e-004 9.45453867e-005
      -1.76739613e-005 4.17987467e-004 2.57239817e-003 2.30740086e-004
      -1.61100586e-004 1.45593382e-004 -6.40755388e-005 -8.18556116e-004
      6.65204076e-004 -1.02816113e-004 -1.62986998e-005 2.07181161e-004
      9.57747216e-006 1.20820943e-004 7.46551450e-005 -8.99163715e-005
      -2.40490626e-005 2.03339077e-004 -9.11717798e-005 -1.39578100e-004
      -1.12479887e-004 -3.45569191e-004 -8.44353344e-004
      -3.46831803e-004 1.56090027e-005 -1.80217539e-005 -2.74148333e-005
      -7.85398224e-005 2.84241487e-005 1.23718535e-004 -8.92171520e-005
      1.96681922e-005 -2.78315638e-005 2.57691863e-004 1.07325541e-005
      2.11893625e-004 5.54170692e-004 2.43995246e-003 1.91472194e-004
      -8.34824677e-005 -1.08757609e-004 -3.25482048e-004
      -9.32690979e-004 3.13593773e-004 -1.55695176e-004 6.29634160e-005
      -1.11535464e-005 2.72328005e-004 -1.86176676e-005 -6.20169740e-004
      -1.91717190e-004 -1.53156390e-004 -3.01837736e-005 2.49061286e-005
      1.46127466e-004 1.11313901e-004 -5.50854238e-005 3.86242573e-005
      1.26019222e-004 1.06280924e-004 6.47881825e-004 9.67602828e-004
      -1.16606156e-004 1.40404873e-005 -3.28215756e-005 1.95621367e-004
      1.14718227e-004 4.75484732e-004 -1.24839309e-004 -4.00972021e-005
      1.35375216e-004 1.39120559e-004 3.35237855e-005 -2.52674305e-004
      3.01955530e-004 -8.02452778e-005 -3.57016652e-005 -2.22669041e-004
      -1.48773863e-004 -1.17247371e-004 -2.16912106e-003
      -1.46596902e-003</_>
    <_>
      7.42939228e-005 -1.62144148e-004 -8.07240212e-005 -2.61320849e-004
      1.35812743e-005 -1.49229352e-004 -2.96492508e-004 4.92379186e-005
      -6.16465331e-006 4.63783763e-005 -7.19111631e-005 2.69994962e-005
      1.93537970e-004 1.88591817e-004 2.31667684e-004 -6.01221245e-006
      1.18583412e-005 3.06094189e-005 9.49170644e-005 7.25930091e-004
      8.47195915e-005 2.76806677e-004 1.77690454e-004 1.49812113e-004
      2.56231229e-004 5.77390252e-004 6.33291842e-004 1.40036282e-004
      1.54729321e-004 -7.57545204e-005 -1.05662773e-004 -6.04499073e-004
      -1.02584809e-003 -1.57241273e-004 2.71420358e-005 -3.56839410e-005
      1.32652440e-006 -1.77243619e-005 -4.39900759e-004 -9.39417048e-004
      -3.16715043e-004 -1.78938644e-004 -4.03389167e-005 7.61801493e-005
      -5.68257128e-005 -1.40335818e-004 -1.51018059e-004 1.71532047e-005
      6.42428495e-005 3.53458272e-005 -1.24398459e-004 1.79434908e-004
      1.09070563e-004 1.10662200e-004 6.75091360e-005 6.79773366e-005
      1.19374672e-004 4.71296080e-004 -4.07251318e-005 -6.08129078e-004
      -3.25365749e-004 -1.05835905e-004 -2.23515483e-004
      -1.24044149e-004 -2.05755161e-004 -7.71286781e-004
      -1.32068408e-005 9.05794077e-005 -1.19465098e-004 -7.41284981e-004
      9.88597913e-006 3.48921712e-005 1.86211299e-004 -2.78121239e-004
      -2.84722686e-004 -2.14602164e-006 2.65243602e-006 1.22122670e-004
      3.72542039e-004 1.01430334e-004 -1.47915148e-006 5.55389852e-005
      6.05185305e-005 9.55980940e-005 2.86570081e-004 3.08726128e-004
      7.35341891e-005 -3.42202929e-006 -5.03981482e-006 -6.25870016e-005
      -2.35536674e-004 -5.30424353e-004 -4.09491971e-004
      -3.51252180e-004 1.05555455e-005 1.06724357e-004 7.35477661e-004
      1.76208932e-003 -2.21456648e-004 -2.51977908e-004 -1.93135988e-004
      2.36595806e-004 8.15545034e-004 6.91868772e-004 -1.50012165e-005
      -5.35229556e-005 2.29753816e-004 5.53852471e-004 1.58614377e-004
      -4.56913731e-005 6.23755041e-005 1.41727884e-004 1.09893554e-004
      8.68520656e-005 8.81345550e-005 -4.26814540e-006 -5.14930798e-005
      -1.35220343e-003 -5.63827110e-004 -3.42299143e-004
      -1.20578334e-004 -2.68831704e-004 -2.36765321e-004
      -2.04512166e-004 -7.70744868e-004 1.07218684e-005 -6.87177599e-005
      -3.10924399e-004 -9.47565772e-004 -7.64626820e-005
      -4.74227163e-005 -1.23078120e-004 -5.39863249e-004
      -6.69490139e-004 -6.00866724e-006 7.10147142e-005 1.35046885e-005
      2.29888086e-004 -1.91892304e-005 6.31518378e-006 7.91416023e-005
      1.73639070e-004 5.01403178e-004 2.88592273e-004 1.97586705e-004
      4.12091940e-005 -5.18917732e-005 -1.99280785e-005 -6.27084228e-005
      1.73565422e-004 -7.14208407e-004 -5.35635743e-004 -3.08067712e-004
      -5.23447670e-005 8.82856257e-005 7.69194390e-004 1.83783122e-003
      4.58178838e-005 -3.42632557e-004 -3.12782358e-004 2.59775377e-004
      8.14400439e-004 6.82549377e-004 -3.32315394e-005 -1.29462947e-004
      8.77535378e-004 1.11748197e-003 -4.75153283e-005 1.99037422e-005
      4.84636839e-004 1.50181266e-004 -7.48248058e-005 2.66376126e-004
      1.03148275e-004 7.43951023e-005 -4.82109812e-004 -8.94469442e-004
      -5.83163288e-004 -2.48716515e-005 -3.15006364e-005
      -2.61777241e-005 -2.21338036e-004 -1.34166738e-004
      -4.20572935e-004 -1.81554406e-005 -1.78667731e-004
      -3.43870750e-004 -8.39282875e-004 -2.23810974e-004
      -2.95576433e-006 -3.75115474e-006 -5.64037240e-004
      -8.01801332e-004 3.51440649e-005 1.23012200e-004 1.16710267e-004
      2.60541798e-004 -6.89858352e-005 -1.50298190e-004 -1.09136701e-004
      5.90420641e-005 5.37400367e-004 4.56233684e-004 1.79621071e-004
      4.13934249e-005 -1.10790781e-004 1.74534616e-005 -1.69733139e-005
      -4.89634840e-005 -2.90863187e-004 -3.81927181e-004
      -2.96329061e-004 -5.97951584e-005 2.41383852e-004 7.03050231e-004
      2.20702670e-004 -1.28793457e-004 -1.93072541e-004 -1.45399739e-004
      2.81496177e-004 1.13474473e-003 5.70832461e-004 9.46254440e-005
      1.38903095e-004 8.38622625e-004 7.51432206e-004 1.45961138e-004
      8.45431568e-005 3.97654221e-004 2.01630843e-004 7.12089968e-005
      2.12146842e-004 4.54467445e-005 -1.08291402e-004 -3.20141524e-004
      -1.11305213e-003 -2.43520568e-004 8.16027095e-005 3.87403052e-005
      -1.49817308e-004 -2.22923918e-004 -8.72846940e-005
      -3.32287134e-004 -1.26387327e-004 -2.16822169e-004
      -3.32731055e-004 -6.06434711e-004 7.91664843e-006 -2.15156630e-004
      -3.74995987e-004 -8.68007250e-004 -6.02438871e-004
      -5.24013376e-005 1.63511049e-005 8.60226137e-005 7.22731929e-005
      -3.43719876e-004 -1.66337617e-004 -1.70990770e-005
      -7.77693003e-006 1.30179047e-004 3.78788573e-005 6.82726459e-005
      -5.03175215e-005 -2.82591045e-005 5.96982463e-005 3.27245743e-006
      1.14630948e-005 -2.96469982e-004 -2.11559833e-004 -1.91274245e-004
      -9.81108897e-005 2.01820250e-004 5.63356094e-004 4.52520646e-004
      -5.64017546e-006 -2.08772035e-004 -6.48651767e-005 2.61672889e-004
      1.35403511e-003 6.63713843e-004 1.14607705e-004 1.28781452e-004
      9.05532273e-004 9.12186806e-004 1.89948711e-004 2.04021417e-005
      2.75448489e-004 1.48541149e-004 8.07652250e-005 5.53905957e-005
      9.32144321e-005 5.63593094e-005 -3.01192806e-004 -6.69363770e-004
      -8.42198788e-005 -1.06883908e-005 -2.57746851e-005
      -6.10805000e-005 -1.49185566e-004 -7.14298731e-005
      -9.73349597e-005 -7.74442815e-005 -1.63905526e-004
      -3.43563035e-004 -7.92341831e-004 -8.18180197e-005
      -1.43695899e-004 -3.49201029e-004 -8.19068693e-004
      -9.36358469e-004 4.84213451e-005 -4.52561835e-005 -3.20045510e-005
      -2.50585261e-004 -4.93582513e-004 -2.96717888e-004 5.38300847e-005
      2.22032351e-004 4.09319618e-004 1.59641422e-004 -1.78780669e-004
      -1.89463026e-004 -1.70998552e-004 4.30997989e-006 5.37407323e-005
      1.30305343e-004 -4.84360098e-005 -8.11784630e-005 -1.05752588e-004
      -9.80000768e-005 9.68427485e-005 2.70277553e-004 1.79845898e-004
      -9.59990757e-006 -2.00246977e-005 -3.63113722e-005 2.40848880e-004
      1.10339106e-003 4.04861465e-004 1.06097439e-004 1.16015426e-005
      1.39711692e-003 6.87168213e-004 1.33882495e-004 1.99481612e-004
      3.55965021e-004 6.92741160e-005 9.29730304e-005 8.32354417e-005
      1.70140920e-004 3.26872505e-005 7.31736218e-005 -5.26663789e-004
      -2.93623976e-004 -1.14539856e-004 -1.43570605e-005
      -6.91306923e-005 6.19853672e-005 -2.75401871e-005 1.63333912e-004
      -2.63436868e-005 -1.88457765e-004 -3.49855138e-004
      -6.98266318e-004 -1.71253836e-004 -2.07896868e-004
      -6.12408738e-004 -9.53923911e-004 -7.09013140e-004 1.58356197e-005
      3.63003128e-005 -1.07824162e-004 -3.04058776e-004 -3.69128276e-004
      -1.27126987e-004 1.30534754e-004 8.01293500e-005 6.09595678e-004
      4.11021203e-004 -2.45995296e-004 -1.35099443e-004 -6.09932067e-005
      -1.05418176e-005 -2.72310681e-005 5.50966215e-005 1.17764634e-004
      1.42070872e-004 -6.40305516e-005 9.06874175e-006 5.43258138e-005
      4.55616573e-005 1.42362434e-004 1.76327609e-004 1.24796325e-005
      7.29184903e-005 3.80827958e-004 1.84389923e-004 -2.77146628e-005
      1.58099108e-004 7.94501684e-005 9.21780185e-004 2.47464021e-004
      1.65583784e-004 -1.62157103e-005 6.72080438e-004 1.62487850e-004
      2.14871092e-004 8.10707861e-005 -3.69945519e-005 -7.41415206e-005
      4.46395483e-004 -7.50631625e-006 -1.42202203e-004 2.16011704e-005
      6.77419803e-006 2.68031035e-005 5.22704795e-005 -2.49308159e-005
      1.03538106e-004 -1.87804508e-005 -1.29222783e-004 -1.14280083e-004
      -5.63093927e-004 -1.79087700e-004 -3.47939029e-004
      -8.72258679e-004 -9.64767416e-004 -4.62306692e-004
      -3.98177281e-006 -8.04023148e-005 -9.79492615e-005
      -9.86765139e-004 -4.10103734e-004 -8.03631519e-006 6.20093197e-005
      8.39885324e-005 3.78045952e-004 9.40171230e-005 -8.61314675e-006
      -1.56778086e-004 4.12913505e-005 -9.75477269e-006 3.78403092e-005
      -1.48776098e-005 1.90120612e-004 2.95882892e-005 1.53862075e-005
      8.84123779e-008 7.36442671e-005 1.54542868e-004 -4.27682717e-005
      1.12125454e-004 4.36672854e-005 2.70421219e-006 2.43414121e-004
      1.51420652e-004 5.66310700e-005 2.58413143e-004 3.68975670e-005
      5.85332280e-004 3.25141649e-004 2.26698772e-004 1.59085699e-004
      7.07448868e-004 1.90060629e-004 6.68395005e-005 1.83615521e-005
      -5.39365938e-005 6.03536537e-005 6.13477605e-004 4.63212928e-004
      -2.87191564e-004 -1.76694539e-005 8.38864980e-006 -9.60262696e-005
      1.37985917e-004 -9.44288913e-005 -2.78336433e-004 7.13136542e-005
      -1.08376124e-004 -6.39374266e-005 -2.68916483e-004
      -4.25475919e-005 -9.48434827e-005 3.35176373e-005 -3.23562010e-004
      -2.23877825e-004 2.03888103e-005 -7.78631947e-005 4.82218966e-005
      5.88550640e-004 -2.35565574e-004 -8.41574802e-005 9.06590649e-005
      -2.28059162e-005 -1.07135995e-004 -2.92804878e-004
      -8.76886988e-005 -1.82026444e-004 -8.64893445e-005
      -1.69158884e-005 -4.54671172e-005 -1.99336973e-005
      -5.72018384e-004 -1.41899800e-004 -1.27473313e-005 1.43090801e-004
      -1.02295708e-004 3.82208993e-004 1.92052010e-003 8.40444263e-005
      6.16985271e-005 1.03567341e-004 -1.83039629e-005 2.40782159e-004
      3.67305940e-004 -3.00885004e-005 -5.30354482e-005 -5.21329857e-005
      5.12807455e-005 8.97315404e-005 4.28899548e-005 -2.14009401e-006
      1.02289217e-004 -2.82170604e-005 3.39608741e-005 5.20649837e-006
      -4.51410451e-005 6.15962063e-006 -4.17174859e-004 -3.82678845e-004
      -1.65986232e-004 -3.30360417e-005 -1.38072835e-004
      -7.78710237e-005 -2.84918031e-004 -2.53795646e-004
      -3.94547351e-005 -7.01749523e-005 -6.34683878e-004
      -1.18128967e-003 -1.20611248e-005 -3.64879452e-005
      -9.53831332e-005 -1.72232057e-003 -1.08308811e-003
      -1.32068408e-005 -4.65628045e-006 4.72546089e-005 -5.19336390e-006
      -1.74323577e-004 -1.21866746e-004 1.36883624e-004 2.54661718e-005
      1.37996118e-004 2.31668033e-004 4.83995900e-005 -1.24596598e-004
      8.51611458e-006 2.62278877e-006 1.46767226e-004 7.92116625e-004
      5.58507512e-004 -3.06321075e-004 -1.39691925e-004 -1.37643510e-004
      5.55858351e-005 8.66248738e-004 3.35287815e-003 1.18718587e-003
      -1.48251711e-004 -1.25268212e-004 1.46680235e-004 -4.15212824e-004
      1.39843964e-004 -3.77005381e-005 -1.20481520e-004 1.17218960e-003
      -1.30505423e-005 5.07128461e-005 -4.61627278e-005 4.63225188e-005
      1.78523660e-005 -3.83395964e-005 -2.65527774e-006 -2.02819301e-005
      -9.47518492e-005 -5.33977291e-004 -3.36761936e-004
      -1.40109085e-004 -6.02808468e-005 -5.38959575e-005
      -5.60826675e-006 -7.87623794e-005 -7.39284005e-005
      -6.74427065e-005 -1.14859458e-005 -6.00208623e-005
      -6.52724528e-004 -1.48513936e-003 1.68530983e-006 8.10587007e-005
      -4.67771042e-006 -8.17351509e-004 -9.27752233e-004 5.33997154e-005
      9.12489395e-006 -1.20180503e-005 2.52331411e-005 -3.84702034e-005
      -1.25247823e-006 1.29250824e-004 9.97814423e-005 3.25935544e-004
      5.32984886e-005 5.37989763e-005 -2.74358063e-005 3.62518003e-005
      1.50209498e-005 6.60212463e-005 4.56342445e-004 1.79461669e-004
      -5.91713062e-004 -1.81216150e-004 -1.01895657e-005 2.18118912e-005
      3.68719513e-004 8.93147720e-004 7.80002621e-004 -2.06323006e-004
      -1.16875242e-004 -2.10563419e-004 -7.35387366e-005 8.03083967e-005
      -2.16153676e-005 -1.02357400e-004 2.42970907e-003 3.16969323e-004
      9.96201125e-005 3.32917807e-005 1.49882195e-004 1.29563487e-004
      -2.26736884e-005 2.33010651e-005 4.99444177e-005 7.72359490e-005
      -5.36301755e-004 -4.47449012e-004 -1.08044958e-004 2.57933370e-005
      -9.31145041e-005 -9.42493134e-005 -1.63480567e-004
      -6.50368238e-005 -3.55319760e-004 -1.90522587e-005
      -8.48601485e-005 -2.32742706e-004 -1.02121173e-003 4.85515484e-005
      -4.34509417e-007 -4.31898407e-005 -4.13844449e-004
      -1.72055821e-004 1.87985540e-006 6.30947397e-005 -6.84538609e-005
      -1.43082638e-004 -1.17574120e-004 -4.50610387e-005 5.67232782e-005
      3.91453468e-005 3.20015155e-004 4.64423938e-005 -1.13202448e-004
      -2.33189312e-005 3.68942638e-005 -4.73929940e-005 4.49318213e-005
      -6.99622251e-005 -2.79188185e-004 -6.46428904e-004
      -8.50034703e-005 -2.05892720e-005 1.78205082e-004 5.19982423e-004
      -9.69682296e-005 -4.17555100e-004 -3.16215097e-004
      -1.52880835e-004 1.81791678e-004 1.79943861e-003 -6.31647636e-005
      -1.79504728e-004 -1.09219283e-004 1.39027881e-003 8.93709133e-004
      9.89867913e-005 7.12247856e-006 2.19114329e-004 2.12747414e-004
      1.11584950e-005 -3.95984243e-005 5.71988930e-005 -1.28307247e-005
      7.52249252e-005 -4.14598209e-004 -3.87679902e-004 -4.43296267e-005
      -2.91952165e-005 1.24179842e-005 -1.00247045e-004 2.26699535e-006
      -4.78624715e-005 -6.60019068e-005 -1.52324195e-004
      -9.93655121e-005 -4.19974705e-004 3.41145787e-005 -1.55793314e-004
      -1.58886673e-004 -5.38990484e-004 -1.40900863e-006 2.82898545e-005
      -3.44038526e-005 -9.46340297e-005 -4.53757530e-004
      -5.12904895e-004 -1.46209699e-004 -1.22525249e-004 9.53237977e-005
      4.35762136e-004 5.39385110e-005 -3.24077148e-004 -2.52035126e-004
      -3.14229214e-006 3.57169520e-005 3.57200111e-006 -9.94095390e-005
      -2.43235278e-004 -1.89397382e-004 -5.45804687e-006
      -1.63242294e-004 -1.65994206e-005 4.99935355e-004 -4.07206899e-005
      -2.18016823e-004 -1.09506116e-004 -7.20519893e-007 3.97145981e-004
      2.01977161e-003 2.71116733e-004 -1.22788497e-005 -6.58245990e-005
      1.34041789e-003 7.50441977e-004 7.73304564e-005 -7.05639468e-006
      3.36273079e-005 -1.91121544e-005 3.68238725e-005 -1.75585155e-004
      -1.18797871e-004 -5.67572943e-006 1.67261547e-004 -6.58888719e-004
      -1.71799402e-004 1.15437055e-004 -1.11145328e-005 4.48543960e-006
      -7.88543693e-005 -5.91014759e-005 -1.92994648e-005
      -6.84602492e-005 -1.29638036e-004 -1.64633428e-004
      -2.13177729e-004 5.15818647e-006 -1.40055199e-004 -1.19955432e-004
      -1.27974752e-004 -5.56209525e-005 9.41818234e-006 7.32254266e-005
      -4.74289300e-005 -3.85000545e-004 -4.41888260e-004
      -1.87253390e-004 -6.76564787e-006 2.06908633e-004 5.21181675e-004
      -2.94587109e-004 -3.55313299e-004 -3.30188283e-004
      -1.15063172e-004 -1.60624313e-005 -5.10920108e-006
      -2.09706814e-005 1.16825083e-006 -7.50562613e-005 -8.82989771e-005
      -8.20805799e-005 1.49818618e-004 2.03628850e-004 3.50140072e-005
      -3.66292625e-005 -3.22990199e-005 -4.10482244e-006 1.55215894e-004
      9.29518137e-004 1.94078122e-004 -3.04800160e-005 -1.02972344e-005
      1.20911258e-003 6.46749802e-004 8.63020796e-006 7.73481661e-005
      -1.96786001e-004 2.20684324e-005 6.07688053e-005 -5.24769530e-006
      7.04548074e-006 -1.15846837e-004 1.92302134e-004 -5.85839443e-004
      2.63474285e-005 -3.58979305e-005 -1.11619429e-005 -2.39165638e-005
      -1.71887950e-005 -3.69598092e-005 -1.62896191e-004
      -2.88513875e-005 -2.27656292e-005 -4.51428816e-004
      -7.33999186e-004 8.30188656e-005 -4.85025739e-005 -1.55134258e-004
      -8.81675107e-004 -1.36396746e-004 5.15341017e-005 1.47481653e-004
      4.69470651e-005 -5.46701951e-004 -5.52256824e-004 -1.50432286e-004
      7.30420070e-005 3.10961419e-004 1.09849509e-003 1.07898132e-003
      5.61179259e-005 -7.74424334e-005 -7.10276072e-005 6.87905458e-006
      -4.16483417e-005 -1.49462476e-005 6.11615803e-007 -2.11001679e-004
      -8.28579941e-005 -7.37691807e-005 2.69086977e-005 3.33816279e-005
      -3.99831370e-005 -3.81816171e-005 -8.65454858e-005
      -2.89712298e-005 3.12055490e-005 1.86607227e-004 -1.22443642e-004
      -7.62502823e-005 -2.25600797e-005 4.64676181e-004 2.16712768e-004
      -4.13988746e-005 7.71541963e-005 3.23103653e-004 1.25130682e-004
      3.45143744e-005 1.07420921e-004 1.73929264e-004 8.68713869e-006
      1.79103896e-004 5.62400637e-005 -1.39310112e-004 -3.99001838e-005
      0. 2.12265135e-007 -1.65605506e-005 -1.52497296e-005
      -2.16687782e-004 -2.14372049e-005 -8.20697169e-005
      -4.21912235e-004 -1.02695683e-003 1.47192277e-005 -8.79049694e-005
      -3.26588226e-004 -8.20056826e-004 -6.57316647e-004 1.23064994e-004
      1.10208921e-005 3.18938983e-004 -6.69446381e-005 -3.39871534e-004
      6.28648286e-006 1.72971879e-004 4.78191541e-005 1.05138519e-003
      4.26260009e-003 6.86860003e-004 -1.22467363e-005 -7.91230414e-005
      -3.31936280e-006 -5.15047213e-005 -1.18781019e-004
      -2.38582172e-004 -5.12265076e-004 -2.83659465e-004 2.34930321e-005
      -4.48909268e-005 -1.49583182e-004 -1.80142582e-004
      -1.60906406e-004 -2.09228267e-004 -1.02779108e-004
      -2.29998666e-004 -4.97708214e-004 -2.30476537e-004
      -1.00830315e-004 -1.82250660e-004 -2.77825253e-004
      -3.96809155e-005 -2.98287596e-005 -5.85510679e-005 7.34479749e-004
      1.79986586e-004 1.66287267e-004 2.35677086e-004 6.22517327e-005
      -5.85186754e-005 2.50887038e-004 -2.17493085e-004 -2.63853988e-004
      -2.55455270e-005 1.06993088e-004 1.95447938e-005 2.17382971e-004
      -1.34250286e-006 -2.26894099e-006 -7.89942351e-006
      -1.10293993e-004 -1.65849215e-005 1.24195503e-004 2.26585253e-005
      -1.32863512e-004 -1.10244480e-004 -1.68599363e-004
      -4.88694968e-005 4.96718542e-007 1.79893755e-006 -1.20314653e-004
      -9.91603447e-005 -2.49085628e-004 2.37931590e-006 -9.19603335e-005
      -9.59413665e-005 -8.47027479e-007 -4.43023251e-004
      -9.50444519e-005 -1.10021720e-004 -8.04106676e-005
      -5.52714773e-005 -8.04829760e-005 2.20155649e-004 -4.48853447e-004
      1.44121062e-004 -2.19310641e-005 -1.83098309e-005 -4.85529199e-005
      7.19702512e-005 1.67604000e-003 5.57072635e-005 -5.96123300e-006
      1.17993241e-005 -7.89982641e-006 -2.78112566e-005 4.81329007e-005
      1.20991943e-004 5.18205816e-005 -8.38748019e-005 -3.19837236e-005
      2.31933591e-004 -7.19227901e-005 4.52361428e-006 -5.64388502e-005
      4.43937388e-005 -2.76556784e-005 4.07226617e-005 2.09825303e-005
      2.27436525e-004 -2.05056058e-004 -2.66167248e-004 -1.39780575e-004
      -1.25184033e-006 4.68075596e-005 3.07438895e-005 1.65798992e-004
      1.12882241e-004 -3.54350304e-005 2.79559554e-005 -1.91098981e-004
      -1.05979911e-003 3.66124223e-005 4.41172961e-005 7.00422024e-005
      1.88096164e-005 -4.86343342e-004 -2.88813353e-005 5.29080135e-005
      -2.84204107e-005 -7.54447756e-005 -1.09713699e-004
      -2.16227301e-004 6.27443369e-005 2.58481869e-005 5.81396394e-004
      2.59029097e-004 -1.04455896e-004 -6.95321505e-005 -3.07541741e-005
      -4.59277835e-005 -2.34474028e-005 3.57969664e-004 7.75020744e-004
      -1.16550174e-004 -1.07771812e-004 -7.06758365e-005 8.62159941e-005
      3.88778790e-005 1.17411988e-003 5.74182544e-004 4.70020786e-005
      1.22388510e-005 5.01963177e-006 -6.53776049e-004 -1.15029121e-004
      -3.26342888e-005 -9.52294977e-006 -1.48080317e-005
      -1.97574234e-004 -5.21093461e-005 3.92701668e-006 1.79139053e-004
      -8.19180741e-007 5.15548345e-005 -1.70578205e-005 -8.66621940e-006
      1.66524085e-004 -3.08984512e-004 -3.88827815e-004 -1.35848037e-004
      7.01299214e-005 -2.34169784e-005 -1.09065171e-004 -1.00484016e-004
      7.08453035e-006 8.15721432e-005 3.14962972e-006 -6.24276799e-005
      -2.97790364e-004 8.28315911e-004 1.19762182e-004 5.51483527e-006
      2.20892209e-004 -2.57666426e-004 -1.49761911e-006 0.
      4.29378233e-005 8.75323458e-005 1.87144455e-004 2.33124607e-004
      -7.69430062e-006 -1.63300992e-005 -1.04717710e-005 1.46240360e-004
      -1.18681846e-005 1.19675758e-004 3.19869141e-004 1.18279058e-004
      -2.55699015e-005 -3.88858898e-005 -4.12375775e-005
      -1.73482811e-004 -3.68268520e-004 -5.38910572e-005
      -6.69606234e-005 -8.23994924e-005 -4.57614515e-005
      -1.39225973e-004 -1.08649234e-004 -1.56534341e-004
      -6.32647570e-005 -2.15365668e-004 -5.29511075e-004
      -2.22425835e-004 -1.15471223e-004 2.30951468e-004 7.57444242e-004
      -3.19902727e-004 -7.51170664e-005 -6.07276452e-005 1.88257385e-004
      -1.88555623e-005 -2.81074421e-007 1.61340169e-004 -8.85744703e-006
      2.89850723e-004 -2.28879333e-004 -2.49820223e-005 -3.63003841e-004
      -7.39513052e-005 -1.35915425e-005 -1.72004045e-004 3.98766497e-005
      -2.52278143e-004 -1.59289222e-004 -1.58625369e-006 1.17922500e-005
      -2.17480119e-004 1.86568242e-003 -9.36095166e-005 1.13932088e-004
      4.99446542e-005 -1.75413166e-004 2.05077213e-005 -4.09903150e-005
      7.81851049e-005 2.49182467e-005 -7.84699587e-005 -1.22154845e-004
      -4.41375159e-005 -3.84926971e-005 1.40926409e-006 2.18426270e-004
      -2.70515975e-005 -3.61962702e-005 2.85686906e-006 -3.65264714e-005
      3.14522804e-005 -6.28991111e-005 -9.78416574e-005 1.27354148e-003
      2.35652915e-004 -2.69486191e-004 -7.69167746e-005 -3.33935786e-005
      -5.67727620e-005 -3.61920160e-004 -1.75375870e-004
      -1.08165914e-004 -3.03705910e-005 -1.45849481e-004
      -1.53407396e-004 -2.38922541e-004 -6.44955944e-005 1.59764313e-004
      1.32812493e-004 5.09937963e-005 4.13937523e-005 -4.69883853e-005
      3.39838903e-006 2.82980745e-005 4.32552370e-005 -4.30288565e-005
      1.27178635e-006 -5.72139652e-006 -2.89279735e-004 -2.22303119e-004
      -3.22084263e-004 -4.64181103e-005 1.49830830e-005 -1.75937676e-005
      4.93417101e-005 -2.46703712e-005 -1.69270279e-004 -4.13156631e-005
      -1.32864865e-004 1.14202747e-004 8.53792735e-005 -6.05910827e-005
      -1.07882675e-004 -7.80405026e-005 6.42140338e-004 1.86618545e-005
      -3.77549186e-005 -2.49364311e-005 -1.32781024e-005 9.66650899e-004
      4.09663335e-004 -1.47838698e-004 3.36228004e-005 -1.47798957e-004
      -1.93587330e-004 4.81765564e-005 3.92810296e-004 2.70002165e-005
      -9.15583587e-005 -1.05627623e-006 6.56554221e-006 -4.53432949e-005
      -7.84637596e-005 -1.02824517e-004 -1.12098474e-004
      -7.36188958e-005 -5.75897457e-006 -3.63799627e-005
      -2.26886463e-004 3.03046661e-004 -3.01425880e-005 2.49021195e-005
      -9.43073755e-005 8.56123370e-006 4.68570688e-005 -1.61834359e-005
      -1.88506292e-005 -2.58662971e-004 -2.93819467e-005 3.14682693e-005
      9.43956366e-006 -8.66604387e-005 -6.87524007e-005 2.23660172e-005
      -4.33548958e-005 -6.26724286e-005 -1.24426238e-004 2.08965255e-004
      -2.91494507e-004 -2.01066112e-004 2.78667489e-004 6.04452634e-006
      1.15228970e-004 -3.43878783e-005 -1.25789593e-004 -1.26320083e-004
      -4.35782640e-005 -1.70766274e-004 -1.02789432e-004
      -3.36793782e-005 4.15202558e-005 -4.31864719e-005 -2.17881097e-004
      1.79238128e-003 5.78208128e-004 -2.03443833e-005 1.21717145e-004
      -1.04441795e-004 -3.72442853e-004 7.25760692e-005 -2.54532992e-004
      1.84876444e-005 1.74260294e-005 -8.55468534e-005 -2.33918705e-004
      -2.47176125e-004 -8.31796860e-005 -3.89134075e-005
      -2.07502326e-005 7.51321750e-006 4.94794222e-006 -1.60970361e-004
      -3.08970812e-005 -8.60304353e-005 -1.79794471e-004
      -4.29333413e-005 -5.11244389e-006 9.30462484e-005 -3.45083354e-005
      2.41873804e-005 1.19304159e-005 -5.54162907e-005 3.37809994e-004
      6.16927791e-005 -2.74911599e-005 1.28917483e-004 -2.75474245e-004
      7.95964879e-005 -5.83061092e-006 1.01045061e-005 -2.37511806e-004
      -1.15917319e-005 3.05134199e-005 3.53118994e-005 1.90416504e-005
      1.37054507e-004 -8.63157038e-005 -2.23355804e-004 -1.08440116e-004
      1.80268893e-004 -8.94152890e-006 -3.25846413e-005 -2.61131954e-005
      -5.92314209e-005 1.58127863e-004 -5.13342966e-005 -9.72925991e-005
      -4.77149501e-004 1.95521745e-003 -7.23286939e-006 -7.85006414e-005
      -2.80731358e-004 -6.52973715e-004 4.97142086e-004 2.85317765e-006
      -4.13404559e-005 1.13461043e-004 -1.48140563e-004 -3.07864306e-004
      -4.38345523e-005 -4.10394423e-005 -3.92533047e-006 2.85423215e-004
      1.59090137e-004 -8.89906514e-005 -1.74957182e-004 -3.41572086e-005
      2.02354640e-005 -7.72679123e-005 -1.31516053e-005 6.01135544e-005
      2.01236558e-004 6.59342841e-005 -1.46899853e-004 -1.16973906e-005
      -1.42707495e-005 4.52382010e-005 9.38628218e-005 1.52592460e-004
      2.52543668e-005 -1.21346238e-004 -1.99378454e-004 8.68376737e-005
      1.59366618e-006 3.00861517e-004 1.11397487e-004 -3.47469148e-004
      -9.53621857e-005 5.43536407e-006 1.12833346e-004 -7.17298599e-006
      -8.98901053e-005 -1.09546025e-004 -8.87827082e-006
      -5.47969175e-005 -1.38310628e-004 -4.34796530e-004
      -1.40831980e-004 -8.13103688e-005 0. -2.91852484e-005
      -1.15959607e-004 -5.00398673e-005 -2.62394780e-004 3.67393914e-005
      1.35475944e-004 -8.81394590e-005 -3.81147081e-004 -8.75504429e-006
      1.66669401e-004 3.40959872e-004 -7.81538023e-004 -3.25999572e-004
      -2.03443833e-005 6.24967943e-005 5.47242176e-004 3.51580675e-004
      -2.11632796e-004 -7.56436348e-005 -5.60319677e-005 9.22880135e-005
      7.08444801e-004 2.78588361e-003 4.84682998e-004 7.75739609e-005
      -2.49533059e-005 -2.68695967e-005 -1.57610029e-005
      -1.62133219e-004 -2.57562060e-004 -2.71988887e-004
      -1.27476233e-004 -1.02872851e-004 -3.22413107e-005
      -1.75809400e-004 -1.27322553e-003 -2.38801425e-004
      -1.30040251e-004 -1.84603705e-005 3.14820099e-005 -4.55579691e-004
      -3.85908643e-004 -7.05497878e-005 -1.05695886e-004 5.22221031e-004
      -3.50377595e-005 -1.16281968e-004 -4.02958285e-005 4.87930753e-004
      1.29046530e-004 -9.65818708e-006 1.10443638e-004 1.05786828e-004
      1.55517409e-004 -2.27153680e-004 -3.99155339e-004 -3.17057507e-004
      -4.33548757e-006 6.75432821e-005 -1.38864547e-004 -5.03415104e-005
      -5.06265715e-005 -2.20430666e-004 -6.13800330e-006
      -3.73974945e-005 -6.47225606e-005 2.30820588e-005 -6.39790378e-005
      -1.25297069e-004 -1.47544721e-004 -4.74981352e-005
      -5.12578808e-005 -1.37279703e-005 6.80536732e-006 -6.69935544e-005
      -1.45274942e-004 -1.75770008e-004 -6.39942698e-007
      -1.12620342e-004 7.47595332e-005 1.01262209e-004 3.47292778e-004
      -2.86877039e-004 -2.17345150e-005 2.49725163e-005 -2.21887258e-005
      2.19088497e-006 1.36814037e-004 -6.48000714e-005 1.18961798e-004
      -4.14715905e-005 8.36899635e-005 1.99680508e-005 8.97712234e-005
      9.27675632e-004 6.55436539e-004 -6.48214846e-005 -9.77737946e-005
      -5.13028681e-005 1.84014643e-004 1.60841053e-004 -4.47140656e-006
      -4.88870319e-005 -6.34836906e-005 -5.69555668e-005 1.02163576e-004
      6.53999678e-006 3.08210110e-005 -5.51476842e-005 -1.29734530e-004
      -1.41842524e-004 1.94552194e-005 -2.01163834e-006 1.68018276e-004
      -3.58057499e-004 -1.59633913e-004 6.37947369e-006 1.56301394e-005
      2.50420781e-005 -4.76923269e-005 -7.50090567e-009 -2.96800208e-005
      -1.03834591e-005 8.60776490e-005 -1.60337193e-004 -5.14477651e-005
      1.28887996e-005 1.99884244e-006 -5.26891890e-005 -5.19760943e-004
      -1.73126318e-004 -8.04492374e-005 1.63407713e-005 -8.47133051e-005
      1.34264774e-004 -1.79105598e-004 -2.80410932e-005 3.86902175e-005
      1.88487265e-005 2.11751962e-004 2.61732261e-004 2.07145204e-004
      9.38818048e-005 -3.55973384e-006 -5.54586040e-005 -2.75221410e-005
      4.20364930e-004 1.47587911e-003 -4.75104825e-005 1.60345589e-005
      -1.18199587e-005 1.33343361e-004 1.44298174e-004 7.77320645e-004
      4.65314020e-004 -4.73936461e-006 2.27226392e-005 -2.52842641e-004
      -3.47030786e-004 -5.48447206e-005 -3.46868501e-006 5.72693934e-005
      -6.52111834e-004 -7.08215113e-004 -6.31751100e-005
      -6.19352140e-005 1.76262212e-004 -2.82593886e-004 9.74827526e-006
      -4.49036488e-005 -2.53894716e-004 -5.15088286e-005
      -2.28761812e-004 -9.62648410e-005 -1.76118381e-004 6.98188669e-005
      -2.08738438e-005 -4.36894188e-005 -7.10799723e-005
      -4.43444587e-005 1.53875442e-006 7.32239687e-006 -9.10906165e-005
      -1.79963943e-004 -1.09888155e-004 -7.43808368e-006
      -1.97376812e-005 5.19443201e-005 1.23062171e-004 -2.41485322e-005
      -2.04852167e-005 7.48623715e-005 -2.83722820e-005 2.32264807e-004
      1.21680641e-004 -5.54012186e-005 -9.02198299e-005 -1.35395036e-004
      6.19564147e-004 3.59360536e-004 4.71817875e-005 1.37565716e-004
      -3.21095249e-005 2.57306783e-005 2.28107801e-005 2.36086616e-005
      -3.75388881e-005 -3.64920220e-006 -4.89501836e-005
      -1.03785213e-004 -1.25634411e-004 -2.05565520e-004
      -2.41902046e-004 -1.19556193e-004 -2.25113145e-005
      -1.28901693e-005 -2.50368874e-004 -1.08080800e-003
      -2.68417178e-004 4.85053897e-005 -1.18321122e-006 2.07805168e-003
      -3.23017041e-004 -1.30763292e-004 4.56028974e-005 7.67868129e-004
      1.36829200e-004 -8.30167410e-005 1.50726628e-004 -4.18368909e-005
      7.66805751e-005 -4.18091018e-004 -5.52739599e-004 -1.21902318e-004
      2.27095352e-005 3.99838171e-007 5.44466900e-007 -7.90695267e-005
      -1.06467232e-004 9.31638283e-007 -6.71468615e-006 -9.18474370e-007
      -6.75508363e-006 2.67300406e-004 5.89552947e-005 2.83678528e-005
      1.29585223e-005 8.34265302e-005 2.72125326e-005 -3.76635785e-006
      -5.80244159e-005 -3.55685188e-007 -6.24399618e-005
      -4.77424073e-005 5.04400778e-005 4.06641375e-005 -1.28726693e-004
      8.50012802e-005 -6.33773961e-005 -4.96930697e-005 -4.65710491e-006
      -2.65473045e-006 -4.25534345e-005 -7.61137635e-005
      -7.75374865e-005 1.12977065e-003 7.84793374e-005 -6.14551172e-005
      -2.32526236e-005 -1.20926925e-004 -2.71105324e-004
      -5.89765375e-004 3.10034782e-004 1.10798435e-004 -6.12631920e-005
      -1.17324205e-004 6.87188469e-004 2.20894697e-004 -9.46690780e-005
