<?xml version="1.0"?>
<opencv_storage>
<my_svm type_id="opencv-ml-svm">
  <svm_type>C_SVC</svm_type>
  <kernel><type>RBF</type>
    <gamma>8.9999999999999997e-002</gamma></kernel>
  <C>10.</C>
  <term_criteria><epsilon>2.2204460492503131e-016</epsilon>
    <iterations>50000</iterations></term_criteria>
  <var_all>324</var_all>
  <var_count>324</var_count>
  <class_count>4</class_count>
  <class_labels type_id="opencv-matrix">
    <rows>1</rows>
    <cols>4</cols>
    <dt>i</dt>
    <data>
      0 1 2 3</data></class_labels>
  <sv_total>346</sv_total>
  <support_vectors>
    <_>
      1.11826912e-001 2.51829833e-001 2.58784533e-001 1.92863435e-001
      6.20186068e-002 3.04429624e-002 5.22797890e-002 1.43679800e-002
      7.39120394e-002 1.71628103e-001 1.81172043e-001 2.36312956e-001
      1.01956755e-001 8.87955725e-002 1.35207534e-001 2.58784533e-001
      1.22121245e-001 1.80432752e-001 8.58006552e-002 8.91088992e-002
      2.58784533e-001 2.04728484e-001 2.02844948e-001 1.77723527e-001
      1.52178854e-001 6.37565777e-002 9.69207734e-002 1.94476649e-001
      2.58784533e-001 2.58784533e-001 2.21202359e-001 1.40788019e-001
      6.86057582e-002 1.84810683e-001 5.52582778e-002 1.38075367e-001
      8.86523798e-002 6.83035478e-002 9.41782147e-002 5.48566654e-002
      6.20970428e-002 1.97864339e-001 2.78153747e-001 2.49859497e-001
      9.32234451e-002 3.96947637e-002 2.06293818e-002 1.61644630e-002
      8.48739594e-003 1.77767519e-002 1.84653491e-001 2.78153747e-001
      2.78153747e-001 5.12047634e-002 1.86384469e-001 2.78153747e-001
      2.78153747e-001 1.17813669e-001 7.65943974e-002 1.40792191e-001
      2.00030521e-001 1.58551767e-001 1.17858179e-001 1.08195588e-001
      9.38461721e-002 1.21173374e-001 2.82667577e-002 5.49140237e-002
      2.48777956e-001 2.78153747e-001 2.78153747e-001 1.53242409e-001
      2.02278662e-002 1.32900616e-002 1.03774313e-002 8.58808216e-003
      1.87899433e-002 1.54940337e-001 3.41527909e-001 2.74729282e-001
      5.63593470e-002 2.28630453e-002 1.44216260e-002 1.14419106e-002
      1.53800221e-002 2.41936315e-002 4.30509001e-002 8.32041427e-002
      6.96957484e-002 4.58855033e-002 5.82851693e-002 2.54267696e-002
      1.62571035e-002 5.53248776e-003 3.36517133e-002 3.19493443e-001
      3.41527909e-001 3.41527909e-001 2.93141007e-001 4.44233455e-002
      3.04740742e-002 1.14549221e-002 1.28457081e-002 1.26011567e-002
      2.36436412e-001 3.41527909e-001 3.41527909e-001 1.98597535e-001
      4.77173068e-002 5.97230718e-002 1.76975161e-001 9.15706381e-002
      9.78685468e-002 1.61839351e-001 2.74689704e-001 2.12706029e-001
      1.37723207e-001 9.33534652e-002 2.74689704e-001 2.74689704e-001
      1.71704590e-001 1.06612600e-001 9.70493406e-002 1.25529155e-001
      6.64914325e-002 7.22027496e-002 2.64815241e-002 2.42274776e-002
      5.41202761e-002 3.15287746e-002 3.34425233e-002 1.48706242e-001
      2.74689704e-001 2.74689704e-001 1.24004461e-001 9.95021015e-002
      1.29069477e-001 2.74689704e-001 9.59413126e-002 6.56057969e-002
      2.74689704e-001 2.74689704e-001 2.74689704e-001 6.61159009e-002
      1.05830111e-001 2.62520403e-001 2.62520403e-001 1.50305867e-001
      7.07444996e-002 9.47790742e-002 6.59233108e-002 5.72045445e-002
      5.33039868e-002 1.34448349e-001 1.89603716e-001 2.62520403e-001
      6.20229281e-002 6.58860058e-002 1.73995972e-001 2.62520403e-001
      2.62520403e-001 1.49544373e-001 9.28220749e-002 2.36821666e-001
      2.62520403e-001 1.37217611e-001 7.14063570e-002 1.58746719e-001
      2.62520403e-001 1.39970452e-001 3.25540565e-002 8.41505304e-002
      1.60806075e-001 2.60302961e-001 1.05372384e-001 6.07942343e-002
      1.29629746e-001 2.03822866e-001 1.66286200e-001 7.67540634e-002
      7.10067526e-002 3.41246799e-002 3.36875953e-002 1.69153288e-002
      2.73437463e-002 2.34010473e-001 2.59166688e-001 2.59166688e-001
      1.75519362e-001 3.99824567e-002 1.98270418e-002 2.81605870e-002
      2.95921639e-002 1.29659371e-002 2.59166688e-001 2.59166688e-001
      2.59166688e-001 1.33794844e-001 7.01635778e-002 1.01132147e-001
      1.97057977e-001 1.21263899e-001 4.11409959e-002 2.10743934e-001
      2.42622793e-001 1.74127370e-001 1.15813404e-001 1.65106311e-001
      8.60209018e-002 1.42584518e-001 1.28359810e-001 6.25981838e-002
      2.59166688e-001 2.59166688e-001 2.27204219e-001 2.59166688e-001
      2.74481475e-002 3.44905593e-002 2.06546392e-002 3.04583125e-002
      5.42045422e-002 1.52356490e-001 3.58306855e-001 3.15227270e-001
      7.14530423e-002 6.90378547e-002 6.23006746e-002 8.77974704e-002
      4.41030823e-002 6.76895007e-002 3.58306855e-001 3.58306855e-001
      3.58306855e-001 8.12090859e-002 1.73180662e-002 3.78449112e-002
      3.88449915e-002 6.18223101e-002 5.44564016e-002 3.48715708e-002
      4.66104969e-002 3.95741053e-002 2.92515028e-002 1.53856091e-002
      4.28760089e-002 5.66131249e-002 5.22673391e-002 9.39383954e-002
      2.54508257e-001 3.58306855e-001 3.03409934e-001 3.99284624e-002
      4.17151786e-002 4.51447107e-002 7.43953735e-002 3.20180282e-002
      5.06468602e-002 2.38089487e-001 3.00068974e-001 3.00068974e-001
      2.47822534e-002 9.87185538e-002 1.35804877e-001 1.41322777e-001
      9.73137245e-002 6.52172416e-002 1.38759494e-001 2.35585585e-001
      1.66680038e-001 3.36102545e-002 1.45579334e-002 1.42877260e-002
      1.92261618e-002 1.28974207e-002 5.35113104e-002 2.68922180e-001
      3.00068974e-001 3.00068974e-001 2.00110450e-002 8.94708857e-002
      1.08414352e-001 5.90214320e-002 9.75030437e-002 1.36560619e-001
      3.00068974e-001 3.00068974e-001 2.94045687e-001 8.12601671e-002
      8.88436213e-002 1.46369308e-001 2.01524794e-001 1.53358936e-001
      7.65855610e-002 1.07725352e-001 8.51382166e-002 1.08135469e-001
      9.58107039e-002 1.49672985e-001 1.87818021e-001 2.17208505e-001
      1.72996610e-001 1.30065605e-001 1.81325331e-001 1.68356434e-001
      1.66371554e-001 2.28353813e-001 9.59319472e-002 2.22806007e-001
      1.74821958e-001 1.68531120e-001 2.15923637e-001 1.95976913e-001
      1.33088157e-001 1.54457569e-001 1.24920517e-001 1.25129253e-001
      2.64897078e-001 2.64897078e-001 2.64897078e-001 1.64481580e-001
      1.05038621e-001 6.43827543e-002 1.30033448e-001 1.42259195e-001</_>
    <_>
      7.22815469e-002 2.01232076e-001 3.12578887e-001 3.12578887e-001
      7.93524086e-002 2.29535066e-002 2.28935983e-002 1.53345997e-002
      3.79005335e-002 1.20518148e-001 1.01747915e-001 3.12578887e-001
      2.08536118e-001 1.50117069e-001 1.36341497e-001 1.56225920e-001
      9.94534865e-002 1.18991151e-001 3.39668281e-002 1.05196916e-001
      3.12578887e-001 3.12578887e-001 1.51720166e-001 1.13179095e-001
      5.50445803e-002 3.93097103e-002 2.05797199e-002 4.16289903e-002
      7.90024847e-002 3.12578887e-001 3.11059326e-001 1.65210024e-001
      8.47755596e-002 5.37715666e-002 3.69397737e-002 3.79879698e-002
      7.23254010e-002 2.98390891e-002 7.21791759e-002 6.26877248e-002
      1.23358250e-001 2.15409830e-001 2.54183620e-001 2.54183620e-001
      2.19793901e-001 5.19538186e-002 2.48762127e-003 6.03523897e-003
      1.54027278e-002 4.33769152e-002 1.86106697e-001 2.54183620e-001
      2.54183620e-001 2.29015365e-001 8.50720629e-002 3.76604646e-002
      2.04257384e-001 1.41886994e-001 1.84659079e-001 1.42924517e-001
      1.69932872e-001 2.04023123e-001 1.54207259e-001 1.37191787e-001
      2.75702309e-002 1.10426843e-001 7.54545853e-002 1.30019248e-001
      2.54183620e-001 2.54183620e-001 2.54183620e-001 2.33172968e-001
      3.79963405e-002 2.03838572e-002 2.20961981e-002 1.98356807e-002
      4.41514961e-002 2.09472492e-001 3.30768615e-001 3.30768615e-001
      1.20088808e-001 4.20883484e-002 3.46769765e-002 2.53260508e-002
      2.92428322e-002 3.29928994e-002 4.79481146e-002 7.15557039e-002
      9.28923041e-002 4.47549634e-002 7.99447298e-002 4.06162068e-002
      8.69948715e-002 3.89672071e-002 8.13487694e-002 3.30768615e-001
      3.30768615e-001 3.30768615e-001 2.41058156e-001 4.61820513e-002
      1.53134298e-002 1.02896802e-002 5.85437194e-002 7.99443051e-002
      1.82396665e-001 3.30768615e-001 3.30768615e-001 1.29711464e-001
      5.56927770e-002 7.83810616e-002 2.90560424e-001 2.17127055e-001
      1.38885900e-001 2.29841292e-001 2.90560424e-001 2.14597806e-001
      6.22460842e-002 3.61168534e-002 9.24651548e-002 2.90560424e-001
      2.09757686e-001 1.11284226e-001 7.37822428e-002 1.22609019e-001
      1.35008559e-001 6.17189184e-002 2.59435643e-002 2.92300787e-002
      2.09940914e-002 1.73277594e-002 3.47611755e-002 1.68967918e-001
      2.90560424e-001 2.90560424e-001 1.23355635e-001 2.05159541e-002
      4.67487201e-002 8.20061341e-002 7.37156644e-002 4.80456166e-002
      1.80435598e-001 2.90560424e-001 2.90560424e-001 1.48533151e-001
      4.59095687e-002 3.96302976e-002 1.79849863e-001 2.22626865e-001
      1.72118887e-001 8.34628642e-002 7.91462883e-002 7.02579692e-002
      4.17215154e-002 1.19654298e-001 8.15100968e-002 2.75438428e-001
      2.75438428e-001 2.02298284e-001 1.61132380e-001 2.07699299e-001
      1.56518936e-001 9.24870670e-002 2.38895081e-002 7.60758221e-002
      2.75438428e-001 2.75438428e-001 1.58360913e-001 1.02077700e-001
      1.98781237e-001 1.54542446e-001 5.77714331e-002 8.15425366e-002
      1.70699954e-001 2.75438428e-001 2.75438428e-001 2.75438428e-001
      8.61015245e-002 9.75101963e-002 7.07697719e-002 2.67435219e-002
      6.51139617e-002 6.17485233e-002 9.92680937e-002 1.25660673e-001
      1.08913973e-001 2.24294439e-001 2.42358133e-001 2.42114156e-001
      1.06260695e-001 5.09967282e-002 2.48128269e-002 9.14575811e-003
      3.90004814e-002 6.96148053e-002 1.75220236e-001 2.42358133e-001
      2.42358133e-001 1.00498669e-001 9.37216133e-002 1.54467538e-001
      2.18083739e-001 2.42358133e-001 2.12076038e-001 2.17034712e-001
      2.14951724e-001 1.72473848e-001 8.60337093e-002 1.44423902e-001
      8.11083987e-002 5.45112118e-002 1.19559668e-001 1.40515253e-001
      2.23791108e-001 2.42358133e-001 2.42358133e-001 2.42358133e-001
      2.11561024e-002 2.21093185e-002 2.25173887e-002 2.28005908e-002
      5.30454740e-002 1.10400029e-001 3.51467788e-001 3.51467788e-001
      1.21825971e-001 5.45982681e-002 2.29952484e-002 6.84930533e-002
      4.80303131e-002 8.69792253e-002 2.53757954e-001 3.51467788e-001
      3.51467788e-001 2.83659518e-001 3.26183401e-002 1.76376998e-002
      3.60818915e-002 2.80056465e-002 4.22092229e-002 2.32442319e-002
      5.78737892e-002 6.39652237e-002 3.29503193e-002 6.05871566e-002
      1.08469939e-002 3.09647154e-002 2.26708408e-002 8.48039314e-002
      8.47220644e-002 3.51467788e-001 3.51467788e-001 1.63199961e-001
      5.80595955e-002 6.36777133e-002 1.79800406e-001 2.00202465e-001
      1.08419150e-001 1.45991310e-001 2.64490247e-001 2.64490247e-001
      1.08685508e-001 1.50585636e-001 1.93503752e-001 2.64490247e-001
      2.64490247e-001 1.59373522e-001 1.57219961e-001 1.38049930e-001
      1.04227215e-001 5.37221543e-002 4.19805087e-002 2.01620925e-002
      4.01642062e-002 2.45262720e-002 6.41681179e-002 1.56664714e-001
      2.64490247e-001 2.64490247e-001 9.09243599e-002 1.18404567e-001
      1.01340346e-001 1.36000142e-001 7.23768845e-002 1.13719597e-001
      2.64490247e-001 2.64490247e-001 2.41537616e-001 9.66792479e-002
      1.29072532e-001 1.62781343e-001 2.48795912e-001 2.48795912e-001
      1.13964796e-001 1.95369497e-001 1.18652284e-001 8.68108347e-002
      1.00947641e-001 1.44116670e-001 8.98125619e-002 1.86297551e-001
      2.25957066e-001 1.58019170e-001 1.81916639e-001 1.54274970e-001
      1.36154845e-001 1.66187406e-001 1.42239392e-001 2.07832322e-001
      2.48795912e-001 1.24500170e-001 1.19143143e-001 1.68944702e-001
      2.35188559e-001 9.21868980e-002 1.01949595e-001 1.46102056e-001
      2.48795912e-001 2.48795912e-001 2.48795912e-001 1.39746487e-001
      8.46346393e-002 9.72847492e-002 3.67784575e-002 5.15024364e-002</_>
    <_>
      2.24828459e-002 4.28168848e-002 1.89716190e-001 2.87972778e-001
      1.23571619e-001 1.88948121e-002 1.07538234e-002 6.70182658e-003
      1.14756413e-002 6.82053715e-002 2.51902461e-001 2.87972778e-001
      2.87972778e-001 1.60658807e-001 4.79570813e-002 3.50601599e-002
      2.13224795e-002 4.35498804e-002 1.92221757e-002 6.72901720e-002
      2.87972778e-001 2.87972778e-001 2.84392685e-001 1.01328837e-002
      1.89625863e-002 5.21170208e-003 4.45941603e-003 1.58512160e-001
      1.76399291e-001 2.87972778e-001 2.87972778e-001 2.87972778e-001
      3.07603944e-002 6.01441041e-002 7.97168463e-002 1.61864758e-001
      2.04921648e-001 2.70784825e-001 2.70784825e-001 1.24926426e-001
      4.25825380e-002 4.39134315e-002 5.08917868e-002 4.32762876e-002
      1.13727137e-001 2.70784825e-001 2.70784825e-001 1.79042920e-001
      6.73689768e-002 1.00406734e-002 2.82304678e-002 7.08541423e-002
      7.77872950e-002 2.70784825e-001 2.70784825e-001 1.50400445e-001
      1.73240647e-001 1.00455254e-001 7.14072213e-002 3.13941874e-002
      6.10985570e-002 1.38363421e-001 2.70784825e-001 2.70784825e-001
      1.56870931e-001 1.06517985e-001 5.92208654e-002 1.55406455e-002
      1.77760161e-002 7.10133910e-002 2.70784825e-001 2.70784825e-001
      2.45045662e-001 1.71384543e-001 1.64458171e-001 1.23160265e-001
      2.64155399e-002 2.39035003e-002 5.10127395e-002 8.10404718e-002
      2.45045662e-001 2.45045662e-001 7.33525231e-002 1.36143625e-001
      1.68266818e-001 9.21519473e-002 4.49377969e-002 6.11712784e-002
      2.30886623e-001 2.45045662e-001 2.12269351e-001 1.36595517e-001
      2.01535955e-001 1.67672500e-001 5.83833866e-002 2.47067567e-002
      4.32751887e-002 2.45045662e-001 2.45045662e-001 1.98661387e-001
      1.17444970e-001 2.45045662e-001 2.45045662e-001 1.52190059e-001
      5.80401756e-002 1.06237642e-001 1.60906643e-001 2.45045662e-001
      2.65348256e-002 1.30291730e-001 2.94474334e-001 2.94474334e-001
      1.00198485e-001 3.26706725e-003 4.49284632e-003 1.43865694e-003
      4.91438899e-003 1.36934519e-001 1.77626610e-001 2.94474334e-001
      2.94474334e-001 1.18166342e-001 3.53631796e-003 1.16289165e-002
      8.44079927e-002 1.76109448e-001 7.63783231e-002 1.94217473e-001
      2.94474334e-001 2.94474334e-001 8.81529078e-002 7.94452336e-003
      2.86855293e-003 1.10327434e-002 3.29005010e-002 1.82297364e-001
      1.52316988e-001 2.94474334e-001 2.86716461e-001 6.56148121e-002
      5.55747980e-003 7.96315167e-003 9.74359214e-002 2.33643264e-001
      2.66636968e-001 9.62770432e-002 1.37689427e-001 7.22290799e-002
      3.99871655e-002 5.01549477e-003 1.90023500e-002 2.25464672e-001
      3.04107189e-001 3.04107189e-001 6.48368150e-002 1.81671605e-002
      1.19144600e-002 1.12963580e-002 4.39648936e-003 5.19164801e-002
      3.04107189e-001 3.04107189e-001 2.01809347e-001 4.65366468e-002
      5.95551468e-002 6.64907768e-002 2.58849449e-002 6.69508101e-003
      2.43998375e-002 2.00778246e-001 3.04107189e-001 3.04107189e-001
      1.07177258e-001 3.93189825e-002 3.90556268e-002 5.87666109e-002
      4.23280001e-002 1.15769982e-001 2.42954239e-001 3.04107189e-001
      2.50334978e-001 1.06307149e-001 1.08182929e-001 5.14755733e-002
      2.30161157e-002 9.31161735e-003 3.45064662e-002 2.45463446e-001
      2.50334978e-001 1.67742714e-001 1.43857315e-001 2.50334978e-001
      1.93194941e-001 1.12450935e-001 2.05769148e-002 5.81572540e-002
      1.41361341e-001 2.50334978e-001 2.50334978e-001 2.50334978e-001
      2.06085458e-001 7.43310601e-002 3.36156934e-002 3.00656669e-002
      6.96730837e-002 1.14341430e-001 2.50334978e-001 1.52561173e-001
      2.50334978e-001 2.50334978e-001 2.50334978e-001 2.20555961e-001
      7.96625018e-003 1.43104522e-002 6.44281507e-002 1.27357394e-001
      9.03622881e-002 1.40929163e-001 2.12177232e-001 2.42811620e-001
      1.06745824e-001 5.79917133e-002 4.25082296e-002 7.96193853e-002
      9.26272944e-002 2.25367367e-001 9.79325846e-002 5.99758215e-002
      7.93423206e-002 5.36486916e-002 1.43051250e-002 2.28547826e-002
      2.89613724e-001 3.16221356e-001 1.42698005e-001 8.96321684e-002
      5.22440933e-002 5.36936559e-002 9.74533483e-002 9.24081877e-002
      1.66280627e-001 2.92415440e-001 3.16221356e-001 3.16221356e-001
      6.23879209e-002 1.05177080e-002 1.37528889e-002 5.74374683e-002
      1.62688885e-002 5.15906066e-002 3.16221356e-001 3.16221356e-001
      2.45806366e-001 2.94462033e-002 1.64419841e-002 2.14323606e-002
      1.82428509e-002 6.05376903e-003 1.95480604e-002 2.80038178e-001
      2.93652743e-001 2.34991118e-001 8.77100900e-002 5.10378145e-002
      6.25714958e-002 8.37511644e-002 4.58229370e-002 7.04705045e-002
      1.23976603e-001 2.93652743e-001 2.93652743e-001 4.42964509e-002
      4.11694776e-003 1.12501094e-002 2.89096031e-002 1.12324990e-002
      6.14007562e-002 2.93652743e-001 2.93652743e-001 2.93652743e-001
      2.59769917e-001 8.10244381e-002 3.85729261e-002 8.87848884e-002
      3.00022773e-002 1.04304403e-001 2.26570368e-001 2.93652743e-001
      1.25291482e-001 2.02787966e-001 2.22765401e-001 1.81064129e-001
      7.35103786e-002 5.94788417e-002 6.72602504e-002 5.85737675e-002
      1.17377773e-001 7.72127882e-002 2.82602996e-001 2.82602996e-001
      2.82602996e-001 1.37483776e-001 1.46949207e-002 1.96300466e-002
      2.63530370e-002 4.42739613e-002 2.04998046e-001 2.82602996e-001
      2.82602996e-001 1.91486582e-001 9.72938985e-002 3.63940857e-002
      4.06567417e-002 7.34145492e-002 1.53521657e-001 1.15148626e-001
      2.82602996e-001 2.82602996e-001 2.82602996e-001 9.75835472e-002
      1.17734242e-002 1.00090960e-002 1.81186385e-002 1.29595697e-001</_>
    <_>
      2.04305425e-002 8.92776400e-002 1.78097695e-001 2.66733319e-001
      2.66733319e-001 9.27243456e-002 1.92702375e-002 4.37077228e-003
      1.29803475e-002 1.86290741e-001 2.66733319e-001 2.54193097e-001
      1.84319183e-001 1.75524354e-001 1.09627262e-001 6.60015419e-002
      2.51615234e-002 1.03931494e-001 5.65519407e-002 6.03214428e-002
      1.91547737e-001 2.66733319e-001 2.66733319e-001 1.23420388e-001
      3.12372446e-002 2.25807223e-002 3.73069048e-002 2.66733319e-001
      2.25413278e-001 1.18876405e-001 2.55183071e-001 1.72141582e-001
      1.29333481e-001 8.49530175e-002 1.13397717e-001 2.66733319e-001
      2.57524312e-001 2.62936622e-001 1.99900433e-001 4.80327532e-002
      5.84366247e-002 2.01636162e-002 4.70816940e-002 6.57682717e-002
      1.64818048e-001 2.63173074e-001 2.56739140e-001 2.66228974e-001
      9.39629972e-002 7.36388415e-002 1.35602653e-002 6.33561090e-002
      1.17757320e-001 1.47020236e-001 2.66228974e-001 1.61966011e-001
      8.07062089e-002 3.72671895e-002 1.98578667e-002 1.94982253e-002
      5.48490994e-002 1.93274423e-001 2.66228974e-001 2.66228974e-001
      1.94082201e-001 1.90851495e-001 6.15869686e-002 3.92926373e-002
      2.82583479e-002 1.10521145e-001 2.66228974e-001 2.66228974e-001
      1.96020678e-001 1.33641168e-001 1.69988558e-001 1.56124055e-001
      1.85231417e-001 3.29692028e-002 1.02088630e-001 1.35931820e-001
      1.39795259e-001 2.29198560e-001 7.11121485e-002 1.08426258e-001
      2.02546164e-001 2.35212758e-001 7.30555207e-002 9.48728248e-002
      1.59005538e-001 2.18353793e-001 2.35212758e-001 1.78185970e-001
      2.26294026e-001 1.48278281e-001 1.61284819e-001 7.05102459e-002
      1.16236344e-001 2.35212758e-001 2.35212758e-001 1.36552140e-001
      1.18544459e-001 2.35212758e-001 2.35212758e-001 2.35212758e-001
      7.07893446e-002 6.13701046e-002 1.02648273e-001 1.33624658e-001
      5.38708828e-002 1.06580690e-001 2.89774239e-001 2.89774239e-001
      1.76674187e-001 5.09391986e-002 2.24233884e-002 3.49006392e-002
      5.89482114e-002 2.89774239e-001 1.50289521e-001 1.13642409e-001
      2.04309329e-001 8.69418755e-002 5.66965826e-002 4.57481891e-002
      1.64061606e-001 2.89774239e-001 8.75478238e-002 1.62603050e-001
      2.89774239e-001 2.89774239e-001 1.75536275e-001 7.68816546e-002
      1.75046623e-002 3.13149542e-002 1.35687694e-001 2.84614563e-001
      1.37057081e-001 9.69142616e-002 1.21624149e-001 6.24594726e-002
      3.65887769e-002 2.65435074e-002 1.36319011e-001 2.89774239e-001
      2.97335684e-001 6.11442551e-002 1.11453664e-002 1.44687686e-002
      5.86849777e-003 2.73796115e-002 5.48089668e-002 2.06458062e-001
      2.97335684e-001 2.97335684e-001 1.21287674e-001 1.01301402e-001
      2.48506255e-002 1.67531446e-002 5.93178906e-002 9.87915844e-002
      2.58029252e-001 2.97335684e-001 2.56757170e-001 5.41943982e-002
      2.50268914e-002 2.63806991e-002 1.89651698e-002 6.41971231e-002
      7.25868791e-002 1.37457788e-001 2.97335684e-001 2.97335684e-001
      1.19526021e-001 2.39776418e-001 8.20459276e-002 2.96984203e-002
      1.14903197e-001 1.19245820e-001 1.27721205e-001 2.97335684e-001
      2.73217052e-001 1.62248418e-001 2.30286881e-001 1.34145379e-001
      9.77645069e-002 7.66068101e-002 5.82907312e-002 1.60696343e-001
      2.73217052e-001 9.04067606e-002 6.92845359e-002 1.59713507e-001
      2.73217052e-001 2.73217052e-001 5.61339073e-002 2.85533406e-002
      4.59402204e-002 7.32755437e-002 1.98141500e-001 1.65457562e-001
      2.73217052e-001 2.29531944e-001 1.25936493e-001 8.08036253e-002
      5.90972081e-002 5.13671003e-002 2.13926449e-001 1.07497953e-001
      1.49298027e-001 1.67467400e-001 2.73217052e-001 2.73217052e-001
      1.21021807e-001 7.43695647e-002 4.48634215e-002 7.15712532e-002
      1.50607556e-001 7.45964572e-002 1.10069327e-001 1.30528510e-001
      7.28026778e-002 8.25645700e-002 3.52987796e-002 9.56728980e-002
      2.26857662e-001 2.64074653e-001 5.13669401e-002 2.88327765e-002
      2.18997151e-002 1.49918804e-002 2.90728863e-002 1.72172692e-002
      2.27132395e-001 3.28684717e-001 3.28684717e-001 7.32080415e-002
      4.90107611e-002 2.98895333e-002 4.27838303e-002 7.48941824e-002
      9.32815075e-002 2.48961970e-001 3.28684717e-001 3.28684717e-001
      4.39088754e-002 1.57073420e-002 2.90929363e-003 2.12622005e-002
      2.75153760e-002 1.79511439e-002 3.28684717e-001 3.28684717e-001
      2.31556967e-001 4.10576798e-002 2.63628736e-002 2.90896259e-002
      1.66358631e-002 2.42653545e-002 2.34984774e-002 2.20943406e-001
      2.92067498e-001 1.26564473e-001 8.16056728e-002 1.64587200e-001
      8.33861679e-002 4.63607572e-002 6.22234866e-002 7.50603974e-002
      1.52191922e-001 2.60975093e-001 2.92067498e-001 1.03449538e-001
      5.29896878e-002 2.22818796e-002 3.02821863e-002 2.19666790e-002
      2.51299795e-002 2.92067498e-001 2.92067498e-001 2.81047106e-001
      2.92067498e-001 2.40026191e-001 8.08772221e-002 6.03277348e-002
      2.84694023e-002 5.89550100e-002 2.26786315e-001 2.92067498e-001
      8.94775391e-002 1.99352637e-001 2.83353925e-001 1.81066349e-001
      9.73675847e-002 6.32622167e-002 5.87238893e-002 6.28963262e-002
      1.13126367e-001 1.12045214e-001 2.83353925e-001 2.83353925e-001
      2.45592356e-001 1.93724111e-001 1.26958489e-001 7.22940266e-002
      5.00156693e-002 6.14311248e-002 1.29952475e-001 2.83353925e-001
      2.83353925e-001 2.56492943e-001 5.79591133e-002 1.80275030e-002
      2.95191035e-002 5.30818701e-002 7.01028034e-002 6.45161271e-002
      2.83353925e-001 2.83353925e-001 2.80910313e-001 6.12836033e-002
      2.61595789e-002 8.92874412e-003 7.00207660e-003 1.73313450e-002</_>
    <_>
      8.22927281e-002 3.07842165e-001 3.07842165e-001 2.04952538e-001
      4.15398292e-002 1.48588875e-002 1.89798269e-002 2.26321537e-002
      3.27202789e-002 1.37493640e-001 2.64234066e-001 3.07842165e-001
      1.46049216e-001 8.08176845e-002 5.17862588e-002 9.60141197e-002
      1.02837980e-001 1.65253177e-001 6.09328039e-002 2.87116677e-001
      3.07842165e-001 1.89622924e-001 6.46602213e-002 1.06891081e-001
      1.33354142e-001 8.02573562e-002 4.15928997e-002 6.87557459e-002
      3.03078026e-001 3.07842165e-001 1.78649902e-001 4.98112850e-002
      3.43242139e-002 5.35901040e-002 4.47356552e-002 5.79084307e-002
      8.39183405e-002 7.18320161e-002 1.74556822e-001 8.60157385e-002
      1.32302836e-001 1.33715540e-001 2.55898118e-001 2.55898118e-001
      2.50577569e-001 4.17454056e-002 2.34722476e-002 1.73355732e-002
      1.17335469e-002 1.16578549e-001 1.57609805e-001 2.55898118e-001
      2.55898118e-001 2.55898118e-001 7.74567872e-002 1.33265391e-001
      2.55898118e-001 1.67939305e-001 1.11972764e-001 7.29346424e-002
      9.10878852e-002 1.36103198e-001 1.81149110e-001 8.70290920e-002
      4.33148295e-002 3.81410159e-002 7.03352541e-002 1.99920252e-001
      1.82768762e-001 2.55898118e-001 2.55898118e-001 2.55898118e-001
      2.55965237e-002 4.07119505e-002 3.95122170e-002 1.97984744e-002
      1.04875617e-001 1.40548468e-001 2.95582175e-001 3.10943991e-001
      2.22318724e-001 3.49259265e-002 4.83322255e-002 5.83599918e-002
      5.44336028e-002 6.31206706e-002 7.07321241e-002 1.18406504e-001
      5.46788275e-002 3.17224860e-002 6.45441636e-002 3.14622745e-002
      2.38583591e-002 2.71791462e-002 2.22738266e-001 3.10943991e-001
      3.10943991e-001 3.10943991e-001 2.96599865e-001 4.92836833e-002
      5.95271140e-002 1.09384425e-001 7.48516247e-002 7.44609684e-002
      1.71164706e-001 3.10943991e-001 3.10943991e-001 7.48696998e-002
      5.13665192e-002 1.14798404e-001 1.83092162e-001 8.76505375e-002
      6.32044002e-002 2.04247341e-001 3.02141130e-001 3.02141130e-001
      8.04359838e-002 5.39234467e-002 1.73090056e-001 3.02141130e-001
      1.16026506e-001 5.18922694e-002 7.58558363e-002 2.14484364e-001
      1.78705871e-001 6.31786138e-002 2.18337495e-002 9.30859242e-003
      1.33613953e-002 8.80166981e-003 2.78138425e-002 1.66854993e-001
      3.02141130e-001 3.02141130e-001 8.61717016e-002 2.49081794e-002
      7.68127665e-002 8.30008760e-002 2.82097049e-002 4.98828813e-002
      2.04228029e-001 3.02141130e-001 3.02141130e-001 1.29545301e-001
      3.27047855e-002 9.05485898e-002 2.00212985e-001 1.75520018e-001
      1.02113388e-001 5.08108437e-002 5.50551377e-002 5.33393808e-002
      5.59817217e-002 9.56437588e-002 9.26488265e-002 2.53284872e-001
      2.40048274e-001 1.99423388e-001 1.11041702e-001 1.89872146e-001
      1.23255789e-001 2.13681042e-001 1.38713658e-001 1.66170970e-001
      2.58866996e-001 1.73758924e-001 1.05609082e-001 1.04066133e-001
      1.75403476e-001 1.86182931e-001 9.99784470e-002 2.58866996e-001
      2.58866996e-001 2.58866996e-001 2.58866996e-001 2.58866996e-001
      7.33333454e-002 4.09352556e-002 3.24208960e-002 1.48623869e-001
      8.15248787e-002 4.53596562e-002 1.02737725e-001 9.72617865e-002
      1.17967337e-001 1.46432251e-001 2.47730494e-001 2.02495366e-001
      2.02086106e-001 7.15985075e-002 1.26841873e-001 1.07323542e-001
      6.88202605e-002 6.03532419e-002 1.47750869e-001 2.47730494e-001
      2.47730494e-001 1.07814535e-001 1.29914969e-001 1.49972573e-001
      2.47730494e-001 2.47730494e-001 2.00778455e-001 9.90339592e-002
      1.12281702e-001 1.22608937e-001 1.95996627e-001 1.39968470e-001
      1.75376594e-001 1.64619803e-001 1.93099365e-001 1.52415141e-001
      1.74520507e-001 2.47730494e-001 2.47730494e-001 1.53222680e-001
      3.45632732e-002 1.92417726e-002 1.84564739e-002 1.80668067e-002
      3.24151330e-002 1.55681208e-001 3.30253541e-001 3.30253541e-001
      7.96005502e-002 2.56965701e-002 8.29090774e-002 7.49403015e-002
      2.12112162e-002 4.67535034e-002 3.30253541e-001 3.30253541e-001
      3.30253541e-001 2.26331130e-001 2.84140892e-002 1.96716562e-002
      4.03249487e-002 4.49163429e-002 3.31881903e-002 4.23178896e-002
      5.17915599e-002 5.20933941e-002 2.97099538e-002 1.59090497e-002
      2.53127702e-002 5.07437438e-002 5.68582453e-002 6.80328682e-002
      3.19035619e-001 3.30253541e-001 3.30253541e-001 7.23759606e-002
      1.43430680e-001 1.13014221e-001 1.34606943e-001 5.54072559e-002
      4.46888506e-002 2.02505663e-001 2.49194250e-001 2.49194250e-001
      9.03907046e-002 2.49194250e-001 2.49194250e-001 2.49194250e-001
      2.04472423e-001 1.25663757e-001 1.01017021e-001 1.35803118e-001
      6.23005368e-002 8.34013522e-002 4.74567972e-002 4.72621731e-002
      2.64725387e-002 2.08711140e-002 6.29711077e-002 2.49194250e-001
      2.49194250e-001 2.17698023e-001 2.68227607e-002 2.04736829e-001
      2.32423231e-001 1.22170866e-001 9.83830541e-002 1.77966788e-001
      2.39715844e-001 2.49194250e-001 1.60928831e-001 6.82442039e-002
      1.71903342e-001 2.34429315e-001 2.34429315e-001 1.79132521e-001
      1.15851432e-001 7.19849318e-002 8.78714547e-002 7.87254721e-002
      1.19087286e-001 1.29549712e-001 1.59862638e-001 1.51989758e-001
      1.59897849e-001 1.26184434e-001 9.88036916e-002 1.96403861e-001
      1.79978520e-001 1.26220822e-001 2.11350888e-001 2.34429315e-001
      2.34429315e-001 1.67709410e-001 1.56274274e-001 1.04609400e-001
      1.64518207e-001 6.70531243e-002 1.25443578e-001 2.34429315e-001
      2.34429315e-001 2.34429315e-001 2.20194042e-001 1.96697086e-001
      6.20436110e-002 1.25003979e-001 1.18204810e-001 1.57928437e-001</_>
    <_>
      2.67595112e-001 1.77679360e-001 1.58176199e-001 1.66811138e-001
      6.51945546e-002 2.56335437e-002 3.77361253e-002 6.85226992e-002
      1.40845120e-001 2.67595112e-001 1.91842794e-001 1.63651213e-001
      2.15279773e-001 2.13000491e-001 9.89163145e-002 7.27443174e-002
      1.47412181e-001 1.56807974e-001 1.32529154e-001 1.28954396e-001
      1.68136984e-001 2.67595112e-001 2.67595112e-001 9.82224345e-002
      9.64666978e-002 6.81116506e-002 1.19300067e-001 1.19413294e-001
      1.03517562e-001 1.53088927e-001 2.67595112e-001 2.67595112e-001
      2.67595112e-001 1.02800883e-001 4.92761582e-002 4.90362607e-002
      2.86218226e-001 1.95739001e-001 1.26940265e-001 1.00311242e-001
      1.45148635e-001 1.01557933e-001 1.77702885e-002 4.16780375e-002
      1.20927751e-001 2.86218226e-001 2.68229485e-001 1.03009917e-001
      4.33709137e-002 6.37046248e-002 7.56436735e-002 2.88659092e-002
      1.16414808e-001 2.86218226e-001 1.67594194e-001 1.05021641e-001
      9.62206572e-002 1.82131529e-001 2.86218226e-001 2.79543877e-001
      2.50518583e-002 4.34163678e-003 4.46323864e-002 2.72078335e-001
      2.43702322e-001 9.96694267e-002 1.43476307e-001 2.86218226e-001
      1.68844983e-001 4.61933129e-002 1.43464431e-002 9.62609574e-002
      2.51546085e-001 1.68794632e-001 8.92971531e-002 7.84213841e-002
      6.84327930e-002 7.44795278e-002 7.57928789e-002 1.58881307e-001
      2.98281372e-001 1.00649558e-001 6.55631945e-002 1.01840071e-001
      1.21097982e-001 2.01282769e-001 1.97366863e-001 1.98820010e-001
      1.22746237e-001 1.61091611e-001 1.41453296e-001 1.57050595e-001
      6.39324784e-002 2.82771438e-001 2.98281372e-001 1.87223524e-001
      7.43406862e-002 2.54781619e-002 6.87666759e-002 5.33305891e-002
      4.51201312e-002 1.14813656e-001 2.98281372e-001 2.98281372e-001
      2.98281372e-001 9.86232162e-002 3.60040553e-002 4.25257310e-002
      7.02652410e-002 1.40972480e-001 1.35093793e-001 2.41472483e-001
      3.00317377e-001 1.06875852e-001 7.54524916e-002 3.77332754e-002
      8.11145008e-002 2.47554444e-002 7.74938390e-002 9.67159346e-002
      3.01965296e-001 3.33464205e-001 2.32700363e-001 5.08596301e-002
      1.75671540e-002 2.75044255e-002 1.07130140e-001 1.40051454e-001
      1.07254431e-001 1.80688724e-001 3.33464205e-001 1.58448890e-001
      7.42072091e-002 5.01026288e-002 1.84652373e-001 4.14415523e-002
      8.54820088e-002 9.53088477e-002 2.30984241e-001 3.33464205e-001
      2.38112226e-001 3.67218181e-002 2.80283261e-002 9.31735486e-002
      1.69727243e-002 1.93754900e-002 2.30717845e-002 1.69821948e-001
      4.10074562e-001 2.39895895e-001 1.52927358e-002 4.12089564e-003
      1.43713620e-003 2.49580648e-002 3.78641337e-002 2.26068664e-002
      1.82085514e-001 4.10074562e-001 1.80412024e-001 2.58180946e-002
      5.98784490e-003 4.79004066e-003 2.73513468e-003 1.15464460e-002
      1.51847731e-002 1.34966925e-001 4.10074562e-001 2.32422322e-001
      1.40915532e-002 1.52667752e-002 4.93832259e-003 8.75740405e-003
      1.53916776e-002 5.76830842e-003 2.26558968e-001 4.10074562e-001
      2.00227007e-001 3.36360633e-002 1.85197983e-002 1.09216413e-002
      9.05070920e-003 1.20807122e-002 4.80109174e-003 1.77166417e-001
      3.67461562e-001 1.15151621e-001 1.63513478e-002 1.47997378e-003
      3.95617867e-003 8.22483096e-003 4.38219495e-003 1.86206419e-002
      2.89810747e-001 3.67461562e-001 2.71013498e-001 3.87475491e-002
      4.98527708e-003 4.84535145e-003 2.67774705e-003 5.98876830e-003
      7.15778256e-003 2.11525515e-001 3.67461562e-001 1.19091645e-001
      2.66420171e-002 7.88658019e-003 5.18132607e-003 3.95802548e-003
      5.33846579e-003 1.79421101e-002 3.48327756e-001 3.67461562e-001
      2.49314412e-001 8.09458718e-002 3.65716778e-002 6.79256162e-003
      1.01505317e-001 1.08490758e-001 8.26257318e-002 1.31750062e-001
      2.75196761e-001 2.34232739e-001 1.08581938e-001 1.01825304e-001
      2.21389845e-001 4.68035936e-002 9.80021060e-002 1.19353078e-001
      2.40649357e-001 2.75196761e-001 2.75196761e-001 8.98037255e-002
      6.24590255e-002 1.16092607e-001 6.69274330e-002 7.66584724e-002
      6.85657486e-002 8.40193704e-002 2.75196761e-001 2.71691173e-001
      1.25300333e-001 8.59979689e-002 1.08438723e-001 5.00305295e-002
      1.26339793e-001 1.45271450e-001 2.63623595e-001 2.75196761e-001
      2.75196761e-001 1.00484051e-001 7.56389573e-002 7.40795135e-002
      3.60674188e-002 4.70386073e-002 5.36865108e-002 2.34487876e-001
      2.79900372e-001 2.79900372e-001 4.50607203e-002 1.65090654e-002
      3.94423194e-002 8.61775726e-002 5.98188974e-002 1.65975858e-002
      2.13563710e-001 2.79900372e-001 1.97014064e-001 8.85117278e-002
      3.50685492e-002 1.28261179e-001 1.39557436e-001 1.29248589e-001
      1.23642176e-001 2.79900372e-001 2.79900372e-001 2.44279385e-001
      8.76425654e-002 5.66570647e-002 8.27319846e-002 2.74536550e-001
      1.25449419e-001 5.67902401e-002 1.52109563e-001 1.64875805e-001
      1.70910582e-001 2.54192442e-001 1.05836943e-001 2.01162964e-001
      3.47690992e-002 6.06616847e-002 5.49040549e-002 2.48601034e-001
      2.95237273e-001 1.92228913e-001 1.28954098e-001 5.38434722e-002
      8.11794400e-002 1.92580763e-002 8.48520473e-002 1.29979476e-001
      2.95237273e-001 2.95237273e-001 2.95237273e-001 1.56939656e-001
      8.75587761e-002 4.86191474e-002 7.70449787e-002 7.53768012e-002
      6.15356229e-002 9.02174860e-002 1.14525102e-001 1.55311957e-001
      2.69325197e-001 1.16981164e-001 1.16081797e-001 5.20359240e-002
      1.35689631e-001 2.83106476e-001 2.95237273e-001 2.29213133e-001
      1.36729211e-001 1.45097673e-001 1.01576038e-001 7.05166757e-002</_>
    <_>
      1.54807009e-002 3.75494361e-002 1.09360367e-001 8.43800455e-002
      2.33472288e-002 5.84759703e-003 6.19013980e-003 5.79363527e-003
      9.41393990e-003 2.54118349e-002 1.54414177e-001 4.00245190e-001
      3.83168608e-001 3.94248366e-002 5.11392765e-003 2.78731296e-003
      1.23486842e-003 3.93389771e-003 3.78355160e-002 1.08593456e-001
      4.00245190e-001 2.12881237e-001 2.65697874e-002 9.37223341e-003
      9.30051785e-003 1.09465532e-002 1.65839195e-002 2.19860096e-002
      3.11363310e-001 4.00245190e-001 4.00245190e-001 5.64698428e-002
      1.74072869e-002 8.87299422e-003 3.62042035e-003 1.70655851e-003
      2.67748013e-002 2.01567516e-001 3.06743234e-001 3.06743234e-001
      2.98727546e-002 1.29130797e-003 8.49009200e-004 9.05450992e-003
      5.44455741e-003 2.17222869e-001 2.53895611e-001 3.06743234e-001
      1.72537073e-001 4.37618867e-002 2.16428060e-002 4.25510667e-002
      1.32104397e-001 1.39101356e-001 4.55551706e-002 2.82261521e-001
      3.06743234e-001 3.06743234e-001 4.55776937e-002 1.42217893e-002
      1.30704585e-002 1.74859613e-002 1.54494839e-002 1.76273108e-001
      1.36474431e-001 3.01361710e-001 1.81334764e-001 3.95189263e-002
      3.49687599e-002 4.15951125e-002 1.57250881e-001 1.19706221e-001
      2.54078627e-001 1.11100644e-001 1.17890909e-001 3.16746049e-002
      2.59056240e-002 6.49757609e-002 1.68318436e-001 2.63157219e-001
      2.73132563e-001 2.30062842e-001 1.16991758e-001 8.10190439e-002
      3.45685259e-002 2.76682153e-002 1.48764864e-001 2.73132563e-001
      2.73132563e-001 2.73132563e-001 2.01294795e-001 7.82819167e-002
      7.50529394e-002 4.21810895e-002 2.17217878e-002 5.52630424e-002
      1.01591535e-001 1.71479702e-001 2.50833839e-001 2.10222244e-001
      1.75636128e-001 1.76070049e-001 8.37256834e-002 3.97575386e-002
      1.02372311e-001 1.67759746e-001 1.38671041e-001 2.73132563e-001
      3.96288782e-002 1.83678105e-001 2.97959775e-001 1.19040430e-001
      1.37658352e-002 6.29633991e-003 1.19981971e-002 4.72774077e-003
      1.10253552e-002 4.83028516e-002 1.73511147e-001 2.97959775e-001
      2.97959775e-001 4.56514657e-002 4.61748987e-002 4.79034446e-002
      5.03249131e-002 1.06025405e-001 6.84841499e-002 2.97959775e-001
      2.97959775e-001 1.86629757e-001 3.31825987e-002 2.40167268e-002
      7.35717043e-002 2.36822702e-002 4.43184823e-002 1.15843527e-001
      2.38061190e-001 2.97959775e-001 1.14006832e-001 6.42886758e-002
      1.27964929e-001 2.56428570e-001 2.44619370e-001 2.88605690e-001
      6.66356310e-002 1.55212715e-001 2.90293425e-001 2.41387337e-001
      4.13788483e-002 5.40454052e-002 8.97307619e-002 1.70232385e-001
      2.15520412e-001 1.38611302e-001 6.23791665e-002 1.60492390e-001
      1.00112021e-001 5.25747612e-002 5.71108125e-002 6.95546120e-002
      1.97602600e-001 1.65983200e-001 1.33409724e-001 8.74371082e-002
      9.60612297e-002 5.24278618e-002 5.07066287e-002 1.08457878e-001
      2.70682663e-001 2.90293425e-001 2.90293425e-001 2.23641768e-001
      1.12804838e-001 1.21631362e-001 9.01731774e-002 9.54888090e-002
      6.24635071e-002 2.01944530e-001 2.90293425e-001 2.90293425e-001
      1.44322768e-001 1.34605169e-001 1.43474221e-001 1.03393257e-001
      5.75506389e-002 5.39269112e-002 2.93333791e-002 8.39813575e-002
      1.16208375e-001 1.49156004e-001 2.68914163e-001 2.98629254e-001
      2.85415232e-001 9.24009606e-002 3.39743048e-002 5.10548092e-002
      6.25367835e-002 1.30554125e-001 1.86262637e-001 2.78716862e-001
      2.98629254e-001 1.78832278e-001 8.76111835e-002 4.12074253e-002
      8.56531933e-002 1.41939744e-001 1.74605280e-001 1.23591028e-001
      2.98629254e-001 2.98629254e-001 2.98629254e-001 1.12785019e-001
      1.55135421e-002 3.09304390e-002 1.03810085e-002 5.45702614e-002
      7.28041604e-002 2.36136392e-001 2.36136392e-001 2.36136392e-001
      1.23180628e-001 7.17083141e-002 7.75082782e-002 4.69993651e-002
      4.24829684e-002 1.19954273e-001 2.36136392e-001 2.36136392e-001
      1.96354017e-001 9.78042632e-002 1.04306228e-001 1.71857491e-001
      2.09822148e-001 2.22995013e-001 3.54027115e-002 7.94633701e-002
      8.67977515e-002 1.27905756e-001 1.48946732e-001 1.51431531e-001
      2.36136392e-001 2.36136392e-001 1.80893347e-001 1.02588676e-001
      2.36136392e-001 1.98828951e-001 1.75857633e-001 9.39871669e-002
      3.57732289e-002 9.78611633e-002 2.36136392e-001 2.31319532e-001
      1.38919771e-001 1.73614994e-001 1.04216896e-001 1.06230520e-001
      7.51735047e-002 8.95236358e-002 1.36985123e-001 2.46916220e-001
      2.46916220e-001 2.39601552e-001 2.24418014e-001 2.46916220e-001
      1.39926448e-001 8.99756700e-002 6.36932328e-002 1.01807743e-001
      2.18956932e-001 2.46916220e-001 1.54272944e-001 2.46916220e-001
      1.93563282e-001 1.47645772e-001 7.66736940e-002 4.25949134e-002
      2.81657260e-002 7.32027739e-002 1.69817731e-001 1.97848067e-001
      2.46916220e-001 2.46916220e-001 2.37422720e-001 1.14179179e-001
      1.01538554e-001 1.21501070e-002 2.82073170e-002 1.52897060e-001
      1.39043570e-001 3.14189345e-001 3.37227553e-001 1.61730066e-001
      6.65445551e-002 2.49205790e-002 5.29314913e-002 6.73404187e-002
      1.34703755e-001 7.14194104e-002 3.37227553e-001 3.37227553e-001
      1.65970683e-001 2.85690781e-002 4.78437683e-003 1.31281437e-002
      6.33958401e-003 2.83110831e-002 1.16120428e-001 2.62575835e-001
      3.37227553e-001 2.23247722e-001 9.43287238e-002 4.90017347e-002
      1.42012769e-002 2.63543744e-002 1.04957417e-001 1.02787472e-001
      1.82493106e-001 3.37227553e-001 8.40831548e-002 5.15289009e-002
      4.08746535e-003 3.71518284e-002 4.53385413e-002 7.90905580e-002</_>
    <_>
      1.80751104e-002 7.81702250e-002 2.86629319e-001 3.02905589e-001
      3.02905589e-001 1.56837478e-002 7.20828678e-003 9.57128312e-003
      1.33743556e-002 1.88150421e-001 3.02905589e-001 2.44666114e-001
      2.63040274e-001 1.78262189e-001 5.62063828e-002 1.98889766e-002
      6.83849677e-002 1.08006231e-001 1.00399842e-002 1.67153552e-002
      7.02405721e-002 3.02905589e-001 3.02905589e-001 3.11887022e-002
      1.13289105e-002 6.72111614e-003 1.06835272e-002 1.20539039e-001
      1.05837189e-001 8.73627514e-002 3.02905589e-001 3.02905589e-001
      4.75603379e-002 2.87435651e-002 4.79960628e-002 6.39760271e-002
      3.36027861e-001 2.27803931e-001 3.77331115e-002 2.92781405e-002
      5.88700250e-002 5.81394546e-002 1.71946734e-002 1.13021120e-001
      3.36027861e-001 3.36027861e-001 7.57281184e-002 9.03601013e-003
      4.62481659e-003 2.03790478e-002 1.29981190e-002 9.93312057e-003
      2.09142759e-001 3.36027861e-001 2.83471793e-001 8.79211575e-002
      3.86100449e-002 9.85896364e-002 8.06194767e-002 4.10748944e-002
      2.22782120e-002 8.05041417e-002 2.28115007e-001 3.36027861e-001
      9.76812318e-002 4.79583554e-002 3.42351831e-002 4.91001457e-002
      4.64722328e-002 2.34885383e-002 1.00839451e-001 3.36027861e-001
      2.83726126e-001 9.42052901e-002 3.07709035e-002 2.32773777e-002
      1.68944504e-002 8.56619049e-003 3.05213183e-002 2.59237438e-001
      2.83726126e-001 2.83726126e-001 1.93914384e-001 8.06518570e-002
      6.38252869e-002 3.57358269e-002 4.05533090e-002 7.92817697e-002
      2.18901053e-001 2.83726126e-001 2.83726126e-001 1.54654905e-001
      1.58339858e-001 6.87464699e-002 4.10889238e-002 3.02162841e-002
      2.57395729e-002 7.43110031e-002 2.83726126e-001 2.53110975e-001
      2.28595823e-001 2.72842973e-001 1.28529564e-001 6.16983548e-002
      7.39268586e-002 5.79050444e-002 7.57024661e-002 2.04587623e-001
      3.77172939e-002 2.96321679e-002 9.50431973e-002 2.85615742e-001
      2.85615742e-001 5.65316565e-002 2.06781887e-002 2.82923114e-002
      5.65378815e-002 2.41465658e-001 5.52569032e-002 7.54652247e-002
      2.85615742e-001 1.68424517e-001 3.23992930e-002 1.82115119e-002
      8.08469206e-002 2.85615742e-001 7.55296871e-002 1.32953048e-001
      2.85615742e-001 2.85615742e-001 9.93360654e-002 4.76233885e-002
      4.63900343e-002 8.74530524e-002 1.56908974e-001 2.85615742e-001
      1.64714471e-001 1.85552314e-001 7.56717324e-002 2.24512536e-002
      3.08478810e-002 7.29150698e-002 2.79725134e-001 2.85615742e-001
      2.70439535e-001 2.65742168e-002 1.94588490e-002 6.07811920e-002
      4.26866263e-002 9.63686779e-003 1.08248666e-002 9.48892608e-002
      3.26583534e-001 2.57372946e-001 8.06990042e-002 2.43285410e-002
      2.51898337e-002 5.52535728e-002 4.10123207e-002 2.64320001e-002
      1.36326611e-001 3.26583534e-001 3.26583534e-001 5.31953461e-002
      2.51615960e-002 1.79240927e-002 5.67427743e-003 4.66660643e-003
      3.72145660e-002 2.13406146e-001 3.26583534e-001 3.26583534e-001
      8.95760357e-002 5.14505096e-002 1.34101696e-002 2.71238703e-002
      1.83419399e-002 3.25268544e-002 3.25728089e-001 3.26583534e-001
      1.78409129e-001 1.81731671e-001 1.57369688e-001 7.33774230e-002
      1.07700415e-001 7.59169161e-002 6.73569441e-002 1.31577417e-001
      2.14198545e-001 1.29615903e-001 2.08543718e-001 2.64497221e-001
      2.61530042e-001 1.50848463e-001 1.34116530e-001 1.42370895e-001
      9.66471955e-002 1.25642285e-001 2.30187178e-001 1.68993160e-001
      1.93878278e-001 7.71052092e-002 1.30615488e-001 7.32193142e-002
      9.03967693e-002 2.64497221e-001 2.64497221e-001 6.19879253e-002
      1.29477382e-001 2.64497221e-001 2.64497221e-001 1.74732208e-001
      8.24214816e-002 1.37657166e-001 7.93393403e-002 1.17426768e-001
      5.32010384e-002 1.20277129e-001 2.46514425e-001 2.46514425e-001
      1.15277790e-001 1.13998786e-001 5.41396141e-002 9.08422470e-002
      1.42221242e-001 2.46514425e-001 1.68562204e-001 1.74809903e-001
      1.17505670e-001 6.78953230e-002 8.70236084e-002 1.14506513e-001
      2.46514425e-001 2.46514425e-001 7.76750073e-002 3.17589715e-002
      4.45831493e-002 8.51322860e-002 1.53773978e-001 2.15411738e-001
      2.46514425e-001 2.46514425e-001 2.46514425e-001 2.29475200e-001
      1.00802675e-001 1.11266859e-001 1.32697165e-001 9.82249454e-002
      1.23912580e-001 1.12426609e-001 2.46514425e-001 2.46514425e-001
      2.57282138e-001 9.97777209e-002 1.09016955e-001 1.02086715e-001
      4.50689718e-002 4.07634340e-002 6.02660254e-002 1.66324914e-001
      2.57282138e-001 2.57282138e-001 1.83225051e-001 2.06266016e-001
      8.06619227e-002 6.77245334e-002 4.45594043e-002 2.69671082e-002
      2.20946580e-001 2.57282138e-001 2.57282138e-001 1.18268333e-001
      1.78522646e-001 1.62714675e-001 6.81556091e-002 6.40163273e-002
      5.68770878e-002 8.12263563e-002 2.57282138e-001 2.57282138e-001
      2.47183293e-001 2.57282138e-001 1.44029662e-001 1.06084034e-001
      5.77620156e-002 2.95025650e-002 8.64672810e-002 2.57282138e-001
      1.42921835e-001 2.18215883e-001 2.49255136e-001 1.37426734e-001
      8.95868763e-002 3.62834409e-002 1.88563596e-002 1.29159182e-001
      2.38756403e-001 5.44518679e-002 9.74587053e-002 2.63686985e-001
      2.63686985e-001 1.00306258e-001 1.94216017e-002 2.24853307e-002
      2.02305224e-002 4.81329672e-002 2.63686985e-001 2.52639294e-001
      2.46337339e-001 1.71111450e-001 1.05746321e-001 6.50745630e-002
      1.68447960e-002 6.33518174e-002 1.16744950e-001 2.63686985e-001
      1.51747137e-001 2.63686985e-001 2.63686985e-001 1.09081239e-001
      1.01054989e-001 6.45231232e-002 1.25058368e-001 2.63686985e-001</_>
    <_>
      2.09126532e-001 2.70684123e-001 1.50888890e-001 9.65056941e-002
      1.53719082e-001 6.38454184e-002 3.89685147e-002 2.49948278e-002
      1.48196712e-001 2.70684123e-001 1.73870236e-001 7.96927735e-002
      8.27290863e-002 8.19223970e-002 1.60223003e-002 7.98569471e-002
      1.73902065e-001 2.70684123e-001 1.88720644e-001 1.91460043e-001
      1.04498625e-001 5.90893142e-002 1.74874738e-001 2.70684123e-001
      2.30263054e-001 7.50040933e-002 1.66986436e-001 2.70684123e-001
      2.70684123e-001 9.17872265e-002 5.75763360e-002 7.69554675e-002
      8.03430974e-002 1.31055921e-001 1.57091215e-001 2.70684123e-001
      2.50018120e-001 7.42547959e-002 2.34267060e-002 3.37183401e-002
      5.44253439e-002 5.50157391e-002 1.13712244e-001 1.75373420e-001
      2.71141618e-001 1.54788896e-001 3.70630175e-002 2.13017259e-002
      4.59218249e-002 1.59759432e-001 2.71141618e-001 2.71141618e-001
      1.79461330e-001 2.27486968e-001 2.71141618e-001 2.15964019e-001
      3.03122662e-002 4.42772359e-002 4.11421284e-002 4.48070690e-002
      8.54367465e-002 1.21369183e-001 2.71141618e-001 2.71141618e-001
      1.34029374e-001 5.53830378e-002 1.04694001e-001 1.58553123e-001
      1.99173763e-001 1.73762888e-001 1.53823987e-001 2.71141618e-001
      4.87658344e-002 1.35199437e-002 1.40985735e-002 3.92639376e-002
      1.76321626e-001 3.29903573e-001 3.29903573e-001 9.61330608e-002
      7.57895261e-002 1.06173567e-002 5.77431032e-003 3.41474474e-003
      2.04372127e-002 8.26405212e-002 3.29903573e-001 2.50589699e-001
      2.56738961e-002 1.84626579e-002 1.35495469e-001 6.20916784e-002
      4.23158407e-002 7.25242049e-002 1.53978989e-001 3.29903573e-001
      3.29903573e-001 1.33437380e-001 1.92037538e-001 3.34830652e-003
      3.17410479e-004 4.48108558e-003 1.06119784e-002 6.11665472e-002
      3.29903573e-001 3.29903573e-001 4.01516333e-002 1.08283507e-002
      1.26115873e-001 1.07599884e-001 5.99722825e-002 4.36997302e-002
      1.62399322e-001 2.79389560e-001 2.54544705e-001 3.16795483e-002
      6.29280731e-002 2.79389560e-001 2.79389560e-001 5.93245924e-002
      3.14320028e-002 8.44022781e-002 1.33882344e-001 1.05589449e-001
      2.48605646e-002 2.16998205e-001 4.05610166e-002 4.05375399e-002
      1.23241721e-002 4.25655469e-002 2.53325224e-001 2.79389560e-001
      2.79389560e-001 2.58777812e-002 2.36861687e-002 2.79389560e-001
      1.83081105e-001 3.60099077e-002 3.90019044e-002 1.80036217e-001
      2.79389560e-001 2.79389560e-001 3.20662446e-002 1.21554330e-001
      3.00895900e-001 3.00895900e-001 2.77592912e-002 1.70452762e-002
      1.08465282e-002 1.23495497e-002 3.75488028e-002 3.82987596e-002
      2.95475632e-001 3.00895900e-001 2.71765530e-001 7.67316669e-002
      8.98699537e-002 9.78817940e-002 9.14154723e-002 1.05485797e-001
      1.28224820e-001 3.00895900e-001 3.00895900e-001 2.02176258e-001
      4.71942723e-002 1.97796822e-002 4.13921662e-002 6.75606653e-002
      9.38515663e-002 6.15835600e-002 1.64429232e-001 3.00895900e-001
      2.33202159e-001 7.03127161e-002 4.23576199e-002 7.54276291e-002
      4.63487022e-002 1.10687204e-001 1.53982133e-001 1.85989067e-001
      1.22508280e-001 1.10239923e-001 5.86565025e-002 8.11113343e-002
      1.39787674e-001 3.01832169e-001 3.01832169e-001 1.27006605e-001
      1.27079159e-001 8.46206397e-003 2.41932762e-003 9.16208141e-003
      2.10922230e-002 9.94161218e-002 3.01832169e-001 3.01832169e-001
      6.48085922e-002 1.76188424e-002 2.10317850e-001 1.29980803e-001
      5.51346727e-002 6.93434700e-002 2.12289929e-001 1.27031863e-001
      2.14611337e-001 1.44304335e-001 1.46052063e-001 1.11838162e-001
      6.01211451e-002 5.19463010e-002 4.86109890e-002 3.01832169e-001
      3.01832169e-001 3.01832169e-001 9.63003859e-002 8.00775737e-002
      8.06891266e-003 8.69801268e-003 9.01769940e-003 3.50152068e-002
      2.77464211e-001 2.77464211e-001 2.77464211e-001 2.53625289e-002
      9.14891995e-003 5.66008165e-002 4.39071693e-002 1.16943363e-002
      3.82293314e-002 2.77464211e-001 2.77464211e-001 2.77464211e-001
      6.95713907e-002 4.27993014e-002 5.80635294e-003 5.36124222e-003
      1.34543097e-002 2.87552644e-002 2.39735633e-001 2.77464211e-001
      2.77464211e-001 8.76397565e-002 1.91551372e-002 5.49813025e-002
      2.78206039e-002 3.87873384e-003 3.97051200e-002 2.38096327e-001
      2.77464211e-001 2.77464211e-001 2.77464211e-001 7.82983899e-002
      2.33795851e-001 1.06466211e-001 3.53086442e-002 4.72963043e-002
      7.94515461e-002 9.92559195e-002 6.31173849e-002 6.31424114e-002
      1.14114389e-001 3.47752899e-001 2.58471578e-001 6.91552684e-002
      4.60681021e-002 3.27212475e-002 2.35545654e-002 4.14417498e-002
      7.02039376e-002 2.17437446e-001 3.47752899e-001 1.02879018e-001
      2.35145725e-002 8.04222971e-002 9.62689221e-002 1.10345006e-001
      1.80437431e-001 1.96179181e-001 2.15082288e-001 3.47752899e-001
      3.20428669e-001 5.85869551e-002 8.46951827e-002 3.59651782e-002
      1.29795419e-002 3.77069749e-002 6.61909133e-002 3.47752899e-001
      3.16053838e-001 1.79473847e-001 7.34965876e-002 5.96449599e-002
      6.14661500e-002 4.17110845e-002 4.31664810e-002 7.80663192e-002
      1.71435639e-001 1.89686030e-001 8.53035226e-002 9.17220116e-002
      6.09810241e-002 1.56493619e-001 2.34350339e-001 1.33271515e-001
      7.86184520e-002 1.32847771e-001 3.16053838e-001 3.16053838e-001
      1.02356993e-001 6.61433861e-002 1.70660615e-002 2.12580543e-002
      2.33621821e-002 3.41409966e-002 3.16053838e-001 3.16053838e-001
      3.16053838e-001 1.94792256e-001 7.48106092e-002 3.05162147e-002
      8.63999054e-002 8.33843574e-002 6.19585514e-002 2.38832146e-001</_>
    <_>
      2.58908600e-001 2.58908600e-001 1.26891807e-001 9.05306414e-002
      1.20557033e-001 5.89464381e-002 4.20199893e-002 5.06124981e-002
      9.36340541e-002 2.58908600e-001 2.33871475e-001 5.60423024e-002
      5.98374940e-002 8.23287666e-002 9.49955955e-002 1.95225224e-001
      2.37043619e-001 2.58908600e-001 1.95471302e-001 2.02927470e-001
      9.36206058e-002 1.03733376e-001 1.54980347e-001 1.30043149e-001
      1.96401611e-001 1.82869211e-001 1.14791401e-001 2.58908600e-001
      2.58908600e-001 1.25747129e-001 8.48544911e-002 1.04627915e-001
      8.49661380e-002 1.24533661e-001 1.39753550e-001 2.58908600e-001
      1.79360315e-001 7.41380230e-002 4.22232859e-002 1.63266528e-002
      7.21466690e-002 1.64005578e-001 2.61744678e-001 2.19356805e-001
      1.79289281e-001 7.81587660e-002 4.32515517e-002 3.39963846e-002
      1.00124218e-002 7.06257969e-002 2.61744678e-001 2.61744678e-001
      1.79545447e-001 6.15601130e-002 2.61744678e-001 2.61744678e-001
      8.28029662e-002 1.93461142e-002 6.59075901e-002 1.04255915e-001
      1.15878753e-001 6.68681785e-002 2.61744678e-001 2.61744678e-001
      1.39487967e-001 6.52872026e-002 4.69988026e-002 1.11920789e-001
      2.61744678e-001 2.61744678e-001 2.01798379e-001 2.42778122e-001
      2.02094987e-002 2.40156539e-002 1.72036551e-002 7.15079624e-003
      4.76041436e-002 3.33575875e-001 3.45152080e-001 1.88296795e-001
      2.97794044e-002 1.05386702e-002 1.53982602e-002 2.25078352e-002
      8.75290204e-003 3.38102430e-002 7.03470334e-002 1.21455446e-001
      7.32834488e-002 3.52444574e-002 6.64560571e-002 4.89853360e-002
      2.84683183e-002 4.24403064e-002 9.01412591e-002 3.45152080e-001
      3.45152080e-001 3.45152080e-001 8.34307447e-002 6.62739994e-003
      7.63572939e-003 2.26446372e-002 1.50448261e-002 4.80284616e-002
      3.02224398e-001 3.45152080e-001 3.16660494e-001 4.50028703e-002
      1.37996629e-001 1.26206025e-001 7.47347251e-002 6.23384491e-002
      1.12958059e-001 2.32104629e-001 2.84745276e-001 1.88306972e-001
      7.70116672e-002 2.84745276e-001 2.84745276e-001 1.13213010e-001
      5.25091887e-002 9.55414996e-002 1.43307328e-001 8.77909288e-002
      6.36718571e-002 1.74383268e-001 5.28479889e-002 2.47497614e-002
      1.81921236e-002 3.31123061e-002 7.54255727e-002 2.84745276e-001
      2.84745276e-001 1.11655854e-001 2.96944734e-002 2.84745276e-001
      2.07596391e-001 5.18835299e-002 3.72816958e-002 1.06071360e-001
      2.84745276e-001 2.84745276e-001 1.47318244e-001 6.81040883e-002
      2.69521505e-001 2.69521505e-001 9.81309116e-002 1.83421839e-002
      4.66899872e-002 4.03974801e-002 3.97381820e-002 2.96176355e-002
      2.22910881e-001 2.69521505e-001 2.69521505e-001 9.00954381e-002
      7.44197294e-002 1.20636389e-001 1.97200820e-001 2.64312685e-001
      1.90256506e-001 1.62667513e-001 2.69521505e-001 2.69521505e-001
      7.54194185e-002 1.97718777e-002 5.08001111e-002 1.65710598e-001
      1.51319996e-001 9.90082771e-002 4.13431972e-002 2.42025852e-001
      2.60169148e-001 6.99873567e-002 3.56606618e-002 3.62185463e-002
      1.37181371e-001 2.20304355e-001 1.44323155e-001 5.88071384e-002
      5.83069175e-002 3.81052606e-002 1.84862595e-002 3.50653864e-002
      7.43483156e-002 2.92269737e-001 3.06602597e-001 3.06602597e-001
      4.16606404e-002 6.03526551e-003 3.01255193e-003 6.39463542e-003
      7.78639596e-003 7.37309232e-002 3.06602597e-001 3.06602597e-001
      2.47032121e-001 2.00676098e-002 1.17668428e-001 8.69390070e-002
      2.96190251e-002 2.11643316e-002 5.38648814e-002 2.57712394e-001
      3.06602597e-001 1.87684909e-001 6.13093302e-002 6.12948760e-002
      4.15771268e-002 1.88519973e-002 8.37439299e-003 9.84890908e-002
      3.06602597e-001 3.06602597e-001 1.57799840e-001 3.51907872e-002
      3.11153010e-002 2.10443642e-002 1.66225452e-002 2.19477396e-002
      3.80237773e-002 3.57809544e-001 3.67973179e-001 7.17153922e-002
      1.55124497e-002 4.99940589e-002 3.71632278e-002 1.65358465e-002
      2.42761001e-002 1.24307588e-001 3.67973179e-001 3.67973179e-001
      2.30926394e-001 9.99469031e-003 2.55881548e-002 1.74624790e-002
      2.12295968e-002 2.37150099e-002 4.64971513e-002 1.15957417e-001
      1.53753355e-001 2.85582207e-002 1.84833352e-002 7.50845298e-003
      6.80068135e-003 1.02079175e-002 2.66185682e-002 1.35981277e-001
      3.67973179e-001 3.67973179e-001 2.13110134e-001 3.81191112e-002
      7.50139803e-002 7.88378716e-002 3.08477469e-002 1.72454827e-002
      7.29030520e-002 2.69454867e-001 2.69454867e-001 1.22553043e-001
      2.83719003e-002 2.69454867e-001 2.69454867e-001 1.23757161e-001
      3.92096192e-002 1.99833326e-002 8.20530653e-002 1.11147031e-001
      9.59507301e-002 9.66563076e-002 5.51850200e-002 5.01076765e-002
      2.54500862e-002 1.48232924e-002 7.21717402e-002 2.69454867e-001
      2.69454867e-001 2.61554122e-001 1.51540980e-001 2.69454867e-001
      2.69454867e-001 2.33513847e-001 5.30757532e-002 4.56185080e-002
      7.88598955e-002 1.76885650e-001 2.34080374e-001 2.69454867e-001
      2.31164590e-001 2.02540517e-001 1.28514349e-001 3.04546859e-002
      1.64654180e-002 5.49604893e-002 7.23532289e-002 8.12203810e-002
      9.43286642e-002 1.61230519e-001 1.65468097e-001 1.01201937e-001
      2.69981399e-002 4.42089029e-002 1.71664506e-001 2.93394834e-001
      8.89631882e-002 1.09913081e-001 2.93394834e-001 2.93394834e-001
      2.93394834e-001 6.04399331e-002 2.72826906e-002 1.00173233e-002
      2.16561910e-002 7.69901201e-002 1.98154733e-001 2.93394834e-001
      2.93394834e-001 2.93394834e-001 4.17947210e-002 3.77955921e-002
      2.22892500e-002 5.96916005e-002 8.19349289e-002 2.80549079e-001</_>
    <_>
      1.40833199e-001 1.91909254e-001 1.19456820e-001 5.87119162e-002
      1.01647777e-002 8.49512313e-003 2.05069222e-002 1.75394248e-002
      4.41284515e-002 1.48089603e-001 3.05154473e-001 3.05154473e-001
      1.57764927e-001 2.30748784e-002 6.04006229e-003 3.75286932e-003
      8.96727759e-003 3.09671257e-002 3.05154473e-001 3.05154473e-001
      2.96474099e-001 6.13790154e-002 2.54090093e-002 1.99822541e-002
      2.92954389e-002 2.62420308e-002 8.68284702e-002 3.05154473e-001
      3.05154473e-001 3.05154473e-001 2.77028739e-001 7.99264014e-002
      6.87904060e-002 5.04340194e-002 8.48997906e-002 1.41527802e-001
      1.06214561e-001 3.11352283e-001 3.11352283e-001 1.04710251e-001
      1.46539751e-002 6.39832066e-003 5.02388750e-004 6.44775620e-003
      1.93662159e-002 2.14713246e-001 3.11352283e-001 3.11352283e-001
      1.19203046e-001 3.97652015e-002 2.33784672e-002 5.23973955e-003
      9.24551953e-003 3.96087468e-002 1.40120968e-001 3.11352283e-001
      3.11352283e-001 1.87372804e-001 7.84595534e-002 7.33472183e-002
      5.77940345e-002 6.52482510e-002 9.83857512e-002 1.07829556e-001
      3.11352283e-001 3.11352283e-001 1.19201049e-001 8.68408680e-002
      7.87558183e-002 7.79676288e-002 5.53786531e-002 4.52401489e-002
      1.37989819e-001 2.31911808e-001 2.31911808e-001 1.91557258e-001
      1.57076612e-001 8.08803067e-002 2.23886836e-002 4.20384370e-002
      3.92003655e-002 1.73955679e-001 1.08574897e-001 1.09277800e-001
      2.29462028e-001 2.31911808e-001 2.31911808e-001 1.93406940e-001
      1.83995068e-001 1.45809025e-001 6.83727935e-002 2.00306267e-001
      1.30927742e-001 1.70450434e-001 1.63740769e-001 1.05896786e-001
      7.59297907e-002 9.23467875e-002 4.42587994e-002 2.31911808e-001
      2.06312239e-001 3.98198441e-002 1.68813109e-001 2.31911808e-001
      1.95482865e-001 2.03794092e-001 2.31911808e-001 1.83349535e-001
      2.45420814e-001 2.45420814e-001 2.45420814e-001 8.52382407e-002
      7.05684945e-002 7.81901330e-002 3.57044302e-002 3.60075422e-002
      6.71571940e-002 2.28682876e-001 2.45420814e-001 2.01630399e-001
      1.16544686e-001 1.82263300e-001 2.45420814e-001 1.78576037e-001
      1.12894364e-001 1.21977672e-001 9.83959809e-002 1.48259014e-001
      2.32809395e-001 2.16425732e-001 1.81393370e-001 1.08351246e-001
      5.65123931e-002 4.50609066e-002 5.91699407e-002 1.05042614e-001
      9.40806046e-002 8.20560679e-002 1.67789549e-001 2.45420814e-001
      2.45420814e-001 2.45420814e-001 1.95925921e-001 1.08439252e-001
      1.08653799e-001 1.63018897e-001 1.35893524e-001 8.53313953e-002
      2.00727612e-001 2.69897342e-001 2.69897342e-001 1.11897267e-001
      1.09738342e-001 2.76567414e-002 8.37300345e-002 8.67306143e-002
      7.58071691e-002 1.57814801e-001 2.69897342e-001 2.33002245e-001
      7.38527477e-002 3.55839059e-002 5.37805334e-002 4.31669801e-002
      2.24260539e-002 6.94179013e-002 2.69897342e-001 2.69897342e-001
      2.69897342e-001 2.13871449e-001 9.99489278e-002 1.15246788e-001
      1.23623751e-001 5.88273667e-002 1.14981502e-001 2.16169879e-001
      2.69897342e-001 2.69897342e-001 1.25980601e-001 7.03313947e-002
      5.14216274e-002 1.01939976e-001 5.32892682e-002 1.08820990e-001
      1.31965950e-001 1.44343317e-001 1.01779357e-001 5.43977655e-002
      3.39757279e-002 2.78991878e-001 2.97636002e-001 9.72513631e-002
      1.07263520e-001 1.52244255e-001 1.54842749e-001 1.15503065e-001
      1.15358606e-001 1.43190369e-001 2.53537714e-001 2.97636002e-001
      2.00792700e-001 1.47762880e-001 1.35763794e-001 1.31034568e-001
      1.14655048e-001 4.56520990e-002 6.23901449e-002 2.97636002e-001
      2.97636002e-001 2.97636002e-001 2.38859206e-001 1.28042996e-001
      5.55233546e-002 8.64314809e-002 4.80993427e-002 1.14327833e-001
      9.39651877e-002 6.14131615e-002 1.27266914e-001 1.81225061e-001
      2.07170695e-001 1.67647868e-001 1.24684751e-001 5.52550517e-002
      5.06444983e-002 2.27306664e-001 1.09604709e-001 9.29604098e-002
      2.21977636e-001 2.35287100e-001 2.28422239e-001 2.35287100e-001
      2.11638227e-001 1.42759413e-001 7.73579106e-002 4.82390150e-002
      5.18955365e-002 5.37145548e-002 1.59200713e-001 2.35287100e-001
      2.35287100e-001 1.76962376e-001 1.04842573e-001 1.93388358e-001
      2.35287100e-001 2.35287100e-001 1.62662774e-001 1.72089726e-001
      7.65473321e-002 1.34140193e-001 1.83028072e-001 2.00862259e-001
      1.00862868e-001 1.06765382e-001 5.03477566e-002 1.06854953e-001
      1.87039614e-001 2.21403629e-001 2.64308244e-001 1.76083282e-001
      1.26353487e-001 2.29661673e-001 2.82229155e-001 1.84361994e-001
      1.14231877e-001 1.38950348e-001 1.68385074e-001 1.66316122e-001
      7.98637792e-002 1.06617585e-001 1.63972020e-001 2.82229155e-001
      2.82229155e-001 1.07723743e-001 8.27283040e-002 3.24272476e-002
      9.57972705e-002 8.56557116e-002 1.02555290e-001 2.78887272e-001
      2.82229155e-001 2.82229155e-001 7.57748112e-002 4.05375585e-002
      1.73607208e-002 3.79282348e-002 3.65208909e-002 8.97225514e-002
      3.16210091e-001 3.20026189e-001 2.90981680e-001 1.00415111e-001
      6.95518851e-002 4.21645530e-002 3.49242613e-002 3.01341657e-002
      6.00084364e-002 2.11310029e-001 3.20026189e-001 3.20026189e-001
      1.14337355e-001 5.66435196e-002 9.58956603e-004 1.49958776e-002
      2.27928441e-002 4.74854037e-002 2.42898837e-001 3.20026189e-001
      3.20026189e-001 6.04654662e-002 2.06762627e-002 4.10422496e-003
      2.31240108e-003 1.35177765e-002 4.78965715e-002 1.34478524e-001
      3.20026189e-001 1.50685981e-001 3.65406387e-002 1.43373646e-002
      2.60969135e-003 1.42866569e-002 1.90259013e-002 5.28652295e-002</_>
    <_>
      1.25536015e-002 4.56103273e-002 1.83802456e-001 1.66937932e-001
      4.71867807e-002 6.67597447e-003 5.95577992e-003 9.15444363e-003
      1.20124249e-002 2.17170548e-002 1.21176079e-001 3.74846101e-001
      3.74846101e-001 7.66291693e-002 1.00337043e-002 2.13022484e-003
      7.45545421e-003 4.96001123e-003 8.28247704e-003 9.80826840e-002
      3.74846101e-001 3.74846101e-001 5.48852831e-002 1.39862075e-002
      1.17455907e-002 6.32755226e-003 4.59488574e-003 4.25804183e-002
      2.12343276e-001 3.74846101e-001 3.74846101e-001 6.04821928e-002
      2.38613300e-002 1.78204756e-002 2.34587118e-002 2.15950850e-002
      1.14409700e-001 2.43748635e-001 2.80354798e-001 2.80354798e-001
      6.34099618e-002 9.54071525e-003 1.27918348e-002 4.76340540e-002
      4.82746288e-002 2.80354798e-001 2.52337277e-001 1.51223883e-001
      6.44303039e-002 5.93770854e-002 1.90786961e-002 5.14120609e-002
      2.80354798e-001 2.80354798e-001 9.53858793e-002 1.69491038e-001
      2.80354798e-001 2.80354798e-001 5.11382967e-002 2.07927153e-002
      2.12333631e-002 5.10541610e-002 6.23648576e-002 2.53948718e-001
      1.13378122e-001 1.31981418e-001 1.15318440e-001 5.30652776e-002
      2.03862824e-002 2.97820326e-002 1.72634572e-001 2.80354798e-001
      2.58499414e-001 1.07643157e-001 1.52347796e-002 1.86883546e-002
      4.41768765e-002 5.01607507e-002 1.74218699e-001 2.58499414e-001
      2.58499414e-001 2.53219604e-001 1.41636580e-001 6.46014288e-002
      1.91082098e-002 5.82730696e-002 1.04183726e-001 2.58499414e-001
      2.58499414e-001 2.58499414e-001 2.30444804e-001 1.42588079e-001
      1.08166419e-001 5.19732535e-002 4.00010645e-002 2.47527957e-002
      6.66209757e-002 1.31164595e-001 2.58499414e-001 2.31042296e-001
      2.58499414e-001 2.58499414e-001 8.24749917e-002 7.24303424e-002
      6.32679313e-002 1.25856847e-001 7.25440755e-002 2.09367111e-001
      2.33975798e-002 1.36095464e-001 2.78530777e-001 2.78530777e-001
      4.87003885e-002 2.41959468e-002 2.09006760e-002 2.29468457e-002
      9.56834108e-003 1.40463844e-001 1.54744476e-001 2.78530777e-001
      2.78530777e-001 5.50690852e-002 5.40538654e-002 7.24946558e-002
      1.20772973e-001 1.29243210e-001 8.29628855e-002 2.75404423e-001
      2.78530777e-001 1.65587634e-001 6.68037385e-002 5.63258044e-002
      8.72835889e-002 1.11808755e-001 4.83752750e-002 1.97499797e-001
      1.51019722e-001 2.56909698e-001 1.01413988e-001 7.97553882e-002
      1.07387878e-001 2.20602095e-001 2.78530777e-001 2.78530777e-001
      1.45394966e-001 7.82649145e-002 2.54040807e-001 1.69908866e-001
      3.28631885e-002 5.95459826e-002 1.01888679e-001 1.75238028e-001
      2.67263532e-001 1.31874040e-001 5.31704091e-002 1.51223332e-001
      1.07101947e-001 5.92213385e-002 4.21717539e-002 7.69431442e-002
      1.32925153e-001 2.35000387e-001 2.21881732e-001 8.66470933e-002
      6.92338273e-002 2.09737904e-002 2.91008186e-002 9.40366760e-002
      2.32480034e-001 2.72393376e-001 2.72393376e-001 2.08331615e-001
      1.77629679e-001 1.83768153e-001 7.24351555e-002 4.85401154e-002
      1.33164391e-001 2.53459930e-001 2.72393376e-001 2.72393376e-001
      1.13304220e-001 1.71303406e-001 2.91754842e-001 1.49673283e-001
      6.17520697e-002 1.38443140e-002 2.78057009e-002 5.06524630e-002
      9.68045145e-002 1.23112530e-001 2.59795547e-001 3.18288535e-001
      3.18288535e-001 1.43146470e-001 4.10036445e-002 6.96943998e-002
      4.48235162e-002 6.81359023e-002 7.59294257e-002 1.97886899e-001
      3.18288535e-001 2.38246143e-001 5.00785708e-002 5.57684191e-002
      9.69601721e-002 8.49040672e-002 1.15327567e-001 5.98283969e-002
      2.31474623e-001 3.18288535e-001 3.18288535e-001 1.00101084e-001
      2.96491738e-002 2.82858983e-002 2.77706478e-002 2.61739045e-002
      8.65272507e-002 1.90821350e-001 2.49602467e-001 1.21209949e-001
      1.05652414e-001 8.57600123e-002 1.03564106e-001 9.08287987e-002
      6.63563907e-002 1.45258710e-001 2.49602467e-001 2.49602467e-001
      8.55739638e-002 5.60158901e-002 8.43605325e-002 1.81230769e-001
      2.49602467e-001 2.49602467e-001 6.97021410e-002 6.87072501e-002
      1.48830473e-001 6.68478385e-002 1.06625356e-001 1.69615418e-001
      2.49602467e-001 2.49602467e-001 1.85268119e-001 1.84595376e-001
      2.49602467e-001 2.49602467e-001 8.90732333e-002 6.07087836e-002
      9.38010365e-002 8.73310864e-002 1.72338948e-001 2.49602467e-001
      1.48326218e-001 2.14392364e-001 2.39023224e-001 2.88252123e-002
      1.24054970e-002 3.27521525e-002 9.69545990e-002 2.33681679e-001
      2.64943570e-001 1.77410185e-001 2.64943570e-001 2.64943570e-001
      3.16069499e-002 2.55146474e-002 7.25494102e-002 1.06909387e-001
      1.28371015e-001 2.19126463e-001 1.57933131e-001 2.64943570e-001
      2.64943570e-001 4.40531671e-002 2.79425904e-002 2.64895856e-002
      3.61542143e-002 6.95858896e-002 1.60908401e-001 2.64943570e-001
      2.64943570e-001 2.64943570e-001 4.40927260e-002 2.47567333e-002
      5.94515204e-002 7.37764463e-002 4.01630327e-002 2.38248870e-001
      8.95456225e-002 2.88760215e-001 2.96473056e-001 8.67343396e-002
      1.49577698e-002 3.14483494e-002 3.69100161e-002 2.93768849e-002
      5.37762158e-002 1.39779553e-001 1.99322715e-001 2.96473056e-001
      1.68653846e-001 1.62383076e-002 4.37335670e-003 2.07776763e-003
      4.14703926e-003 2.96581890e-002 2.96473056e-001 2.96473056e-001
      2.96473056e-001 4.22742143e-002 1.00790821e-002 3.10766213e-002
      4.28940728e-002 2.05446612e-002 2.53901064e-001 2.96473056e-001
      2.96473056e-001 2.30246514e-001 2.57155541e-002 6.94018183e-003
      3.62589397e-002 8.12849309e-003 4.74912301e-003 2.50809997e-001</_>
    <_>
      1.45538107e-001 2.58079022e-001 2.58079022e-001 1.39551833e-001
      1.01275995e-001 4.10280935e-002 5.36438376e-002 4.06991243e-002
      7.41236508e-002 1.74789011e-001 2.58079022e-001 1.43782750e-001
      8.83542523e-002 8.29543173e-002 1.11970685e-001 2.41232142e-001
      1.83964118e-001 1.57963112e-001 1.20789856e-001 1.17681362e-001
      1.65281966e-001 1.29146203e-001 2.24024594e-001 1.35755405e-001
      2.18863741e-001 2.02837825e-001 1.26849532e-001 2.13537067e-001
      2.58079022e-001 2.58079022e-001 1.59033969e-001 1.41902655e-001
      1.01281621e-001 1.32598057e-001 1.23323970e-001 1.61466390e-001
      8.97654593e-002 2.15419978e-001 5.85286431e-002 6.23245127e-002
      4.45150435e-002 1.36903033e-001 2.90888757e-001 2.46454090e-001
      7.71233588e-002 3.92595455e-002 6.86385930e-002 2.06049941e-002
      2.03313474e-002 2.54919678e-002 1.26502559e-001 2.90888757e-001
      2.90888757e-001 5.30848093e-002 1.39327213e-001 2.90888757e-001
      2.90888757e-001 1.15936071e-001 3.57196853e-002 9.45190787e-002
      1.52202606e-001 9.89923328e-002 9.32426229e-002 7.27674887e-002
      2.28487849e-001 2.03463301e-001 6.39562607e-002 3.18667255e-002
      1.40930161e-001 2.90888757e-001 2.90888757e-001 1.42983526e-001
      1.35270404e-002 6.66690292e-003 8.24994594e-003 1.33108534e-002
      3.62980142e-002 1.04465969e-001 3.55664790e-001 3.55664790e-001
      6.08260073e-002 1.64065585e-002 1.15903299e-002 1.29358377e-002
      1.67409405e-002 6.50720522e-002 9.61542651e-002 1.05895601e-001
      8.97214860e-002 5.50485216e-002 5.41375838e-002 3.84798087e-002
      4.17097248e-002 1.58358961e-002 3.07406839e-002 1.43154487e-001
      3.55664790e-001 3.55664790e-001 2.44230166e-001 2.95454655e-002
      1.10050086e-002 1.40536930e-002 8.81712884e-003 5.80117442e-002
      2.34414488e-001 3.55664790e-001 3.55664790e-001 1.93287507e-001
      6.45641461e-002 4.03431542e-002 9.59079117e-002 7.16540292e-002
      8.25617686e-002 1.08451903e-001 2.77454615e-001 2.77454615e-001
      1.41414598e-001 1.59423888e-001 2.77454615e-001 2.77454615e-001
      1.51762500e-001 9.29149240e-002 9.39362124e-002 1.43472567e-001
      1.37858644e-001 1.03207104e-001 3.06278188e-002 1.17761204e-002
      3.06040216e-002 3.09433937e-002 2.85862256e-002 1.56105518e-001
      2.77454615e-001 2.77454615e-001 1.07459418e-001 1.69010356e-001
      1.12094685e-001 1.74671650e-001 5.40681630e-002 7.94141516e-002
      2.77454615e-001 2.77454615e-001 2.77454615e-001 9.47216675e-002
      1.33696482e-001 2.62811720e-001 2.62811720e-001 1.18013337e-001
      3.90356965e-002 5.75491115e-002 6.06751889e-002 4.00258340e-002
      5.58407903e-002 9.33735967e-002 2.62811720e-001 2.62811720e-001
      9.11328718e-002 8.08833688e-002 1.04014553e-001 2.00410306e-001
      2.48601720e-001 1.37535259e-001 1.51803747e-001 2.51589000e-001
      2.62811720e-001 4.72969413e-002 7.49653876e-002 1.98686704e-001
      2.62811720e-001 2.08325759e-001 5.28879426e-002 8.12545195e-002
      1.88516572e-001 2.34294981e-001 1.32823959e-001 2.23310888e-001
      1.24202676e-001 1.03557751e-001 8.34560543e-002 7.15156049e-002
      1.06520154e-001 5.82587607e-002 5.09860031e-002 3.35579067e-002
      9.47715119e-002 1.44239932e-001 2.41929367e-001 2.41929367e-001
      1.88264370e-001 7.78240487e-002 3.45825255e-002 2.36197188e-002
      4.98343445e-002 1.37182027e-001 2.41929367e-001 2.41929367e-001
      2.41929367e-001 1.25510007e-001 1.46166325e-001 1.75907791e-001
      1.94309995e-001 1.46856695e-001 2.21564963e-001 1.40523002e-001
      7.66046792e-002 9.48678032e-002 1.15490213e-001 2.14773208e-001
      1.89382404e-001 2.03138843e-001 1.67771280e-001 2.41929367e-001
      2.41929367e-001 2.41929367e-001 1.42772138e-001 1.42535225e-001
      2.48706471e-002 1.48348659e-002 7.66743580e-003 1.55473212e-002
      3.06399614e-002 1.28932998e-001 3.66001785e-001 2.93832660e-001
      4.71349470e-002 6.96301237e-002 2.79269367e-002 1.05068246e-002
      1.59802418e-002 5.91333173e-002 3.66001785e-001 3.66001785e-001
      3.66001785e-001 6.83017522e-002 1.08796377e-002 1.26811061e-002
      1.43001331e-002 1.99866556e-002 5.25957793e-002 2.82059740e-002
      6.87788352e-002 5.22604696e-002 2.02100296e-002 1.33186951e-002
      1.61514580e-002 3.02721485e-002 3.30467075e-002 5.51236644e-002
      2.26487309e-001 3.66001785e-001 3.66001785e-001 4.56682071e-002
      4.33571152e-002 3.60240377e-002 1.80590414e-002 1.15094790e-002
      3.54202129e-002 2.71987528e-001 2.97135681e-001 2.97135681e-001
      3.93319763e-002 6.10568598e-002 1.21211573e-001 1.81935817e-001
      1.40415817e-001 1.48349613e-001 1.15146488e-001 2.18641147e-001
      1.43135473e-001 4.54471745e-002 1.62963532e-002 8.72283801e-003
      8.96324031e-003 1.14795566e-002 3.06876693e-002 2.58032739e-001
      2.97135681e-001 2.97135681e-001 3.67183872e-002 8.57340842e-002
      1.00160532e-001 1.85263097e-001 8.41029659e-002 1.52702972e-001
      2.30365396e-001 2.97135681e-001 2.97135681e-001 7.36756325e-002
      8.03775415e-002 2.80249923e-001 3.12627405e-001 1.33708194e-001
      9.98504907e-002 3.00608035e-002 2.38837637e-002 2.89146677e-002
      2.88616903e-002 1.41585827e-001 3.12627405e-001 3.12627405e-001
      1.53679758e-001 1.18392505e-001 5.63105904e-002 1.54321536e-001
      8.94493014e-002 6.36856630e-002 1.10782497e-001 3.12627405e-001
      3.12627405e-001 1.11305289e-001 9.39386711e-002 4.95902784e-002
      7.65868053e-002 5.48486859e-002 5.86921535e-002 1.50512621e-001
      3.12627405e-001 3.12627405e-001 1.43995374e-001 6.47436306e-002
      1.27223162e-002 2.79253591e-002 2.53978092e-002 5.07751964e-002</_>
    <_>
      2.25321829e-001 1.74220920e-001 2.07241997e-001 1.33791164e-001
      1.11753598e-001 1.15947545e-001 5.56965396e-002 4.99418303e-002
      1.23064704e-001 3.14600796e-001 1.11721046e-001 1.93063140e-001
      1.57528579e-001 9.06455070e-002 2.91481856e-002 6.17557615e-002
      8.03004801e-002 2.53773659e-001 3.14600796e-001 1.68108344e-001
      9.06518698e-002 1.52395010e-001 1.57212824e-001 1.70174211e-001
      1.11856744e-001 9.24944803e-002 2.12377042e-001 3.14600796e-001
      1.53416991e-001 1.18847892e-001 1.07209846e-001 5.73612377e-002
      3.30771580e-002 6.56517297e-002 1.28908843e-001 3.14600796e-001
      2.82531649e-001 5.88696189e-002 9.87051651e-002 7.51717240e-002
      8.73962939e-002 4.41328585e-002 5.21801449e-002 7.30326921e-002
      2.65704930e-001 2.57881343e-001 5.84841743e-002 4.76346835e-002
      8.35202411e-002 1.66776657e-001 9.45938975e-002 1.01793319e-001
      1.51885360e-001 3.18582118e-001 3.18582118e-001 6.88665360e-002
      6.65035471e-002 4.74602841e-002 7.19799921e-002 3.26645896e-002
      3.65615338e-002 8.08284953e-002 3.18582118e-001 3.18582118e-001
      1.56091914e-001 7.85141289e-002 9.54711214e-002 1.56381831e-001
      9.38585252e-002 7.99701884e-002 2.19586059e-001 3.18582118e-001
      2.33579800e-001 1.10403396e-001 6.95139021e-002 1.30812436e-001
      1.61111534e-001 1.07155390e-001 1.23382002e-001 1.22410603e-001
      2.47071266e-001 9.99053195e-002 8.99818167e-002 8.59258100e-002
      2.47071266e-001 2.47071266e-001 2.47071266e-001 1.78734496e-001
      7.20308423e-002 9.87583622e-002 2.47071266e-001 1.60922661e-001
      9.87039432e-002 1.61871806e-001 1.50193244e-001 1.60436273e-001
      1.50918379e-001 1.99571997e-001 2.47071266e-001 8.18725079e-002
      7.08325580e-002 6.57441616e-002 1.85863510e-001 2.47071266e-001
      2.47071266e-001 2.24780113e-001 3.71634886e-002 7.24562109e-002
      2.89931118e-001 1.38133496e-001 8.67974609e-002 2.53858119e-001
      2.53540993e-001 1.33984312e-001 5.16989902e-002 5.22257723e-002
      1.72265872e-001 3.06719214e-001 1.65963843e-001 4.58149388e-002
      4.75956015e-002 3.37223932e-002 4.04995121e-002 2.32185237e-002
      7.61948824e-002 3.06719214e-001 1.13712676e-001 5.30024953e-002
      5.12728207e-002 2.73142248e-001 3.06719214e-001 2.20227942e-001
      3.26532722e-002 2.81762201e-002 8.85386616e-002 3.06719214e-001
      1.24664992e-001 2.79444307e-002 8.22225437e-002 9.10972059e-002
      8.75422060e-002 2.60455310e-002 4.68329042e-002 3.06719214e-001
      3.33065003e-001 6.84356168e-002 9.23731271e-003 5.60120074e-003
      9.67085268e-003 5.00882277e-003 8.02299660e-003 3.46933715e-002
      3.33065003e-001 3.33065003e-001 1.76211670e-001 6.01471514e-002
      4.75570261e-002 4.16826308e-002 2.59143747e-002 3.52284759e-002
      1.21796645e-001 3.33065003e-001 3.33065003e-001 8.04942474e-002
      5.13158040e-003 1.26126884e-002 1.68700088e-002 1.42768659e-002
      2.92108562e-002 3.51790413e-002 3.33065003e-001 3.33065003e-001
      1.13326244e-001 6.95561394e-002 9.13330540e-002 6.65332079e-002
      2.94470731e-002 4.34129946e-002 7.18854666e-002 3.33065003e-001
      2.63812721e-001 1.90743685e-001 1.08247034e-001 1.37973800e-001
      1.04940973e-001 1.21660747e-001 1.12939090e-001 1.59139067e-001
      2.63812721e-001 4.42470461e-002 5.14975227e-002 4.62006517e-002
      8.99388343e-002 2.63812721e-001 2.63812721e-001 1.69886127e-001
      4.06720228e-002 4.33051512e-002 2.59576589e-001 1.43383980e-001
      1.65824607e-001 2.35256344e-001 1.52511552e-001 7.68950060e-002
      6.76018670e-002 1.10855862e-001 1.63453102e-001 1.11825198e-001
      9.43774134e-002 1.71651438e-001 2.63812721e-001 2.63812721e-001
      2.63812721e-001 1.56251878e-001 6.83766603e-002 9.18183103e-002
      6.88374192e-002 3.30501720e-002 2.37701237e-002 1.45527557e-001
      3.19857150e-001 2.13901192e-001 4.17072251e-002 7.57592991e-002
      1.16898529e-001 3.19857150e-001 7.22334534e-002 2.31495276e-002
      5.68024330e-002 7.50205442e-002 5.51668294e-002 2.06827354e-002
      9.60938334e-002 3.19857150e-001 1.61069453e-001 7.23770410e-002
      1.55056966e-002 6.50704354e-002 2.98534900e-001 2.26430878e-001
      1.00904375e-001 2.12732807e-001 2.12123543e-001 3.19857150e-001
      1.06110685e-001 3.29219252e-002 2.19786074e-002 8.55339468e-002
      2.37995610e-002 1.58395674e-002 2.56967038e-001 3.19857150e-001
      3.41346294e-001 3.94972041e-002 4.43803798e-003 4.12481045e-003
      7.39608379e-003 5.55335637e-003 1.48144895e-002 3.12264748e-002
      3.41346294e-001 3.41346294e-001 7.82008097e-002 4.62082997e-002
      4.08692211e-002 3.90165113e-002 2.92889103e-002 3.63280624e-002
      6.18193112e-002 3.41346294e-001 3.41346294e-001 3.54194082e-002
      8.77706893e-003 8.94731056e-005 1.82462335e-002 1.48018659e-003
      2.04004557e-003 4.43470031e-002 3.41346294e-001 3.41346294e-001
      1.72625989e-001 7.57613033e-002 1.93770677e-002 3.80542502e-002
      1.42303016e-002 2.60796994e-002 4.74194959e-002 3.41346294e-001
      2.35735014e-001 1.14495777e-001 1.09478220e-001 1.32933170e-001
      9.02918577e-002 7.53974542e-002 6.72368780e-002 1.20364927e-001
      2.32399464e-001 1.91101611e-001 1.49882793e-001 2.31095761e-001
      2.35735014e-001 2.11594060e-001 1.51229098e-001 1.06836461e-001
      1.03229918e-001 2.19019800e-001 2.35735014e-001 2.35735014e-001
      1.22743279e-001 6.70915395e-002 7.02174827e-002 4.83640097e-002
      8.17367062e-002 9.07410830e-002 2.35735014e-001 2.35735014e-001
      2.35735014e-001 2.35735014e-001 1.97606280e-001 1.82210490e-001
      6.40884563e-002 6.63589388e-002 9.03818980e-002 2.06644714e-001</_>
    <_>
      1.22234404e-001 2.40480021e-001 2.40480021e-001 2.36048624e-001
      8.81403387e-002 2.30427403e-002 4.10130136e-002 4.50289957e-002
      9.53851268e-002 1.75804511e-001 1.48849040e-001 1.54549748e-001
      1.07346132e-001 6.11879006e-002 1.15465067e-001 2.40480021e-001
      2.18220264e-001 2.22462416e-001 8.76935944e-002 5.44315353e-002
      2.40480021e-001 2.40480021e-001 2.00579494e-001 1.60641596e-001
      1.26853526e-001 9.03864354e-002 7.50347376e-002 1.63845867e-001
      2.40480021e-001 2.40480021e-001 2.40480021e-001 1.89635441e-001
      8.99180174e-002 1.43643156e-001 9.79179889e-002 1.81189865e-001
      7.91834444e-002 7.58111179e-002 8.31542537e-002 6.41447231e-002
      4.51901816e-002 1.74156561e-001 2.59096175e-001 2.59096175e-001
      1.21077769e-001 4.25744317e-002 4.28677462e-002 2.06100438e-002
      2.12854203e-002 3.35298851e-002 1.64397657e-001 2.59096175e-001
      2.59096175e-001 8.95923302e-002 1.62329718e-001 2.59096175e-001
      2.59096175e-001 1.60978645e-001 8.96791667e-002 1.95968583e-001
      1.81933314e-001 1.18468307e-001 1.61546603e-001 1.08572997e-001
      1.29141673e-001 8.09510201e-002 7.58559406e-002 5.10097817e-002
      2.59096175e-001 2.59096175e-001 2.59096175e-001 2.59096175e-001
      2.20875330e-002 2.36189216e-002 1.29159633e-002 1.51503831e-002
      3.87589075e-002 1.27576977e-001 3.50015491e-001 2.44443998e-001
      6.69113025e-002 2.74392124e-002 1.35277743e-002 1.73851401e-002
      2.87779160e-002 3.51014137e-002 3.64143141e-002 5.93833737e-002
      7.84476772e-002 3.92768197e-002 5.94074689e-002 1.31012285e-002
      1.37994215e-002 2.61667240e-002 3.40209827e-002 2.19226792e-001
      3.60295027e-001 3.60295027e-001 3.60295027e-001 6.21272959e-002
      1.76204015e-002 2.79425699e-002 3.61206308e-002 3.87750082e-002
      1.05892695e-001 3.60295027e-001 3.60295027e-001 2.29701683e-001
      5.74417599e-002 3.01551074e-002 1.77418515e-001 1.27496049e-001
      1.17549315e-001 1.62328392e-001 2.38762215e-001 2.10657179e-001
      1.02407448e-001 7.22170919e-002 2.58387357e-001 2.89187878e-001
      2.10669637e-001 1.22606061e-001 6.60955012e-002 1.28936678e-001
      8.06795210e-002 7.70246014e-002 2.83269864e-002 1.89829301e-002
      7.61654302e-002 4.99722883e-002 3.51650231e-002 1.19256817e-001
      2.89187878e-001 2.89187878e-001 1.66828334e-001 7.35581219e-002
      1.73345953e-001 2.89187878e-001 9.54208821e-002 5.29028662e-002
      1.32816046e-001 2.89187878e-001 2.89187878e-001 9.36373249e-002
      8.10017660e-002 2.67797410e-001 2.67797410e-001 1.51473358e-001
      6.32583424e-002 9.84071344e-002 8.95870253e-002 5.13572618e-002
      7.50086457e-002 9.56032723e-002 1.68621555e-001 2.66522020e-001
      1.00013427e-001 3.98627706e-002 1.46379501e-001 2.20910370e-001
      2.67797410e-001 2.40411147e-001 6.30427748e-002 2.67797410e-001
      2.67797410e-001 9.82297063e-002 5.21723926e-002 7.25693926e-002
      2.67797410e-001 1.65957198e-001 6.86571375e-002 6.85209259e-002
      1.46456525e-001 2.67797410e-001 1.37273952e-001 4.53524925e-002
      8.72379988e-002 2.13021815e-001 1.52336642e-001 1.02480203e-001
      5.31333759e-002 1.99872106e-002 3.45477648e-002 3.31288874e-002
      3.26155424e-002 1.23724081e-001 2.63610840e-001 2.63610840e-001
      2.55162686e-001 4.76500914e-002 8.28629546e-003 3.90956290e-002
      4.18881960e-002 6.43716902e-002 1.55294538e-001 2.63610840e-001
      2.63610840e-001 1.53195530e-001 1.02666721e-001 1.01803459e-001
      1.53369397e-001 1.78716555e-001 7.54660740e-002 1.23961776e-001
      2.50736058e-001 1.61647141e-001 1.57448590e-001 1.66393101e-001
      1.22399621e-001 1.73109233e-001 1.42766044e-001 1.54093772e-001
      2.05785468e-001 2.63610840e-001 2.63610840e-001 2.56419748e-001
      1.60848014e-002 4.24993858e-002 4.26808335e-002 3.10938228e-002
      3.64489816e-002 1.01681553e-001 3.67760390e-001 3.06634963e-001
      1.13843344e-001 6.09369539e-002 8.56730118e-002 1.07244171e-001
      5.45854606e-002 5.67569397e-002 2.70099998e-001 3.67760390e-001
      3.67760390e-001 1.12610243e-001 1.84559692e-002 5.41984439e-002
      5.34589551e-002 5.70574589e-002 5.31957261e-002 3.35671417e-002
      6.74536154e-002 4.91348058e-002 2.52578482e-002 2.96870265e-002
      5.03362827e-002 5.39166853e-002 7.64672384e-002 7.48346746e-002
      2.03017786e-001 3.67760390e-001 3.67760390e-001 4.74798419e-002
      3.09385490e-002 5.20096906e-002 9.61135924e-002 4.12737019e-002
      3.77854034e-002 2.06523180e-001 3.02389234e-001 3.02389234e-001
      9.00774151e-002 5.12124486e-002 5.80374300e-002 1.50348023e-001
      1.75824434e-001 4.04353924e-002 1.26989484e-001 2.59999365e-001
      1.72177196e-001 5.69702908e-002 1.54019734e-002 1.37295816e-002
      1.61171872e-002 1.84943955e-002 4.19319868e-002 2.83251971e-001
      3.02389234e-001 3.02389234e-001 7.22935498e-002 9.24751014e-002
      5.02104498e-002 1.15199752e-001 1.53453171e-001 6.88170120e-002
      2.36455724e-001 3.02389234e-001 3.02389234e-001 8.36779699e-002
      1.09582834e-001 1.31524876e-001 1.87090591e-001 2.25713611e-001
      5.13521433e-002 3.40102352e-002 7.70874545e-002 7.45592043e-002
      8.42759982e-002 1.94752231e-001 2.76951313e-001 2.76951313e-001
      1.47371426e-001 1.17412113e-001 8.38389397e-002 1.29415855e-001
      1.66667774e-001 1.93479657e-001 1.47138938e-001 1.56727150e-001
      2.37350151e-001 2.76951313e-001 9.78395641e-002 6.55877516e-002
      1.39195606e-001 1.20270349e-001 8.61190036e-002 2.00011820e-001
      2.76951313e-001 2.76951313e-001 2.76951313e-001 1.31117150e-001
      5.27637899e-002 4.50319722e-002 6.87235445e-002 1.11950085e-001</_>
    <_>
      2.04520732e-001 1.51887700e-001 1.94424331e-001 1.70508623e-001
      1.40563205e-001 8.72995928e-002 4.46349643e-002 4.19859476e-002
      9.46215689e-002 2.76745617e-001 1.51263505e-001 1.04513071e-001
      1.65088236e-001 1.00018345e-001 6.74388856e-002 4.60306071e-002
      7.60970265e-002 2.45957851e-001 2.31557086e-001 2.15454787e-001
      7.86017999e-002 1.26723647e-001 2.29089141e-001 2.76745617e-001
      1.65597498e-001 6.65735602e-002 1.18605971e-001 2.76745617e-001
      2.76745617e-001 1.10734962e-001 1.52030915e-001 9.34827402e-002
      6.69644997e-002 1.17513157e-001 1.23817757e-001 2.76745617e-001
      1.97604761e-001 8.59275684e-002 5.09544462e-002 1.14830703e-001
      9.36102048e-002 7.15967119e-002 1.00788884e-001 1.08266629e-001
      2.65629351e-001 1.64065421e-001 8.23866948e-002 4.90079448e-002
      1.08526759e-001 1.60057366e-001 2.00136945e-001 1.78499565e-001
      1.94541261e-001 2.50158012e-001 3.04630309e-001 1.41114384e-001
      6.56337738e-002 1.17819294e-001 7.50422329e-002 5.43684773e-002
      7.15723410e-002 7.38708898e-002 3.04630309e-001 3.04630309e-001
      1.65186152e-001 7.58737698e-002 1.77264601e-001 1.66317031e-001
      1.46346554e-001 1.28510669e-001 1.55053616e-001 3.04630309e-001
      8.84975567e-002 5.55575266e-002 2.52055470e-002 6.21849895e-002
      1.97805196e-001 3.08587879e-001 2.32572749e-001 9.73487347e-002
      1.07200861e-001 1.22469049e-002 8.87667015e-003 5.54456282e-003
      1.84191689e-002 2.88658977e-001 3.08587879e-001 2.20686808e-001
      1.75805669e-002 1.32061159e-002 1.61770001e-001 1.20303355e-001
      5.35623655e-002 1.56253189e-001 1.83094233e-001 3.08587879e-001
      1.60035610e-001 1.34701177e-001 2.97915548e-001 1.72967017e-002
      2.11060457e-002 1.06020104e-002 4.20383960e-002 2.73500711e-001
      3.08587879e-001 1.99191868e-001 3.87595855e-002 2.70046126e-002
      1.38872877e-001 1.18553057e-001 5.01538739e-002 6.66257665e-002
      2.24454567e-001 3.02260756e-001 1.77779406e-001 7.80406222e-002
      7.74776116e-002 3.02260756e-001 2.35334203e-001 5.31533211e-002
      5.56823984e-002 6.52925447e-002 6.45511746e-002 1.36099517e-001
      1.20274700e-001 3.02260756e-001 4.46444787e-002 2.43673269e-002
      3.37690823e-002 8.65577161e-002 3.02260756e-001 3.02260756e-001
      1.23424038e-001 4.07577492e-002 3.48360687e-002 3.02260756e-001
      1.45038784e-001 8.29190165e-002 9.75050107e-002 1.95610538e-001
      2.27961957e-001 9.92516875e-002 7.59925395e-002 1.97755411e-001
      3.27495605e-001 1.27166063e-001 2.08111908e-002 1.89945679e-002
      1.06697399e-002 9.86642763e-003 2.69798581e-002 4.21047136e-002
      3.27495605e-001 3.27495605e-001 1.60198137e-001 6.82770237e-002
      1.27290949e-001 7.11924434e-002 5.84856644e-002 5.80663048e-002
      7.62477145e-002 3.27495605e-001 3.27495605e-001 1.22927658e-001
      4.58689854e-002 2.61019841e-002 2.63905581e-002 4.32958603e-002
      3.16832066e-002 6.52098879e-002 2.91971713e-001 3.27495605e-001
      1.13624550e-001 5.15831821e-002 9.44799408e-002 6.50383905e-002
      5.61477542e-002 9.62668285e-002 1.09437242e-001 3.24395746e-001
      2.34214097e-001 1.33998647e-001 8.09399709e-002 2.23488957e-001
      1.38840139e-001 2.78077096e-001 9.22670662e-002 7.75790140e-002
      2.51230240e-001 2.03574523e-002 2.84170844e-002 1.55274682e-002
      8.93828198e-002 2.88374394e-001 3.08357924e-001 1.68786451e-001
      3.59115489e-002 2.82754935e-002 2.15120569e-001 9.40073356e-002
      6.94587529e-002 2.40889817e-001 1.91787079e-001 1.83068961e-001
      7.85379410e-002 7.41110742e-002 1.53822064e-001 5.86873293e-002
      4.83525991e-002 2.39633769e-002 1.52627900e-001 3.08357924e-001
      3.08357924e-001 1.72374293e-001 2.86363754e-002 3.38062122e-002
      9.31832381e-003 8.02254118e-003 2.84815300e-002 1.06536567e-001
      2.91127414e-001 2.91127414e-001 4.85828519e-002 1.18873948e-002
      1.01250559e-002 1.80748478e-001 5.16470298e-002 7.03693777e-002
      1.32223457e-001 2.54604965e-001 2.18886539e-001 6.76238909e-002
      6.37009293e-002 1.54823169e-001 3.87880690e-002 6.66589802e-003
      1.12350360e-002 4.91406284e-002 2.91127414e-001 2.91127414e-001
      2.50215024e-001 6.49001896e-002 3.66188250e-002 2.91127414e-001
      8.25955421e-002 6.63423389e-002 8.86056796e-002 1.95106894e-001
      2.46938318e-001 2.27092043e-001 1.69098437e-001 2.91127414e-001
      3.47053677e-001 4.90780808e-002 3.24217342e-002 2.89680529e-002
      2.10978091e-002 3.25120315e-002 2.68117692e-002 4.30685729e-002
      2.48178661e-001 3.47053677e-001 7.84336329e-002 1.78619418e-002
      2.98473835e-002 2.90403236e-002 2.76705809e-002 5.06247543e-002
      7.46794045e-002 3.47053677e-001 3.47053677e-001 8.38868096e-002
      3.20567712e-002 2.38677301e-002 2.13355776e-002 3.86527888e-002
      5.77350892e-002 7.76719674e-002 3.47053677e-001 3.47053677e-001
      2.02047423e-001 3.35040353e-002 2.20939051e-002 2.08689701e-002
      3.46582476e-003 1.19445371e-002 5.79368547e-002 3.47053677e-001
      2.70502180e-001 1.24503866e-001 4.10569683e-002 1.03754900e-001
      1.11761093e-001 7.08413646e-002 6.61288276e-002 1.46723956e-001
      2.55849928e-001 9.16545540e-002 8.84334221e-002 4.86077890e-002
      1.12387568e-001 2.70502180e-001 2.70502180e-001 1.02546662e-001
      1.24038979e-001 9.25512239e-002 2.70502180e-001 2.70502180e-001
      8.81513134e-002 7.34769851e-002 5.91819249e-002 1.14227738e-002
      2.80954819e-002 1.45494893e-001 2.70502180e-001 2.58491099e-001
      2.70502180e-001 2.30445042e-001 9.56152454e-002 1.69594303e-001
      1.04511552e-001 1.18905798e-001 1.83544055e-001 1.65095732e-001</_>
    <_>
      2.43637577e-001 2.47765586e-001 1.38897195e-001 2.20293820e-001
      2.13271990e-001 8.36583152e-002 7.94803947e-002 3.44653800e-002
      8.49791542e-002 2.97142804e-001 2.35955209e-001 1.00242406e-001
      8.53446051e-002 2.77021155e-002 2.17169356e-002 7.01965243e-002
      6.46613836e-002 2.97142804e-001 1.16913579e-001 7.14497194e-002
      5.34094386e-002 1.06770150e-001 2.97142804e-001 2.97142804e-001
      1.25647396e-001 2.16723010e-002 4.78751101e-002 2.97142804e-001
      1.72520697e-001 1.16162226e-001 8.92890841e-002 6.67635351e-002
      1.07158244e-001 7.55771920e-002 6.06371611e-002 2.97142804e-001
      3.11460048e-001 7.01521635e-002 1.87880434e-002 7.93522876e-003
      9.65503696e-003 4.62390832e-004 1.10189877e-002 6.70161322e-002
      3.11460048e-001 3.11460048e-001 1.47262201e-001 7.16319978e-002
      3.08265127e-002 2.10388284e-002 4.42084186e-002 8.75453278e-002
      3.11460048e-001 3.11460048e-001 3.11460048e-001 8.53456482e-002
      3.60729322e-002 1.78230461e-002 1.30998855e-002 1.81272682e-002
      3.99101786e-002 7.10062087e-002 3.11460048e-001 3.11460048e-001
      1.11081652e-001 7.15649650e-002 6.00732937e-002 1.68172941e-002
      3.32992114e-002 1.04563698e-001 1.62840948e-001 3.11460048e-001
      2.28691012e-001 1.74433544e-001 1.01436920e-001 6.52479902e-002
      5.07415570e-002 9.13609043e-002 1.40829891e-001 2.28691012e-001
      2.28691012e-001 2.28691012e-001 9.59495530e-002 5.88509254e-002
      7.67643675e-002 2.11465582e-001 1.77232981e-001 1.75931126e-001
      1.50411367e-001 1.90670341e-001 2.19420195e-001 1.22071922e-001
      1.88080966e-001 1.54275820e-001 5.10428026e-002 6.39068186e-002
      1.09417923e-001 1.84219837e-001 2.06763461e-001 1.38592884e-001
      8.36710706e-002 1.59793094e-001 2.17332184e-001 2.28691012e-001
      2.05527008e-001 2.28691012e-001 2.28691012e-001 1.11701749e-001
      1.06312357e-001 4.87392545e-002 2.17153989e-002 4.02842015e-002
      3.08805019e-001 3.08805019e-001 8.85767266e-002 2.63203587e-002
      5.94113953e-002 3.08805019e-001 9.83707532e-002 4.70968708e-002
      4.93524224e-002 9.51954126e-002 1.16717227e-001 4.43616956e-002
      6.94871396e-002 3.08805019e-001 2.02061757e-001 1.01463586e-001
      5.53393550e-002 1.60868227e-001 3.08805019e-001 2.14806855e-001
      1.03675134e-001 9.19483900e-002 1.48809582e-001 3.08805019e-001
      1.81936502e-001 7.91043118e-002 9.19078737e-002 5.63364699e-002
      6.58246502e-002 8.86502117e-002 1.64355814e-001 3.08805019e-001
      3.39366615e-001 4.93954681e-002 1.35663226e-002 1.37860095e-002
      1.43597415e-002 1.89441163e-002 2.66206097e-002 5.31066284e-002
      3.28279495e-001 3.39366615e-001 8.23668689e-002 4.10872027e-002
      2.93832440e-002 6.60632132e-003 3.23019922e-002 7.40924627e-002
      8.02840590e-002 3.39366615e-001 3.39366615e-001 7.55914301e-002
      1.76435243e-002 9.41087306e-003 3.96250328e-003 7.92761520e-003
      1.32388650e-002 7.55281672e-002 3.39366615e-001 3.39366615e-001
      1.58947065e-001 1.36258714e-002 4.92590666e-003 1.38669182e-003
      4.59064804e-002 4.09018472e-002 1.09814301e-001 3.39366615e-001
      2.11089060e-001 1.01645619e-001 1.26917779e-001 1.19896494e-001
      3.76738273e-002 8.58376175e-002 1.39273003e-001 1.23035982e-001
      2.53484845e-001 2.60220822e-002 5.00406362e-002 1.00431003e-001
      2.73424059e-001 2.73424059e-001 1.72587261e-001 2.35294521e-001
      2.57050306e-001 7.08043501e-002 2.73424059e-001 2.27657408e-001
      5.61096184e-002 4.30041477e-002 3.31203640e-002 1.71354711e-001
      1.47649437e-001 1.51182517e-001 2.73424059e-001 1.12232342e-001
      1.29788637e-001 6.94575757e-002 1.88760683e-001 2.73424059e-001
      1.91095456e-001 1.10589691e-001 7.29010776e-002 7.14729503e-002
      1.21822685e-001 4.77739647e-002 5.76828457e-002 2.36071527e-001
      2.54671305e-001 1.48734584e-001 1.02775753e-001 1.06727138e-001
      1.41494513e-001 2.54671305e-001 8.60867277e-002 1.25236273e-001
      1.47093341e-001 6.28403947e-002 1.06999196e-001 1.24822333e-001
      2.08721757e-001 2.54671305e-001 2.69969553e-002 4.31132689e-003
      3.17976736e-002 1.14167005e-001 2.37564012e-001 2.54671305e-001
      2.54671305e-001 2.34465852e-001 1.22418083e-001 8.83282796e-002
      2.26023868e-002 9.84509811e-002 1.43573627e-001 1.05706207e-001
      1.86531678e-001 2.54671305e-001 2.41091892e-001 2.54671305e-001
      2.90880024e-001 8.19913372e-002 7.98217431e-002 7.56930858e-002
      3.00658625e-002 4.72453348e-002 5.68059459e-002 9.01117474e-002
      2.90880024e-001 2.90880024e-001 2.36637652e-001 1.06448941e-001
      1.04612902e-001 4.26190682e-002 7.50980005e-002 5.20517640e-002
      6.10385425e-002 2.90880024e-001 1.74885377e-001 5.03847450e-002
      1.02630869e-001 1.20648138e-001 8.64911228e-002 9.93948504e-002
      1.58054575e-001 1.14243545e-001 2.85435259e-001 2.90880024e-001
      1.94354251e-001 2.21274748e-001 2.06642240e-001 1.30666822e-001
      1.14553951e-001 1.25896990e-001 7.76886791e-002 2.68270493e-001
      2.55382687e-001 2.55382687e-001 1.38360605e-001 9.39616114e-002
      8.86173472e-002 1.28402025e-001 5.30478582e-002 5.76039627e-002
      1.77223906e-001 1.34213895e-001 1.64605185e-001 9.21249166e-002
      2.38977030e-001 2.55382687e-001 1.10211335e-001 2.42301989e-002
      1.64753590e-002 3.83311361e-002 2.55382687e-001 2.55382687e-001
      2.55382687e-001 1.50929421e-001 1.48445621e-001 9.71596688e-002
      5.59887141e-002 4.06615138e-002 1.51135996e-001 2.35250443e-001
      2.55382687e-001 1.82638049e-001 2.55382687e-001 2.55382687e-001
      8.05379599e-002 2.73069758e-002 5.40559227e-003 1.32610425e-001</_>
    <_>
      8.31781477e-002 8.81753936e-002 2.11560264e-001 2.62600422e-001
      1.72125295e-001 6.60520568e-002 9.12398547e-002 1.26265317e-001
      1.54237926e-001 8.95196125e-002 1.52970716e-001 8.42647702e-002
      8.07140842e-002 9.90131497e-002 8.81079435e-002 2.19442353e-001
      2.62600422e-001 2.62600422e-001 6.88498989e-002 6.86515272e-002
      1.37708202e-001 2.62600422e-001 2.62600422e-001 1.23086736e-001
      7.95468241e-002 1.05700895e-001 6.75787628e-002 1.06231682e-001
      2.62600422e-001 1.80705562e-001 2.62600422e-001 2.62600422e-001
      1.35489851e-001 1.20927036e-001 1.76276386e-001 1.40807033e-001
      8.65962058e-002 9.69406292e-002 2.13821642e-002 3.97871174e-002
      3.88677530e-002 5.82570210e-002 1.86763704e-001 2.62001574e-001
      2.62001574e-001 1.41395867e-001 2.69586034e-002 4.99852141e-003
      1.13215363e-002 2.20212806e-002 6.14148043e-002 1.91175729e-001
      2.62001574e-001 2.62001574e-001 1.28091082e-001 1.97715402e-001
      8.31377134e-002 2.62001574e-001 2.62001574e-001 1.01461217e-001
      1.30227268e-001 1.67078048e-001 2.06040993e-001 2.62001574e-001
      9.03375372e-002 4.37821224e-002 1.45727366e-001 1.03793874e-001
      7.46398270e-002 2.26910785e-001 2.62001574e-001 2.62001574e-001
      1.40352398e-001 1.31144263e-002 4.25313413e-003 1.25667853e-002
